{"parameters/graph_2lstm.weight_ih_l0": {"_type": "histogram", "values": [2.0, 0.0, 0.0, 3.0, 0.0, 3.0, 1.0, 2.0, 5.0, 7.0, 3.0, 7.0, 6.0, 7.0, 7.0, 20.0, 13.0, 18.0, 17.0, 20.0, 15.0, 14.0, 14.0, 17.0, 17.0, 15.0, 15.0, 16.0, 24.0, 10.0, 15.0, 21.0, 16.0, 14.0, 8.0, 9.0, 10.0, 11.0, 20.0, 23.0, 8.0, 15.0, 15.0, 18.0, 17.0, 14.0, 12.0, 18.0, 7.0, 2.0, 4.0, 3.0, 1.0, 9.0, 1.0, 5.0, 1.0, 2.0, 0.0, 0.0, 1.0, 1.0, 0.0, 1.0], "bins": [-1.1513152122497559, -1.1252837181091309, -1.0992521047592163, -1.0732206106185913, -1.0471891164779663, -1.0211576223373413, -0.9951260089874268, -0.9690945148468018, -0.9430630207061768, -0.917031466960907, -0.890999972820282, -0.8649684190750122, -0.8389369249343872, -0.8129053711891174, -0.7868738174438477, -0.7608423233032227, -0.7348107695579529, -0.7087792158126831, -0.6827477216720581, -0.6567161679267883, -0.6306846737861633, -0.6046531200408936, -0.5786216259002686, -0.5525900721549988, -0.526558518409729, -0.5005269646644592, -0.47449547052383423, -0.44846391677856445, -0.42243242263793945, -0.3964008688926697, -0.3703693449497223, -0.3443378210067749, -0.3183063864707947, -0.2922748625278473, -0.2662433385848999, -0.24021179974079132, -0.21418027579784393, -0.18814875185489655, -0.16211721301078796, -0.13608568906784058, -0.11005416512489319, -0.0840226411819458, -0.057991109788417816, -0.03195957839488983, -0.005928054451942444, 0.020103469491004944, 0.046135008335113525, 0.07216653227806091, 0.0981980562210083, 0.12422958016395569, 0.15026110410690308, 0.17629264295101166, 0.20232416689395905, 0.22835569083690643, 0.254387229681015, 0.2804187536239624, 0.3064502775669098, 0.3324818015098572, 0.35851332545280457, 0.38454484939575195, 0.41057640314102173, 0.43660789728164673, 0.4626394510269165, 0.4886709749698639, 0.5147024989128113]}, "_timestamp": 1650853421, "_runtime": 144, "parameters/graph_2lstm.weight_hh_l0": {"_type": "histogram", "values": [2.0, 0.0, 1.0, 2.0, 0.0, 1.0, 1.0, 0.0, 2.0, 3.0, 1.0, 3.0, 1.0, 8.0, 1.0, 9.0, 14.0, 22.0, 25.0, 34.0, 56.0, 47.0, 58.0, 81.0, 105.0, 114.0, 124.0, 116.0, 151.0, 159.0, 177.0, 168.0, 189.0, 172.0, 204.0, 186.0, 168.0, 149.0, 155.0, 122.0, 125.0, 122.0, 90.0, 97.0, 90.0, 74.0, 36.0, 35.0, 16.0, 19.0, 16.0, 17.0, 13.0, 5.0, 3.0, 1.0, 2.0, 0.0, 3.0, 0.0, 1.0, 1.0, 1.0, 2.0], "bins": [-0.7046985626220703, -0.6841309666633606, -0.6635633707046509, -0.6429958343505859, -0.6224282383918762, -0.6018606424331665, -0.5812931060791016, -0.5607255101203918, -0.5401579141616821, -0.5195903182029724, -0.4990227520465851, -0.47845518589019775, -0.45788758993148804, -0.4373199939727783, -0.416752427816391, -0.39618486166000366, -0.37561726570129395, -0.35504966974258423, -0.3344821035861969, -0.31391453742980957, -0.29334694147109985, -0.27277934551239014, -0.2522117793560028, -0.23164419829845428, -0.21107661724090576, -0.19050903618335724, -0.16994145512580872, -0.1493738740682602, -0.12880629301071167, -0.10823871195316315, -0.08767113089561462, -0.0671035498380661, -0.0465359091758728, -0.02596832811832428, -0.005400747060775757, 0.015166833996772766, 0.03573441505432129, 0.05630199611186981, 0.07686957716941833, 0.09743715822696686, 0.11800473928451538, 0.1385723203420639, 0.15913990139961243, 0.17970748245716095, 0.20027506351470947, 0.220842644572258, 0.24141022562980652, 0.26197779178619385, 0.28254538774490356, 0.3031129837036133, 0.3236805498600006, 0.34424811601638794, 0.36481571197509766, 0.3853833079338074, 0.4059508740901947, 0.42651844024658203, 0.44708603620529175, 0.46765363216400146, 0.4882211983203888, 0.5087887644767761, 0.5293563604354858, 0.5499239563941956, 0.5704915523529053, 0.5910590887069702, 0.6116266846656799]}, "parameters/graph_2lstm.bias_ih_l0": {"_type": "histogram", "values": [1.0, 0.0, 1.0, 0.0, 0.0, 0.0, 0.0, 0.0, 0.0, 0.0, 0.0, 0.0, 0.0, 1.0, 0.0, 2.0, 0.0, 2.0, 0.0, 4.0, 2.0, 2.0, 7.0, 3.0, 3.0, 3.0, 3.0, 4.0, 7.0, 5.0, 3.0, 4.0, 4.0, 3.0, 2.0, 1.0, 1.0, 2.0, 1.0, 1.0, 1.0, 1.0, 4.0, 1.0, 1.0, 1.0, 1.0, 2.0, 4.0, 5.0, 1.0, 1.0, 1.0, 5.0, 3.0, 3.0, 1.0, 4.0, 2.0, 3.0, 1.0, 0.0, 1.0, 1.0], "bins": [-1.0706443786621094, -1.0516148805618286, -1.0325853824615479, -1.0135560035705566, -0.9945265054702759, -0.9754970073699951, -0.9564675688743591, -0.9374381303787231, -0.9184086322784424, -0.8993791341781616, -0.8803496956825256, -0.8613202571868896, -0.8422907590866089, -0.8232612609863281, -0.8042318224906921, -0.7852023839950562, -0.7661728858947754, -0.7471433877944946, -0.7281139492988586, -0.7090845108032227, -0.6900550127029419, -0.6710255146026611, -0.6519960761070251, -0.6329666376113892, -0.6139371395111084, -0.5949076414108276, -0.5758782029151917, -0.5568487644195557, -0.5378192663192749, -0.5187897682189941, -0.49976032972335815, -0.4807308614253998, -0.4617013931274414, -0.44267192482948303, -0.42364245653152466, -0.4046129882335663, -0.3855835199356079, -0.36655405163764954, -0.34752458333969116, -0.3284951150417328, -0.3094656467437744, -0.29043617844581604, -0.27140671014785767, -0.2523772418498993, -0.23334777355194092, -0.21431830525398254, -0.19528883695602417, -0.1762593686580658, -0.15722991526126862, -0.13820044696331024, -0.11917097866535187, -0.1001415103673935, -0.08111204206943512, -0.062082573771476746, -0.04305310547351837, -0.024023637175559998, -0.0049941688776016235, 0.01403529942035675, 0.033064767718315125, 0.0520942360162735, 0.07112370431423187, 0.09015317261219025, 0.10918264091014862, 0.128212109208107, 0.14724157750606537]}, "parameters/graph_2lstm.bias_hh_l0": {"_type": "histogram", "values": [1.0, 0.0, 1.0, 0.0, 0.0, 0.0, 0.0, 2.0, 0.0, 0.0, 3.0, 3.0, 2.0, 1.0, 3.0, 6.0, 1.0, 1.0, 1.0, 3.0, 4.0, 7.0, 1.0, 4.0, 0.0, 3.0, 1.0, 4.0, 6.0, 2.0, 3.0, 2.0, 1.0, 1.0, 0.0, 0.0, 2.0, 2.0, 1.0, 3.0, 1.0, 2.0, 2.0, 2.0, 3.0, 1.0, 2.0, 3.0, 1.0, 1.0, 1.0, 4.0, 2.0, 3.0, 3.0, 2.0, 2.0, 2.0, 1.0, 2.0, 0.0, 2.0, 0.0, 3.0], "bins": [-0.9859421849250793, -0.9679266810417175, -0.9499111771583557, -0.9318956732749939, -0.9138802289962769, -0.895864725112915, -0.8778492212295532, -0.8598337173461914, -0.8418182134628296, -0.8238027095794678, -0.805787205696106, -0.7877717018127441, -0.7697561979293823, -0.7517407536506653, -0.7337252497673035, -0.7157097458839417, -0.6976942420005798, -0.679678738117218, -0.6616632342338562, -0.6436477303504944, -0.6256322860717773, -0.6076167821884155, -0.5896012783050537, -0.5715857744216919, -0.5535702705383301, -0.5355547666549683, -0.5175392627716064, -0.499523788690567, -0.4815082848072052, -0.4634927809238434, -0.44547730684280396, -0.42746180295944214, -0.4094462990760803, -0.3914307951927185, -0.3734152913093567, -0.35539981722831726, -0.33738431334495544, -0.31936880946159363, -0.3013533353805542, -0.2833378314971924, -0.26532232761383057, -0.24730682373046875, -0.22929133474826813, -0.2112758457660675, -0.1932603418827057, -0.17524483799934387, -0.15722934901714325, -0.13921386003494263, -0.12119834125041962, -0.1031828448176384, -0.08516734838485718, -0.06715185195207596, -0.04913635551929474, -0.03112085908651352, -0.0131053626537323, 0.004910126328468323, 0.02292563021183014, 0.04094112664461136, 0.05895662307739258, 0.0769721195101738, 0.09498761594295502, 0.11300311237573624, 0.13101860880851746, 0.14903409779071808, 0.1670496016740799]}, "parameters/graph_2lstm.weight_ih_l0_reverse": {"_type": "histogram", "values": [1.0, 0.0, 0.0, 0.0, 0.0, 0.0, 0.0, 0.0, 0.0, 0.0, 0.0, 0.0, 0.0, 2.0, 0.0, 1.0, 1.0, 0.0, 0.0, 0.0, 1.0, 0.0, 0.0, 2.0, 0.0, 2.0, 1.0, 1.0, 5.0, 11.0, 6.0, 8.0, 22.0, 16.0, 27.0, 34.0, 49.0, 59.0, 62.0, 53.0, 49.0, 44.0, 32.0, 28.0, 26.0, 16.0, 12.0, 8.0, 8.0, 2.0, 3.0, 2.0, 2.0, 0.0, 1.0, 0.0, 0.0, 2.0, 0.0, 0.0, 0.0, 0.0, 0.0, 1.0], "bins": [-5.811755180358887, -5.6645026206970215, -5.517250061035156, -5.369997978210449, -5.222745418548584, -5.075492858886719, -4.9282402992248535, -4.780987739562988, -4.633735656738281, -4.486483097076416, -4.339230537414551, -4.191978454589844, -4.0447258949279785, -3.8974733352661133, -3.750220775604248, -3.602968454360962, -3.4557158946990967, -3.3084633350372314, -3.1612110137939453, -3.01395845413208, -2.866706132888794, -2.7194535732269287, -2.5722012519836426, -2.4249486923217773, -2.277696132659912, -2.130443572998047, -1.9831912517547607, -1.8359386920928955, -1.6886863708496094, -1.5414338111877441, -1.3941813707351685, -1.2469289302825928, -1.0996768474578857, -0.9524244070053101, -0.8051719665527344, -0.6579194664955139, -0.5106670260429382, -0.36341458559036255, -0.2161620855331421, -0.0689096450805664, 0.07834279537200928, 0.22559525072574615, 0.37284770607948303, 0.5201001763343811, 0.6673526167869568, 0.8146050572395325, 0.9618575572967529, 1.1091099977493286, 1.2563624382019043, 1.40361487865448, 1.5508673191070557, 1.698119878768921, 1.845372200012207, 1.9926247596740723, 2.1398773193359375, 2.2871296405792236, 2.4343819618225098, 2.581634521484375, 2.728886842727661, 2.8761394023895264, 3.0233917236328125, 3.1706442832946777, 3.317896842956543, 3.465149164199829, 3.6124017238616943]}, "parameters/graph_2lstm.weight_hh_l0_reverse": {"_type": "histogram", "values": [3.0, 1.0, 0.0, 0.0, 2.0, 2.0, 4.0, 3.0, 3.0, 4.0, 5.0, 6.0, 8.0, 7.0, 7.0, 16.0, 21.0, 33.0, 41.0, 32.0, 49.0, 67.0, 91.0, 110.0, 111.0, 130.0, 141.0, 200.0, 211.0, 233.0, 218.0, 226.0, 232.0, 204.0, 180.0, 182.0, 172.0, 147.0, 106.0, 102.0, 63.0, 51.0, 44.0, 27.0, 28.0, 19.0, 13.0, 15.0, 13.0, 9.0, 1.0, 2.0, 0.0, 0.0, 1.0, 0.0, 0.0, 1.0, 1.0, 1.0, 0.0, 0.0, 0.0, 1.0], "bins": [-3.9635047912597656, -3.835991144180298, -3.708477735519409, -3.5809640884399414, -3.4534506797790527, -3.325937032699585, -3.198423385620117, -3.0709099769592285, -2.9433963298797607, -2.815882682800293, -2.6883692741394043, -2.5608556270599365, -2.4333419799804688, -2.30582857131958, -2.1783149242401123, -2.0508012771606445, -1.9232878684997559, -1.7957743406295776, -1.6682608127593994, -1.5407471656799316, -1.4132336378097534, -1.2857201099395752, -1.1582064628601074, -1.0306929349899292, -0.903179407119751, -0.7756658792495728, -0.6481522917747498, -0.5206387042999268, -0.39312517642974854, -0.2656116485595703, -0.13809806108474731, -0.010584473609924316, 0.11692953109741211, 0.24444308876991272, 0.37195664644241333, 0.49947020411491394, 0.6269837617874146, 0.7544972896575928, 0.8820108771324158, 1.0095244646072388, 1.137037992477417, 1.2645515203475952, 1.3920650482177734, 1.5195786952972412, 1.6470922231674194, 1.7746057510375977, 1.9021193981170654, 2.029633045196533, 2.157146453857422, 2.2846601009368896, 2.4121735095977783, 2.539687156677246, 2.6672005653381348, 2.7947142124176025, 2.9222278594970703, 3.049741268157959, 3.1772549152374268, 3.3047685623168945, 3.432281970977783, 3.559795618057251, 3.6873092651367188, 3.8148226737976074, 3.942336320877075, 4.069849967956543, 4.197363376617432]}, "parameters/graph_2lstm.bias_ih_l0_reverse": {"_type": "histogram", "values": [1.0, 0.0, 0.0, 1.0, 0.0, 0.0, 0.0, 2.0, 0.0, 1.0, 1.0, 0.0, 3.0, 2.0, 3.0, 1.0, 2.0, 3.0, 3.0, 5.0, 2.0, 3.0, 8.0, 3.0, 4.0, 4.0, 5.0, 4.0, 3.0, 3.0, 5.0, 6.0, 3.0, 4.0, 4.0, 7.0, 1.0, 4.0, 5.0, 0.0, 0.0, 2.0, 1.0, 2.0, 1.0, 1.0, 0.0, 1.0, 0.0, 1.0, 0.0, 2.0, 0.0, 0.0, 0.0, 0.0, 1.0, 1.0, 0.0, 0.0, 0.0, 0.0, 0.0, 1.0], "bins": [-0.9914777874946594, -0.9612761735916138, -0.9310745596885681, -0.9008729457855225, -0.870671272277832, -0.8404697179794312, -0.8102680444717407, -0.7800664305686951, -0.7498648166656494, -0.7196632027626038, -0.6894615888595581, -0.6592599749565125, -0.6290583610534668, -0.5988566875457764, -0.5686550736427307, -0.5384534597396851, -0.5082518458366394, -0.47805023193359375, -0.4478486180305481, -0.41764697432518005, -0.3874453604221344, -0.35724374651908875, -0.3270421028137207, -0.29684048891067505, -0.2666388750076294, -0.23643726110458374, -0.2062356323003769, -0.17603400349617004, -0.1458323895931244, -0.11563077569007874, -0.08542914688587189, -0.05522751808166504, -0.02502584457397461, 0.005175776779651642, 0.03537739813327789, 0.06557901948690414, 0.0957806408405304, 0.12598225474357605, 0.1561838835477829, 0.18638551235198975, 0.2165871262550354, 0.24678874015808105, 0.2769903540611267, 0.30719199776649475, 0.3373936116695404, 0.36759522557258606, 0.3977968692779541, 0.42799848318099976, 0.4582000970840454, 0.48840171098709106, 0.5186033248901367, 0.5488049387931824, 0.579006552696228, 0.6092082262039185, 0.6394098401069641, 0.6696114540100098, 0.6998130679130554, 0.7300146818161011, 0.7602162957191467, 0.7904179096221924, 0.8206195831298828, 0.8508211374282837, 0.8810228109359741, 0.9112244248390198, 0.9414260387420654]}, "parameters/graph_2lstm.bias_hh_l0_reverse": {"_type": "histogram", "values": [1.0, 0.0, 1.0, 0.0, 1.0, 0.0, 1.0, 1.0, 4.0, 1.0, 0.0, 2.0, 2.0, 1.0, 4.0, 1.0, 2.0, 5.0, 5.0, 4.0, 7.0, 2.0, 2.0, 6.0, 2.0, 3.0, 5.0, 3.0, 4.0, 3.0, 4.0, 9.0, 2.0, 7.0, 0.0, 2.0, 0.0, 0.0, 2.0, 2.0, 1.0, 4.0, 3.0, 2.0, 1.0, 1.0, 0.0, 1.0, 1.0, 1.0, 1.0, 1.0, 0.0, 0.0, 0.0, 0.0, 0.0, 0.0, 0.0, 1.0, 0.0, 0.0, 0.0, 1.0], "bins": [-0.8907588720321655, -0.8625936508178711, -0.8344284892082214, -0.8062633275985718, -0.7780981063842773, -0.7499328851699829, -0.7217677235603333, -0.6936025619506836, -0.6654373407363892, -0.6372721195220947, -0.6091069579124451, -0.5809417963027954, -0.552776575088501, -0.5246113538742065, -0.4964461922645569, -0.46828100085258484, -0.4401158094406128, -0.41195061802864075, -0.3837854266166687, -0.35562023520469666, -0.3274550437927246, -0.29928985238075256, -0.2711246609687805, -0.24295946955680847, -0.21479427814483643, -0.18662908673286438, -0.15846389532089233, -0.1302987039089203, -0.10213351249694824, -0.0739683210849762, -0.04580312967300415, -0.017637938261032104, 0.010527253150939941, 0.03869244456291199, 0.06685763597488403, 0.09502282738685608, 0.12318801879882812, 0.15135321021080017, 0.17951840162277222, 0.20768359303474426, 0.2358487844467163, 0.26401397585868835, 0.2921791672706604, 0.32034435868263245, 0.3485095500946045, 0.37667474150657654, 0.4048399329185486, 0.43300512433052063, 0.4611703157424927, 0.4893355071544647, 0.5175006985664368, 0.5456658601760864, 0.5738310813903809, 0.6019963026046753, 0.630161464214325, 0.6583266258239746, 0.686491847038269, 0.7146570682525635, 0.7428222298622131, 0.7709873914718628, 0.7991526126861572, 0.8273178339004517, 0.8554829955101013, 0.883648157119751, 0.9118133783340454]}, "parameters/graph_2linear.weight": {"_type": "histogram", "values": [2.0, 2.0, 2.0, 0.0, 0.0, 0.0, 0.0, 0.0, 0.0, 0.0, 0.0, 2.0, 1.0, 2.0, 1.0, 0.0, 0.0, 2.0, 2.0, 22.0, 6.0, 0.0, 1.0, 0.0, 0.0, 2.0, 1.0, 1.0, 1.0, 0.0, 0.0, 1.0, 0.0, 0.0, 0.0, 0.0, 3.0, 0.0, 0.0, 1.0, 1.0, 1.0, 1.0, 1.0, 0.0, 0.0, 0.0, 0.0, 0.0, 0.0, 0.0, 0.0, 0.0, 0.0, 0.0, 0.0, 0.0, 0.0, 0.0, 0.0, 0.0, 0.0, 0.0, 1.0], "bins": [-0.1907213181257248, -0.18107987940311432, -0.17143844068050385, -0.16179700195789337, -0.1521555632352829, -0.14251412451267242, -0.13287268579006195, -0.12323124706745148, -0.113589808344841, -0.10394836962223053, -0.09430693089962006, -0.08466549217700958, -0.07502405345439911, -0.06538261473178864, -0.05574117600917816, -0.04609973728656769, -0.036458298563957214, -0.02681685984134674, -0.017175421118736267, -0.0075339823961257935, 0.00210745632648468, 0.011748895049095154, 0.021390333771705627, 0.0310317724943161, 0.040673211216926575, 0.05031464993953705, 0.05995608866214752, 0.069597527384758, 0.07923896610736847, 0.08888040482997894, 0.09852184355258942, 0.10816328227519989, 0.11780470609664917, 0.12744614481925964, 0.13708758354187012, 0.1467290222644806, 0.15637046098709106, 0.16601189970970154, 0.175653338432312, 0.18529477715492249, 0.19493621587753296, 0.20457765460014343, 0.2142190933227539, 0.22386053204536438, 0.23350197076797485, 0.24314340949058533, 0.2527848482131958, 0.2624262869358063, 0.27206772565841675, 0.2817091643810272, 0.2913506031036377, 0.30099204182624817, 0.31063348054885864, 0.3202749192714691, 0.3299163579940796, 0.33955779671669006, 0.34919923543930054, 0.358840674161911, 0.3684821128845215, 0.37812355160713196, 0.38776499032974243, 0.3974064290523529, 0.4070478677749634, 0.41668930649757385, 0.4263307452201843]}, "parameters/graph_2linear.bias": {"_type": "histogram", "values": [0.0, 0.0, 0.0, 0.0, 0.0, 0.0, 0.0, 0.0, 0.0, 0.0, 0.0, 0.0, 0.0, 0.0, 0.0, 0.0, 0.0, 0.0, 0.0, 0.0, 0.0, 0.0, 0.0, 0.0, 0.0, 0.0, 0.0, 0.0, 0.0, 0.0, 0.0, 0.0, 1.0, 0.0, 0.0, 0.0, 0.0, 0.0, 0.0, 0.0, 0.0, 0.0, 0.0, 0.0, 0.0, 0.0, 0.0, 0.0, 0.0, 0.0, 0.0, 0.0, 0.0, 0.0, 0.0, 0.0, 0.0, 0.0, 0.0, 0.0, 0.0, 0.0, 0.0, 0.0], "bins": [0.10773100703954697, 0.10773100703954697, 0.10773100703954697, 0.10773100703954697, 0.10773100703954697, 0.10773100703954697, 0.10773100703954697, 0.10773100703954697, 0.10773100703954697, 0.10773100703954697, 0.10773100703954697, 0.10773100703954697, 0.10773100703954697, 0.10773100703954697, 0.10773100703954697, 0.10773100703954697, 0.10773100703954697, 0.10773100703954697, 0.10773100703954697, 0.10773100703954697, 0.10773100703954697, 0.10773100703954697, 0.10773100703954697, 0.10773100703954697, 0.10773100703954697, 0.10773100703954697, 0.10773100703954697, 0.10773100703954697, 0.10773100703954697, 0.10773100703954697, 0.10773100703954697, 0.10773100703954697, 0.10773100703954697, 0.10773100703954697, 0.10773100703954697, 0.10773100703954697, 0.10773100703954697, 0.10773100703954697, 0.10773100703954697, 0.10773100703954697, 0.10773100703954697, 0.10773100703954697, 0.10773100703954697, 0.10773100703954697, 0.10773100703954697, 0.10773100703954697, 0.10773100703954697, 0.10773100703954697, 0.10773100703954697, 0.10773100703954697, 0.10773100703954697, 0.10773100703954697, 0.10773100703954697, 0.10773100703954697, 0.10773100703954697, 0.10773100703954697, 0.10773100703954697, 0.10773100703954697, 0.10773100703954697, 0.10773100703954697, 0.10773100703954697, 0.10773100703954697, 0.10773100703954697, 0.10773100703954697, 0.10773100703954697]}, "gradients/graph_2linear.bias": {"_type": "histogram", "values": [0.0, 0.0, 0.0, 0.0, 0.0, 0.0, 0.0, 0.0, 0.0, 0.0, 0.0, 0.0, 0.0, 0.0, 0.0, 0.0, 0.0, 0.0, 0.0, 0.0, 0.0, 0.0, 0.0, 0.0, 0.0, 0.0, 0.0, 0.0, 0.0, 0.0, 0.0, 0.0, 1.0, 0.0, 0.0, 0.0, 0.0, 0.0, 0.0, 0.0, 0.0, 0.0, 0.0, 0.0, 0.0, 0.0, 0.0, 0.0, 0.0, 0.0, 0.0, 0.0, 0.0, 0.0, 0.0, 0.0, 0.0, 0.0, 0.0, 0.0, 0.0, 0.0, 0.0, 0.0], "bins": [-0.005793914198875427, -0.005793914198875427, -0.005793914198875427, -0.005793914198875427, -0.005793914198875427, -0.005793914198875427, -0.005793914198875427, -0.005793914198875427, -0.005793914198875427, -0.005793914198875427, -0.005793914198875427, -0.005793914198875427, -0.005793914198875427, -0.005793914198875427, -0.005793914198875427, -0.005793914198875427, -0.005793914198875427, -0.005793914198875427, -0.005793914198875427, -0.005793914198875427, -0.005793914198875427, -0.005793914198875427, -0.005793914198875427, -0.005793914198875427, -0.005793914198875427, -0.005793914198875427, -0.005793914198875427, -0.005793914198875427, -0.005793914198875427, -0.005793914198875427, -0.005793914198875427, -0.005793914198875427, -0.005793914198875427, -0.005793914198875427, -0.005793914198875427, -0.005793914198875427, -0.005793914198875427, -0.005793914198875427, -0.005793914198875427, -0.005793914198875427, -0.005793914198875427, -0.005793914198875427, -0.005793914198875427, -0.005793914198875427, -0.005793914198875427, -0.005793914198875427, -0.005793914198875427, -0.005793914198875427, -0.005793914198875427, -0.005793914198875427, -0.005793914198875427, -0.005793914198875427, -0.005793914198875427, -0.005793914198875427, -0.005793914198875427, -0.005793914198875427, -0.005793914198875427, -0.005793914198875427, -0.005793914198875427, -0.005793914198875427, -0.005793914198875427, -0.005793914198875427, -0.005793914198875427, -0.005793914198875427, -0.005793914198875427]}, "gradients/graph_2linear.weight": {"_type": "histogram", "values": [1.0, 0.0, 0.0, 0.0, 0.0, 0.0, 0.0, 0.0, 0.0, 0.0, 1.0, 0.0, 0.0, 1.0, 0.0, 0.0, 2.0, 0.0, 0.0, 0.0, 0.0, 0.0, 0.0, 0.0, 0.0, 0.0, 0.0, 1.0, 2.0, 1.0, 3.0, 31.0, 2.0, 4.0, 1.0, 1.0, 0.0, 0.0, 2.0, 1.0, 0.0, 0.0, 1.0, 0.0, 0.0, 1.0, 0.0, 1.0, 0.0, 0.0, 0.0, 1.0, 0.0, 0.0, 1.0, 0.0, 0.0, 0.0, 0.0, 0.0, 0.0, 0.0, 0.0, 1.0], "bins": [-0.004782798234373331, -0.004630622919648886, -0.00447844760492444, -0.004326272290199995, -0.00417409697547555, -0.004021921660751104, -0.0038697465788573027, -0.0037175712641328573, -0.003565395949408412, -0.0034132206346839666, -0.0032610453199595213, -0.003108870005235076, -0.0029566949233412743, -0.002804519608616829, -0.0026523442938923836, -0.0025001689791679382, -0.002347993664443493, -0.0021958183497190475, -0.002043643034994602, -0.0018914678366854787, -0.0017392925219610333, -0.001587117207236588, -0.0014349420089274645, -0.0012827666942030191, -0.0011305913794785738, -0.0009784160647541285, -0.000826240808237344, -0.0006740655517205596, -0.0005218902369961143, -0.0003697149222716689, -0.00021753966575488448, -6.536440923810005e-05, 8.68113711476326e-05, 0.00023898665676824749, 0.00039116194238886237, 0.0005433371989056468, 0.0006955125136300921, 0.0008476878283545375, 0.000999863026663661, 0.0011520383413881063, 0.0013042136561125517, 0.001456388970836997, 0.0016085642855614424, 0.0017607394838705659, 0.0019129147985950112, 0.0020650899969041348, 0.00221726531162858, 0.0023694406263530254, 0.0025216159410774708, 0.002673791255801916, 0.0028259665705263615, 0.002978141885250807, 0.003130317199975252, 0.0032824925146996975, 0.003434667596593499, 0.0035868429113179445, 0.00373901822604239, 0.003891193540766835, 0.004043368622660637, 0.004195543937385082, 0.004347719252109528, 0.004499894566833973, 0.004652069881558418, 0.004804245196282864, 0.004956420511007309]}, "gradients/graph_2lstm.weight_ih_l0": {"_type": "histogram", "values": [1.0, 0.0, 0.0, 0.0, 0.0, 0.0, 1.0, 2.0, 0.0, 0.0, 0.0, 0.0, 1.0, 2.0, 0.0, 2.0, 0.0, 1.0, 2.0, 1.0, 2.0, 2.0, 4.0, 3.0, 6.0, 8.0, 15.0, 458.0, 52.0, 13.0, 8.0, 4.0, 2.0, 3.0, 0.0, 0.0, 2.0, 0.0, 0.0, 0.0, 1.0, 0.0, 0.0, 0.0, 0.0, 0.0, 0.0, 0.0, 1.0, 0.0, 0.0, 0.0, 0.0, 1.0, 1.0, 0.0, 0.0, 0.0, 0.0, 0.0, 0.0, 0.0, 0.0, 1.0], "bins": [-4.1605883893680584e-07, -4.0103230958266067e-07, -3.8600580865022494e-07, -3.7097927929607977e-07, -3.559527499419346e-07, -3.4092622058778943e-07, -3.2589969123364426e-07, -3.108731903012085e-07, -2.9584666094706336e-07, -2.808201315929182e-07, -2.6579363066048245e-07, -2.507671013063373e-07, -2.357405719521921e-07, -2.2071404259804694e-07, -2.056875274547565e-07, -1.9066101231146604e-07, -1.7563448295732087e-07, -1.606079536031757e-07, -1.4558143845988525e-07, -1.305549233165948e-07, -1.1552839396244963e-07, -1.0050187171373182e-07, -8.5475349465014e-08, -7.04488272162962e-08, -5.5422304967578384e-08, -4.0395782718860573e-08, -2.5369260470142763e-08, -1.0342738221424952e-08, 4.683784027292859e-09, 1.971030627601067e-08, 3.473682852472848e-08, 4.976335077344629e-08, 6.478990144387353e-08, 7.981642369259134e-08, 9.484294594130915e-08, 1.0986946819002696e-07, 1.2489599043874478e-07, 1.3992251979288994e-07, 1.549490349361804e-07, 1.6997555007947085e-07, 1.8500207943361602e-07, 2.0002860878776119e-07, 2.1505512393105164e-07, 2.300816390743421e-07, 2.4510816842848726e-07, 2.6013469778263243e-07, 2.7516119871506817e-07, 2.9018772806921334e-07, 3.052142574233585e-07, 3.2024078677750367e-07, 3.3526731613164884e-07, 3.502938170640846e-07, 3.6532034641822975e-07, 3.803468757723749e-07, 3.9537337670481065e-07, 4.103999060589558e-07, 4.25426435413101e-07, 4.4045296476724616e-07, 4.554794941213913e-07, 4.7050599505382706e-07, 4.855324959862628e-07, 5.005590537621174e-07, 5.155855546945531e-07, 5.306121124704077e-07, 5.456386134028435e-07]}, "gradients/graph_2lstm.bias_ih_l0": {"_type": "histogram", "values": [1.0, 0.0, 0.0, 0.0, 0.0, 0.0, 0.0, 0.0, 1.0, 0.0, 0.0, 0.0, 0.0, 0.0, 0.0, 1.0, 0.0, 1.0, 0.0, 1.0, 0.0, 0.0, 1.0, 1.0, 0.0, 2.0, 1.0, 82.0, 15.0, 5.0, 2.0, 2.0, 1.0, 1.0, 0.0, 0.0, 0.0, 0.0, 0.0, 0.0, 1.0, 0.0, 0.0, 0.0, 0.0, 0.0, 0.0, 0.0, 0.0, 0.0, 0.0, 0.0, 0.0, 0.0, 0.0, 0.0, 0.0, 0.0, 0.0, 0.0, 0.0, 0.0, 0.0, 1.0], "bins": [-4.860524427385826e-07, -4.6863181069056736e-07, -4.512111502208427e-07, -4.3379051817282743e-07, -4.163698861248122e-07, -3.989492256550875e-07, -3.8152859360707225e-07, -3.64107961559057e-07, -3.4668732951104175e-07, -3.292666974630265e-07, -3.118460369933018e-07, -2.9442540494528657e-07, -2.770047728972713e-07, -2.5958411242754664e-07, -2.421634803795314e-07, -2.2474284833151614e-07, -2.0732218786179146e-07, -1.899015416029215e-07, -1.7248090955490625e-07, -1.5506026329603628e-07, -1.3763963124802103e-07, -1.2021898498915107e-07, -1.027983387302811e-07, -8.537770668226585e-08, -6.795706042339589e-08, -5.053642126995328e-08, -3.3115778563796994e-08, -1.5695135857640707e-08, 1.7255032958019e-09, 1.9146142449244508e-08, 3.656678870811447e-08, 5.398742075612972e-08, 7.140806701499969e-08, 8.88287061684423e-08, 1.062493453218849e-07, 1.2366999158075487e-07, 1.4109062362877012e-07, 1.5851126988764008e-07, 1.7593191614651005e-07, 1.933525481945253e-07, 2.1077319445339526e-07, 2.2819384071226523e-07, 2.456144727602805e-07, 2.6303513323000516e-07, 2.804557652780204e-07, 2.9787639732603566e-07, 3.152970293740509e-07, 3.3271766142206616e-07, 3.5013832189179084e-07, 3.675589539398061e-07, 3.8497961440953077e-07, 4.02400246457546e-07, 4.1982087850556127e-07, 4.372415105535765e-07, 4.546621710233012e-07, 4.7208280307131645e-07, 4.895034635410411e-07, 5.069240955890564e-07, 5.243447276370716e-07, 5.417654165285057e-07, 5.59186048576521e-07, 5.766066806245362e-07, 5.940273126725515e-07, 6.114479447205667e-07, 6.28868576768582e-07]}, "gradients/graph_2lstm.bias_ih_l0_reverse": {"_type": "histogram", "values": [2.0, 0.0, 0.0, 0.0, 0.0, 0.0, 0.0, 0.0, 0.0, 0.0, 0.0, 0.0, 0.0, 0.0, 0.0, 0.0, 0.0, 0.0, 0.0, 0.0, 0.0, 0.0, 0.0, 0.0, 0.0, 0.0, 0.0, 1.0, 0.0, 0.0, 0.0, 1.0, 0.0, 0.0, 0.0, 0.0, 1.0, 0.0, 0.0, 0.0, 1.0, 0.0, 0.0, 0.0, 0.0, 1.0, 1.0, 4.0, 3.0, 7.0, 9.0, 31.0, 36.0, 6.0, 4.0, 3.0, 1.0, 1.0, 1.0, 2.0, 1.0, 0.0, 2.0, 1.0], "bins": [-0.002707370789721608, -0.002655207645148039, -0.0026030445005744696, -0.0025508813560009003, -0.002498718211427331, -0.0024465550668537617, -0.002394392155110836, -0.0023422290105372667, -0.0022900658659636974, -0.002237902721390128, -0.002185739576816559, -0.0021335764322429895, -0.0020814132876694202, -0.0020292503759264946, -0.0019770869985222816, -0.0019249239703640342, -0.0018727608257904649, -0.0018205976812168956, -0.0017684345366433263, -0.0017162715084850788, -0.0016641083639115095, -0.0016119452193379402, -0.001559782074764371, -0.0015076189301908016, -0.0014554557856172323, -0.001403292641043663, -0.0013511294964700937, -0.0012989663518965244, -0.001246803323738277, -0.0011946401791647077, -0.0011424770345911384, -0.001090313890017569, -0.0010381509782746434, -0.0009859878337010741, -0.0009338247473351657, -0.0008816616027615964, -0.0008294985163956881, -0.0007773353718221188, -0.0007251722272485495, -0.0006730090826749802, -0.0006208459963090718, -0.0005686828517355025, -0.0005165197653695941, -0.0004643566207960248, -0.00041219350532628596, -0.0003600303898565471, -0.0003078672452829778, -0.000255704129813239, -0.00020354101434350014, -0.0001513778988737613, -9.921476885210723e-05, -4.705163883045316e-05, 5.111476639285684e-06, 5.7274592109024525e-05, 0.00010943773668259382, 0.00016160085215233266, 0.0002137639676220715, 0.00026592708309181035, 0.0003180901985615492, 0.0003702533431351185, 0.0004224164586048573, 0.00047457957407459617, 0.0005267427186481655, 0.0005789058050140738, 0.0006310689495876431]}, "gradients/graph_2lstm.weight_hh_l0_reverse": {"_type": "histogram", "values": [1.0, 0.0, 0.0, 0.0, 0.0, 1.0, 1.0, 0.0, 0.0, 0.0, 0.0, 0.0, 1.0, 0.0, 1.0, 3.0, 2.0, 0.0, 0.0, 2.0, 4.0, 4.0, 5.0, 9.0, 9.0, 7.0, 22.0, 39.0, 67.0, 283.0, 2689.0, 234.0, 89.0, 47.0, 20.0, 19.0, 15.0, 5.0, 4.0, 5.0, 3.0, 0.0, 0.0, 0.0, 1.0, 1.0, 2.0, 1.0, 0.0, 1.0, 1.0, 0.0, 0.0, 1.0, 0.0, 0.0, 0.0, 0.0, 0.0, 0.0, 0.0, 0.0, 0.0, 1.0], "bins": [-0.000815546722151339, -0.0007887762039899826, -0.0007620056858286262, -0.0007352351676672697, -0.0007084646495059133, -0.0006816941313445568, -0.0006549236131832004, -0.0006281530950218439, -0.0006013825768604875, -0.000574612058699131, -0.0005478415405377746, -0.0005210710223764181, -0.0004943005042150617, -0.0004675299860537052, -0.00044075946789234877, -0.0004139889497309923, -0.0003872184606734663, -0.0003604479425121099, -0.0003336774243507534, -0.000306906906189397, -0.00028013638802804053, -0.00025336589897051454, -0.00022659536625724286, -0.0001998248480958864, -0.00017305432993452996, -0.0001462838117731735, -0.00011951329361181706, -9.274278272641823e-05, -6.597226456506178e-05, -3.920175367966294e-05, -1.2431235518306494e-05, 1.4339282643049955e-05, 4.1109800804406404e-05, 6.788031896576285e-05, 9.46508371271193e-05, 0.00012142134801251814, 0.0001481918734498322, 0.00017496237705927342, 0.00020173289522062987, 0.00022850341338198632, 0.000255273946095258, 0.00028204446425661445, 0.0003088149824179709, 0.00033558550057932734, 0.0003623560187406838, 0.00038912653690204024, 0.0004158970550633967, 0.00044266757322475314, 0.00046943806228227913, 0.0004962085513398051, 0.0005229790695011616, 0.000549749587662518, 0.0005765201058238745, 0.0006032906239852309, 0.0006300611421465874, 0.0006568316603079438, 0.0006836021784693003, 0.0007103726966306567, 0.0007371432147920132, 0.0007639137329533696, 0.0007906842511147261, 0.0008174547692760825, 0.000844225287437439, 0.0008709958055987954, 0.0008977663237601519]}, "gradients/graph_2lstm.bias_hh_l0_reverse": {"_type": "histogram", "values": [2.0, 0.0, 0.0, 0.0, 0.0, 0.0, 0.0, 0.0, 0.0, 0.0, 0.0, 0.0, 0.0, 0.0, 0.0, 0.0, 0.0, 0.0, 0.0, 0.0, 0.0, 0.0, 0.0, 0.0, 0.0, 0.0, 0.0, 1.0, 0.0, 0.0, 0.0, 1.0, 0.0, 0.0, 0.0, 0.0, 1.0, 0.0, 0.0, 0.0, 1.0, 0.0, 0.0, 0.0, 0.0, 1.0, 1.0, 4.0, 3.0, 7.0, 9.0, 31.0, 36.0, 6.0, 4.0, 3.0, 1.0, 1.0, 1.0, 2.0, 1.0, 0.0, 2.0, 1.0], "bins": [-0.002707370789721608, -0.002655207645148039, -0.0026030445005744696, -0.0025508813560009003, -0.002498718211427331, -0.0024465550668537617, -0.002394392155110836, -0.0023422290105372667, -0.0022900658659636974, -0.002237902721390128, -0.002185739576816559, -0.0021335764322429895, -0.0020814132876694202, -0.0020292503759264946, -0.0019770869985222816, -0.0019249239703640342, -0.0018727608257904649, -0.0018205976812168956, -0.0017684345366433263, -0.0017162715084850788, -0.0016641083639115095, -0.0016119452193379402, -0.001559782074764371, -0.0015076189301908016, -0.0014554557856172323, -0.001403292641043663, -0.0013511294964700937, -0.0012989663518965244, -0.001246803323738277, -0.0011946401791647077, -0.0011424770345911384, -0.001090313890017569, -0.0010381509782746434, -0.0009859878337010741, -0.0009338247473351657, -0.0008816616027615964, -0.0008294985163956881, -0.0007773353718221188, -0.0007251722272485495, -0.0006730090826749802, -0.0006208459963090718, -0.0005686828517355025, -0.0005165197653695941, -0.0004643566207960248, -0.00041219350532628596, -0.0003600303898565471, -0.0003078672452829778, -0.000255704129813239, -0.00020354101434350014, -0.0001513778988737613, -9.921476885210723e-05, -4.705163883045316e-05, 5.111476639285684e-06, 5.7274592109024525e-05, 0.00010943773668259382, 0.00016160085215233266, 0.0002137639676220715, 0.00026592708309181035, 0.0003180901985615492, 0.0003702533431351185, 0.0004224164586048573, 0.00047457957407459617, 0.0005267427186481655, 0.0005789058050140738, 0.0006310689495876431]}, "gradients/graph_2lstm.weight_ih_l0_reverse": {"_type": "histogram", "values": [2.0, 0.0, 1.0, 1.0, 0.0, 0.0, 2.0, 0.0, 0.0, 0.0, 0.0, 0.0, 0.0, 0.0, 0.0, 0.0, 0.0, 0.0, 0.0, 0.0, 0.0, 0.0, 0.0, 0.0, 0.0, 0.0, 1.0, 0.0, 1.0, 0.0, 2.0, 1.0, 0.0, 0.0, 2.0, 2.0, 0.0, 1.0, 2.0, 2.0, 0.0, 4.0, 1.0, 0.0, 1.0, 3.0, 4.0, 11.0, 17.0, 15.0, 36.0, 54.0, 279.0, 84.0, 24.0, 11.0, 7.0, 4.0, 6.0, 4.0, 4.0, 1.0, 8.0, 2.0], "bins": [-0.0018894204404205084, -0.0018534077098593116, -0.0018173950957134366, -0.0017813823651522398, -0.001745369634591043, -0.001709357020445168, -0.0016733442898839712, -0.0016373316757380962, -0.0016013189451768994, -0.0015653062146157026, -0.0015292936004698277, -0.0014932808699086308, -0.001457268139347434, -0.001421255525201559, -0.0013852427946403623, -0.0013492300640791655, -0.0013132174499332905, -0.0012772047193720937, -0.0012411921052262187, -0.001205179374665022, -0.001169166644103825, -0.0011331540299579501, -0.0010971412993967533, -0.0010611286852508783, -0.0010251158382743597, -0.000989103107713163, -0.000953090435359627, -0.0009170777630060911, -0.0008810650906525552, -0.0008450524182990193, -0.0008090396877378225, -0.0007730270153842866, -0.0007370142848230898, -0.000701001612469554, -0.0006649888819083571, -0.0006289762095548213, -0.0005929635372012854, -0.0005569508066400886, -0.0005209381342865527, -0.0004849254619330168, -0.00044891276047565043, -0.0004129000590182841, -0.0003768873866647482, -0.00034087468520738184, -0.0003048619837500155, -0.0002688493113964796, -0.00023283660993911326, -0.00019682393758557737, -0.00016081123612821102, -0.0001247985492227599, -8.878585504135117e-05, -5.2773160859942436e-05, -1.6760473954491317e-05, 1.92522129509598e-05, 5.526491440832615e-05, 9.127758676186204e-05, 0.0001272902882192284, 0.0001633029751246795, 0.00019931566203013062, 0.00023532836348749697, 0.0002713410649448633, 0.0003073537372983992, 0.00034336643875576556, 0.00037937911110930145, 0.0004153918125666678]}, "gradients/graph_2lstm.weight_hh_l0": {"_type": "histogram", "values": [1.0, 0.0, 0.0, 0.0, 0.0, 0.0, 0.0, 0.0, 0.0, 0.0, 1.0, 1.0, 1.0, 0.0, 1.0, 0.0, 1.0, 0.0, 0.0, 3.0, 1.0, 2.0, 2.0, 2.0, 1.0, 4.0, 7.0, 8.0, 13.0, 18.0, 44.0, 151.0, 3114.0, 119.0, 37.0, 16.0, 14.0, 8.0, 9.0, 3.0, 3.0, 2.0, 3.0, 1.0, 4.0, 0.0, 0.0, 0.0, 1.0, 0.0, 0.0, 0.0, 0.0, 2.0, 0.0, 1.0, 0.0, 0.0, 0.0, 0.0, 0.0, 0.0, 0.0, 1.0], "bins": [-1.4523221514295415e-09, -1.4075929311019308e-09, -1.3628635997520178e-09, -1.3181343794244071e-09, -1.273405048074494e-09, -1.2286758277468834e-09, -1.1839464963969704e-09, -1.1392172760693597e-09, -1.0944880557417491e-09, -1.0497588354141385e-09, -1.0050295040642254e-09, -9.603002837366148e-10, -9.155709523867017e-10, -8.708417320590911e-10, -8.261124562203292e-10, -7.813831803815674e-10, -7.366538490316543e-10, -6.919245731928925e-10, -6.471952973541306e-10, -6.0246607702652e-10, -5.577367456766069e-10, -5.130075253489963e-10, -4.682782495102344e-10, -4.235489736714726e-10, -3.7881969783271074e-10, -3.340904219939489e-10, -2.8936114615518704e-10, -2.446318980720008e-10, -1.9990262223323896e-10, -1.551733463944771e-10, -1.1044409831129087e-10, -6.571482247252902e-11, -2.098554663376717e-11, 2.3743722266100775e-11, 6.847299116596872e-11, 1.1320225312694276e-10, 1.5793152896570462e-10, 2.0266080480446647e-10, 2.473900528876527e-10, 2.9211932872641455e-10, 3.368486045651764e-10, 3.8157788040393825e-10, 4.263071562427001e-10, 4.71036432081462e-10, 5.157656524090726e-10, 5.604949837589857e-10, 6.052242040865963e-10, 6.499534799253581e-10, 6.9468275576412e-10, 7.394120316028818e-10, 7.841413074416437e-10, 8.288705277692543e-10, 8.735998591191674e-10, 9.18329079446778e-10, 9.630582997743886e-10, 1.0077876311243017e-09, 1.0525169624742148e-09, 1.0972461828018254e-09, 1.1419755141517385e-09, 1.186704734479349e-09, 1.2314340658292622e-09, 1.2761632861568728e-09, 1.3208925064844834e-09, 1.3656218378343965e-09, 1.4103510581620071e-09]}, "gradients/graph_2lstm.bias_hh_l0": {"_type": "histogram", "values": [1.0, 0.0, 0.0, 0.0, 0.0, 0.0, 0.0, 0.0, 1.0, 0.0, 0.0, 0.0, 0.0, 0.0, 0.0, 1.0, 0.0, 1.0, 0.0, 1.0, 0.0, 0.0, 1.0, 1.0, 0.0, 2.0, 1.0, 82.0, 15.0, 5.0, 2.0, 2.0, 1.0, 1.0, 0.0, 0.0, 0.0, 0.0, 0.0, 0.0, 1.0, 0.0, 0.0, 0.0, 0.0, 0.0, 0.0, 0.0, 0.0, 0.0, 0.0, 0.0, 0.0, 0.0, 0.0, 0.0, 0.0, 0.0, 0.0, 0.0, 0.0, 0.0, 0.0, 1.0], "bins": [-4.860524427385826e-07, -4.6863181069056736e-07, -4.512111502208427e-07, -4.3379051817282743e-07, -4.163698861248122e-07, -3.989492256550875e-07, -3.8152859360707225e-07, -3.64107961559057e-07, -3.4668732951104175e-07, -3.292666974630265e-07, -3.118460369933018e-07, -2.9442540494528657e-07, -2.770047728972713e-07, -2.5958411242754664e-07, -2.421634803795314e-07, -2.2474284833151614e-07, -2.0732218786179146e-07, -1.899015416029215e-07, -1.7248090955490625e-07, -1.5506026329603628e-07, -1.3763963124802103e-07, -1.2021898498915107e-07, -1.027983387302811e-07, -8.537770668226585e-08, -6.795706042339589e-08, -5.053642126995328e-08, -3.3115778563796994e-08, -1.5695135857640707e-08, 1.7255032958019e-09, 1.9146142449244508e-08, 3.656678870811447e-08, 5.398742075612972e-08, 7.140806701499969e-08, 8.88287061684423e-08, 1.062493453218849e-07, 1.2366999158075487e-07, 1.4109062362877012e-07, 1.5851126988764008e-07, 1.7593191614651005e-07, 1.933525481945253e-07, 2.1077319445339526e-07, 2.2819384071226523e-07, 2.456144727602805e-07, 2.6303513323000516e-07, 2.804557652780204e-07, 2.9787639732603566e-07, 3.152970293740509e-07, 3.3271766142206616e-07, 3.5013832189179084e-07, 3.675589539398061e-07, 3.8497961440953077e-07, 4.02400246457546e-07, 4.1982087850556127e-07, 4.372415105535765e-07, 4.546621710233012e-07, 4.7208280307131645e-07, 4.895034635410411e-07, 5.069240955890564e-07, 5.243447276370716e-07, 5.417654165285057e-07, 5.59186048576521e-07, 5.766066806245362e-07, 5.940273126725515e-07, 6.114479447205667e-07, 6.28868576768582e-07]}, "train_loss": 0.0024236924047885545, "test_loss": 0.009165527671575547, "_step": 499, "_wandb": {"runtime": 127}}