{"parameters/graph_8lstm.weight_ih_l0": {"_type": "histogram", "values": [2.0, 2.0, 0.0, 0.0, 1.0, 1.0, 9.0, 7.0, 6.0, 7.0, 8.0, 10.0, 10.0, 14.0, 11.0, 10.0, 9.0, 5.0, 16.0, 7.0, 17.0, 16.0, 15.0, 10.0, 13.0, 17.0, 22.0, 7.0, 21.0, 10.0, 11.0, 10.0, 17.0, 19.0, 16.0, 10.0, 14.0, 8.0, 13.0, 11.0, 13.0, 7.0, 11.0, 11.0, 16.0, 8.0, 9.0, 10.0, 7.0, 12.0, 10.0, 9.0, 10.0, 11.0, 4.0, 3.0, 7.0, 8.0, 7.0, 4.0, 2.0, 4.0, 1.0, 4.0], "bins": [-0.2365548461675644, -0.2289101630449295, -0.22126547992229462, -0.21362078189849854, -0.20597609877586365, -0.19833141565322876, -0.19068673253059387, -0.18304204940795898, -0.1753973662853241, -0.1677526831626892, -0.16010800004005432, -0.15246331691741943, -0.14481861889362335, -0.13717393577098846, -0.12952925264835358, -0.12188456952571869, -0.11423987150192261, -0.10659518837928772, -0.09895049780607224, -0.09130581468343735, -0.08366112411022186, -0.07601644098758698, -0.06837175786495209, -0.0607270710170269, -0.053082384169101715, -0.04543769732117653, -0.03779301047325134, -0.030148327350616455, -0.02250364050269127, -0.014858953654766083, -0.007214270532131195, 0.0004304163157939911, 0.008075118064880371, 0.015719804912805557, 0.023364489898085594, 0.03100917488336563, 0.03865386173129082, 0.046298548579216, 0.05394323170185089, 0.06158791854977608, 0.06923260539770126, 0.07687728852033615, 0.08452197909355164, 0.09216666221618652, 0.09981134533882141, 0.1074560359120369, 0.11510071903467178, 0.12274540960788727, 0.13039009273052216, 0.13803477585315704, 0.14567945897579193, 0.153324156999588, 0.1609688401222229, 0.1686135232448578, 0.17625820636749268, 0.18390288949012756, 0.19154757261276245, 0.19919225573539734, 0.20683693885803223, 0.21448162198066711, 0.2221263200044632, 0.22977100312709808, 0.23741568624973297, 0.24506036937236786, 0.25270506739616394]}, "_timestamp": 1650850856, "_runtime": 101, "parameters/graph_8lstm.weight_hh_l0": {"_type": "histogram", "values": [1.0, 3.0, 4.0, 4.0, 9.0, 23.0, 24.0, 25.0, 34.0, 41.0, 47.0, 59.0, 82.0, 84.0, 72.0, 79.0, 96.0, 65.0, 74.0, 86.0, 90.0, 79.0, 77.0, 86.0, 89.0, 60.0, 69.0, 66.0, 87.0, 83.0, 75.0, 91.0, 85.0, 76.0, 91.0, 88.0, 76.0, 72.0, 62.0, 55.0, 70.0, 71.0, 73.0, 77.0, 87.0, 65.0, 88.0, 72.0, 84.0, 62.0, 55.0, 56.0, 55.0, 47.0, 40.0, 34.0, 24.0, 25.0, 16.0, 13.0, 6.0, 4.0, 5.0, 2.0], "bins": [-0.2587738335132599, -0.25066328048706055, -0.2425527125597, -0.23444214463233948, -0.22633159160614014, -0.2182210385799408, -0.21011047065258026, -0.20199990272521973, -0.19388934969902039, -0.18577879667282104, -0.1776682287454605, -0.16955766081809998, -0.16144710779190063, -0.1533365547657013, -0.14522598683834076, -0.13711541891098022, -0.12900486588478088, -0.12089430540800095, -0.11278374493122101, -0.10467318445444107, -0.09656262397766113, -0.0884520635008812, -0.08034150302410126, -0.07223094254732132, -0.06412038207054138, -0.056009821593761444, -0.047899261116981506, -0.03978870064020157, -0.03167814016342163, -0.023567579686641693, -0.015457019209861755, -0.007346458733081818, 0.0007641017436981201, 0.008874662220478058, 0.016985222697257996, 0.025095783174037933, 0.03320634365081787, 0.04131690412759781, 0.04942746460437775, 0.057538025081157684, 0.06564858555793762, 0.07375914603471756, 0.0818697065114975, 0.08998026698827744, 0.09809082746505737, 0.10620138794183731, 0.11431194841861725, 0.12242250889539719, 0.13053306937217712, 0.13864362239837646, 0.146754190325737, 0.15486475825309753, 0.16297531127929688, 0.17108586430549622, 0.17919643223285675, 0.18730700016021729, 0.19541755318641663, 0.20352810621261597, 0.2116386741399765, 0.21974924206733704, 0.22785979509353638, 0.23597034811973572, 0.24408091604709625, 0.2521914839744568, 0.26030203700065613]}, "parameters/graph_8lstm.bias_ih_l0": {"_type": "histogram", "values": [1.0, 1.0, 1.0, 1.0, 5.0, 3.0, 1.0, 1.0, 1.0, 1.0, 2.0, 3.0, 1.0, 2.0, 1.0, 0.0, 1.0, 3.0, 2.0, 0.0, 5.0, 1.0, 1.0, 2.0, 1.0, 1.0, 1.0, 2.0, 4.0, 2.0, 3.0, 0.0, 1.0, 2.0, 3.0, 1.0, 1.0, 3.0, 3.0, 2.0, 1.0, 2.0, 1.0, 1.0, 4.0, 2.0, 3.0, 1.0, 5.0, 4.0, 2.0, 3.0, 4.0, 2.0, 1.0, 2.0, 1.0, 1.0, 2.0, 1.0, 2.0, 1.0, 0.0, 4.0], "bins": [-0.18961921334266663, -0.1835552603006363, -0.17749130725860596, -0.17142736911773682, -0.16536341607570648, -0.15929946303367615, -0.1532355099916458, -0.14717155694961548, -0.14110761880874634, -0.135043665766716, -0.12897971272468567, -0.12291576713323593, -0.1168518215417862, -0.11078786849975586, -0.10472391545772552, -0.09865996241569519, -0.09259600937366486, -0.08653205633163452, -0.08046811074018478, -0.07440415769815445, -0.06834021210670471, -0.06227625906467438, -0.05621230602264404, -0.05014835670590401, -0.04408440738916397, -0.038020458072423935, -0.0319565087556839, -0.025892555713653564, -0.01982860639691353, -0.013764657080173492, -0.007700704038143158, -0.001636754721403122, 0.004427209496498108, 0.010491159744560719, 0.01655510999262333, 0.022619061172008514, 0.02868301048874855, 0.034746959805488586, 0.04081091284751892, 0.04687486216425896, 0.05293881148099899, 0.05900276079773903, 0.06506671011447906, 0.0711306631565094, 0.07719461619853973, 0.08325856178998947, 0.0893225148320198, 0.09538646042346954, 0.10145041346549988, 0.10751436650753021, 0.11357831209897995, 0.11964226514101028, 0.12570621073246002, 0.13177016377449036, 0.1378341168165207, 0.14389806985855103, 0.14996200799942017, 0.1560259610414505, 0.16208991408348083, 0.16815385222434998, 0.1742178052663803, 0.18028175830841064, 0.18634571135044098, 0.1924096643924713, 0.19847361743450165]}, "parameters/graph_8lstm.bias_hh_l0": {"_type": "histogram", "values": [1.0, 1.0, 4.0, 0.0, 0.0, 2.0, 1.0, 0.0, 0.0, 1.0, 1.0, 2.0, 2.0, 2.0, 1.0, 3.0, 0.0, 3.0, 3.0, 6.0, 0.0, 0.0, 4.0, 2.0, 5.0, 2.0, 2.0, 0.0, 3.0, 1.0, 2.0, 5.0, 6.0, 1.0, 3.0, 1.0, 1.0, 2.0, 0.0, 3.0, 2.0, 4.0, 3.0, 3.0, 4.0, 2.0, 1.0, 0.0, 1.0, 2.0, 1.0, 2.0, 0.0, 1.0, 0.0, 1.0, 2.0, 3.0, 2.0, 2.0, 2.0, 1.0, 1.0, 4.0], "bins": [-0.19184672832489014, -0.18595850467681885, -0.18007029592990875, -0.17418207228183746, -0.16829386353492737, -0.16240563988685608, -0.1565174162387848, -0.1506291925907135, -0.1447409838438034, -0.13885276019573212, -0.13296455144882202, -0.12707632780075073, -0.12118811160326004, -0.11529989540576935, -0.10941167175769806, -0.10352345556020737, -0.09763523936271667, -0.09174702316522598, -0.08585880696773529, -0.079970583319664, -0.07408236712217331, -0.06819415092468262, -0.06230593100190163, -0.056417711079120636, -0.050529494881629944, -0.04464127868413925, -0.03875305876135826, -0.03286483883857727, -0.02697662264108658, -0.021088404580950737, -0.015200186520814896, -0.009311966598033905, -0.003423750400543213, 0.0024644676595926285, 0.00835268571972847, 0.014240903779864311, 0.020129121840000153, 0.026017339900135994, 0.031905557960271835, 0.037793777883052826, 0.04368199408054352, 0.04957021027803421, 0.0554584302008152, 0.06134665012359619, 0.06723486632108688, 0.07312308251857758, 0.07901130616664886, 0.08489952236413956, 0.09078773856163025, 0.09667595475912094, 0.10256417095661163, 0.10845239460468292, 0.11434061080217361, 0.1202288269996643, 0.1261170506477356, 0.13200527429580688, 0.13789348304271698, 0.14378170669078827, 0.14966991543769836, 0.15555813908576965, 0.16144636273384094, 0.16733457148075104, 0.17322279512882233, 0.17911100387573242, 0.1849992275238037]}, "parameters/graph_8lstm.weight_ih_l0_reverse": {"_type": "histogram", "values": [2.0, 3.0, 1.0, 1.0, 1.0, 2.0, 3.0, 3.0, 9.0, 5.0, 6.0, 7.0, 9.0, 8.0, 12.0, 9.0, 14.0, 16.0, 15.0, 15.0, 9.0, 12.0, 8.0, 12.0, 11.0, 8.0, 13.0, 10.0, 11.0, 12.0, 23.0, 16.0, 14.0, 11.0, 11.0, 16.0, 14.0, 8.0, 14.0, 13.0, 18.0, 12.0, 13.0, 17.0, 15.0, 21.0, 15.0, 14.0, 10.0, 14.0, 5.0, 6.0, 7.0, 11.0, 4.0, 7.0, 3.0, 8.0, 5.0, 3.0, 3.0, 0.0, 0.0, 2.0], "bins": [-0.2512064278125763, -0.24283753335475922, -0.23446863889694214, -0.22609975934028625, -0.21773086488246918, -0.2093619704246521, -0.20099307596683502, -0.19262418150901794, -0.18425530195236206, -0.17588640749454498, -0.1675175130367279, -0.15914863348007202, -0.15077973902225494, -0.14241084456443787, -0.1340419501066208, -0.1256730556488037, -0.11730416119098663, -0.10893526673316956, -0.10056637972593307, -0.092197485268116, -0.08382859826087952, -0.07545970380306244, -0.06709080934524536, -0.05872191861271858, -0.0503530278801918, -0.041984137147665024, -0.033615246415138245, -0.025246351957321167, -0.016877461224794388, -0.008508570492267609, -0.000139676034450531, 0.008229214698076248, 0.016598105430603027, 0.024966996163129807, 0.033335886895656586, 0.04170478135347366, 0.05007367208600044, 0.05844256281852722, 0.0668114572763443, 0.07518035173416138, 0.08354923874139786, 0.09191813319921494, 0.10028702020645142, 0.1086559146642685, 0.11702480912208557, 0.12539368867874146, 0.13376259803771973, 0.1421314775943756, 0.1505003720521927, 0.15886926651000977, 0.16723816096782684, 0.17560705542564392, 0.1839759349822998, 0.19234482944011688, 0.20071372389793396, 0.20908261835575104, 0.21745151281356812, 0.2258204072713852, 0.23418930172920227, 0.24255818128585815, 0.2509270906448364, 0.2592959702014923, 0.2676648497581482, 0.27603375911712646, 0.28440263867378235]}, "parameters/graph_8lstm.weight_hh_l0_reverse": {"_type": "histogram", "values": [1.0, 2.0, 6.0, 9.0, 6.0, 13.0, 21.0, 18.0, 22.0, 30.0, 28.0, 40.0, 42.0, 45.0, 54.0, 69.0, 72.0, 74.0, 75.0, 85.0, 88.0, 91.0, 92.0, 84.0, 100.0, 93.0, 105.0, 86.0, 94.0, 83.0, 90.0, 89.0, 84.0, 86.0, 89.0, 83.0, 97.0, 90.0, 92.0, 87.0, 81.0, 77.0, 82.0, 81.0, 90.0, 86.0, 84.0, 72.0, 78.0, 75.0, 49.0, 42.0, 36.0, 28.0, 30.0, 15.0, 24.0, 21.0, 7.0, 10.0, 7.0, 6.0, 0.0, 4.0], "bins": [-0.2967113256454468, -0.2874787151813507, -0.27824610471725464, -0.26901352405548096, -0.2597809135913849, -0.2505483031272888, -0.24131570756435394, -0.23208311200141907, -0.222850501537323, -0.21361789107322693, -0.20438529551029205, -0.19515269994735718, -0.1859200894832611, -0.17668747901916504, -0.16745488345623016, -0.1582222878932953, -0.14898967742919922, -0.13975706696510315, -0.13052447140216827, -0.1212918683886528, -0.11205926537513733, -0.10282666236162186, -0.09359405934810638, -0.08436145633459091, -0.07512885332107544, -0.06589625030755997, -0.056663647294044495, -0.04743104428052902, -0.03819844126701355, -0.028965838253498077, -0.019733235239982605, -0.010500632226467133, -0.0012680590152740479, 0.007964543998241425, 0.017197147011756897, 0.02642975002527237, 0.03566235303878784, 0.044894956052303314, 0.05412755906581879, 0.06336016207933426, 0.07259276509284973, 0.0818253681063652, 0.09105797111988068, 0.10029057413339615, 0.10952317714691162, 0.1187557801604271, 0.12798838317394257, 0.13722097873687744, 0.1464535892009735, 0.15568619966506958, 0.16491879522800446, 0.17415139079093933, 0.1833840012550354, 0.19261661171913147, 0.20184920728206635, 0.21108180284500122, 0.2203144133090973, 0.22954702377319336, 0.23877961933612823, 0.2480122148990631, 0.2572448253631592, 0.26647743582725525, 0.2757100462913513, 0.284942626953125, 0.29417523741722107]}, "parameters/graph_8lstm.bias_ih_l0_reverse": {"_type": "histogram", "values": [1.0, 0.0, 1.0, 1.0, 1.0, 0.0, 1.0, 4.0, 1.0, 3.0, 4.0, 3.0, 3.0, 1.0, 1.0, 2.0, 3.0, 3.0, 1.0, 5.0, 3.0, 1.0, 1.0, 1.0, 1.0, 2.0, 0.0, 1.0, 3.0, 2.0, 3.0, 2.0, 1.0, 3.0, 3.0, 1.0, 2.0, 2.0, 5.0, 3.0, 1.0, 5.0, 2.0, 2.0, 4.0, 2.0, 3.0, 3.0, 2.0, 4.0, 3.0, 0.0, 1.0, 0.0, 0.0, 1.0, 2.0, 1.0, 0.0, 1.0, 1.0, 0.0, 1.0, 2.0], "bins": [-0.19061344861984253, -0.18345560133457184, -0.17629775404930115, -0.16913990676403046, -0.16198205947875977, -0.15482421219348907, -0.14766636490821838, -0.1405085176229477, -0.133350670337677, -0.1261928230524063, -0.11903497576713562, -0.11187712848186493, -0.10471928119659424, -0.09756143391132355, -0.09040358662605286, -0.08324573934078217, -0.07608788460493088, -0.06893003731966019, -0.061772190034389496, -0.054614342749118805, -0.047456495463848114, -0.040298644453287125, -0.033140797168016434, -0.025982949882745743, -0.018825102597475052, -0.011667255312204361, -0.004509407095611095, 0.00264844112098217, 0.009806288406252861, 0.0169641375541687, 0.024121984839439392, 0.03127983212471008, 0.038437679409980774, 0.045595526695251465, 0.052753373980522156, 0.05991122126579285, 0.06706906855106354, 0.07422691583633423, 0.08138476312160492, 0.08854261040687561, 0.0957004576921463, 0.10285830497741699, 0.11001615226268768, 0.11717399954795837, 0.12433184683322906, 0.13148969411849976, 0.13864754140377045, 0.14580538868904114, 0.15296325087547302, 0.1601210981607437, 0.1672789454460144, 0.1744367927312851, 0.1815946400165558, 0.18875248730182648, 0.19591033458709717, 0.20306818187236786, 0.21022602915763855, 0.21738387644290924, 0.22454172372817993, 0.23169957101345062, 0.2388574182987213, 0.246015265583992, 0.2531731128692627, 0.2603309750556946, 0.2674888074398041]}, "parameters/graph_8lstm.bias_hh_l0_reverse": {"_type": "histogram", "values": [1.0, 0.0, 0.0, 1.0, 1.0, 0.0, 0.0, 1.0, 3.0, 3.0, 1.0, 4.0, 2.0, 2.0, 5.0, 3.0, 2.0, 1.0, 3.0, 0.0, 0.0, 6.0, 4.0, 0.0, 2.0, 1.0, 1.0, 1.0, 2.0, 3.0, 0.0, 4.0, 3.0, 3.0, 3.0, 5.0, 4.0, 3.0, 1.0, 3.0, 4.0, 4.0, 2.0, 0.0, 4.0, 0.0, 1.0, 4.0, 3.0, 3.0, 5.0, 1.0, 1.0, 1.0, 1.0, 1.0, 0.0, 1.0, 0.0, 0.0, 0.0, 1.0, 0.0, 1.0], "bins": [-0.2143285870552063, -0.20654568076133728, -0.19876278936862946, -0.19097988307476044, -0.18319697678089142, -0.1754140853881836, -0.16763117909431458, -0.15984827280044556, -0.15206536650657654, -0.14428246021270752, -0.1364995688199997, -0.12871666252613068, -0.12093375623226166, -0.11315085738897324, -0.10536795854568481, -0.0975850522518158, -0.08980215340852737, -0.08201925456523895, -0.07423634827136993, -0.06645344942808151, -0.058670543134212494, -0.05088764429092407, -0.04310474172234535, -0.03532183915376663, -0.027538936585187912, -0.019756034016609192, -0.011973132379353046, -0.004190230742096901, 0.003592671826481819, 0.01137557253241539, 0.01915847510099411, 0.02694137766957283, 0.03472428023815155, 0.04250718280673027, 0.05029008537530899, 0.05807298421859741, 0.06585589051246643, 0.07363878935575485, 0.08142168819904327, 0.08920459449291229, 0.09698750078678131, 0.10477039963006973, 0.11255330592393875, 0.12033620476722717, 0.1281191110610962, 0.1359020173549652, 0.14368490874767303, 0.15146781504154205, 0.15925070643424988, 0.1670336127281189, 0.17481650412082672, 0.18259941041469574, 0.19038231670856476, 0.19816520810127258, 0.2059481143951416, 0.21373102068901062, 0.22151392698287964, 0.22929683327674866, 0.23707972466945648, 0.2448626309633255, 0.2526455223560333, 0.26042842864990234, 0.26821133494377136, 0.2759942412376404, 0.2837771475315094]}, "parameters/graph_8linear.weight": {"_type": "histogram", "values": [1.0, 0.0, 0.0, 0.0, 0.0, 1.0, 0.0, 0.0, 0.0, 0.0, 0.0, 1.0, 0.0, 0.0, 0.0, 0.0, 0.0, 1.0, 0.0, 1.0, 0.0, 2.0, 3.0, 1.0, 0.0, 1.0, 1.0, 4.0, 2.0, 0.0, 1.0, 0.0, 0.0, 2.0, 3.0, 1.0, 1.0, 2.0, 3.0, 0.0, 1.0, 1.0, 0.0, 2.0, 0.0, 1.0, 3.0, 0.0, 2.0, 3.0, 3.0, 0.0, 0.0, 0.0, 0.0, 2.0, 2.0, 0.0, 1.0, 5.0, 0.0, 0.0, 1.0, 1.0], "bins": [-0.2136647254228592, -0.20815441012382507, -0.20264409482479095, -0.19713377952575684, -0.1916234791278839, -0.1861131638288498, -0.18060284852981567, -0.17509253323078156, -0.16958221793174744, -0.16407190263271332, -0.1585615873336792, -0.15305128693580627, -0.14754097163677216, -0.14203065633773804, -0.13652034103870392, -0.1310100257396698, -0.12549972534179688, -0.11998941004276276, -0.11447910219430923, -0.10896878689527512, -0.1034584790468216, -0.09794816374778748, -0.09243784844875336, -0.08692753314971924, -0.08141722530126572, -0.0759069100022316, -0.07039660215377808, -0.06488628685474396, -0.05937597528100014, -0.05386566370725632, -0.0483553484082222, -0.04284503683447838, -0.03733472526073456, -0.03182441368699074, -0.02631410025060177, -0.0208037868142128, -0.015293475240468979, -0.009783163666725159, -0.00427284836769104, 0.0012374632060527802, 0.0067477747797966, 0.012258087284862995, 0.01776839978992939, 0.02327871322631836, 0.02878902480006218, 0.034299336373806, 0.03980965167284012, 0.04531996324658394, 0.05083027482032776, 0.05634058639407158, 0.0618508979678154, 0.06736121326684952, 0.07287152111530304, 0.07838183641433716, 0.08389215171337128, 0.0894024670124054, 0.09491277486085892, 0.10042309015989304, 0.10593339800834656, 0.11144371330738068, 0.1169540286064148, 0.12246433645486832, 0.12797465920448303, 0.13348495960235596, 0.13899527490139008]}, "parameters/graph_8linear.bias": {"_type": "histogram", "values": [0.0, 0.0, 0.0, 0.0, 0.0, 0.0, 0.0, 0.0, 0.0, 0.0, 0.0, 0.0, 0.0, 0.0, 0.0, 0.0, 0.0, 0.0, 0.0, 0.0, 0.0, 0.0, 0.0, 0.0, 0.0, 0.0, 0.0, 0.0, 0.0, 0.0, 0.0, 0.0, 1.0, 0.0, 0.0, 0.0, 0.0, 0.0, 0.0, 0.0, 0.0, 0.0, 0.0, 0.0, 0.0, 0.0, 0.0, 0.0, 0.0, 0.0, 0.0, 0.0, 0.0, 0.0, 0.0, 0.0, 0.0, 0.0, 0.0, 0.0, 0.0, 0.0, 0.0, 0.0], "bins": [-0.027688348665833473, -0.027688348665833473, -0.027688348665833473, -0.027688348665833473, -0.027688348665833473, -0.027688348665833473, -0.027688348665833473, -0.027688348665833473, -0.027688348665833473, -0.027688348665833473, -0.027688348665833473, -0.027688348665833473, -0.027688348665833473, -0.027688348665833473, -0.027688348665833473, -0.027688348665833473, -0.027688348665833473, -0.027688348665833473, -0.027688348665833473, -0.027688348665833473, -0.027688348665833473, -0.027688348665833473, -0.027688348665833473, -0.027688348665833473, -0.027688348665833473, -0.027688348665833473, -0.027688348665833473, -0.027688348665833473, -0.027688348665833473, -0.027688348665833473, -0.027688348665833473, -0.027688348665833473, -0.027688348665833473, -0.027688348665833473, -0.027688348665833473, -0.027688348665833473, -0.027688348665833473, -0.027688348665833473, -0.027688348665833473, -0.027688348665833473, -0.027688348665833473, -0.027688348665833473, -0.027688348665833473, -0.027688348665833473, -0.027688348665833473, -0.027688348665833473, -0.027688348665833473, -0.027688348665833473, -0.027688348665833473, -0.027688348665833473, -0.027688348665833473, -0.027688348665833473, -0.027688348665833473, -0.027688348665833473, -0.027688348665833473, -0.027688348665833473, -0.027688348665833473, -0.027688348665833473, -0.027688348665833473, -0.027688348665833473, -0.027688348665833473, -0.027688348665833473, -0.027688348665833473, -0.027688348665833473, -0.027688348665833473]}, "gradients/graph_8linear.bias": {"_type": "histogram", "values": [0.0, 0.0, 0.0, 0.0, 0.0, 0.0, 0.0, 0.0, 0.0, 0.0, 0.0, 0.0, 0.0, 0.0, 0.0, 0.0, 0.0, 0.0, 0.0, 0.0, 0.0, 0.0, 0.0, 0.0, 0.0, 0.0, 0.0, 0.0, 0.0, 0.0, 0.0, 0.0, 1.0, 0.0, 0.0, 0.0, 0.0, 0.0, 0.0, 0.0, 0.0, 0.0, 0.0, 0.0, 0.0, 0.0, 0.0, 0.0, 0.0, 0.0, 0.0, 0.0, 0.0, 0.0, 0.0, 0.0, 0.0, 0.0, 0.0, 0.0, 0.0, 0.0, 0.0, 0.0], "bins": [-0.01815267652273178, -0.01815267652273178, -0.01815267652273178, -0.01815267652273178, -0.01815267652273178, -0.01815267652273178, -0.01815267652273178, -0.01815267652273178, -0.01815267652273178, -0.01815267652273178, -0.01815267652273178, -0.01815267652273178, -0.01815267652273178, -0.01815267652273178, -0.01815267652273178, -0.01815267652273178, -0.01815267652273178, -0.01815267652273178, -0.01815267652273178, -0.01815267652273178, -0.01815267652273178, -0.01815267652273178, -0.01815267652273178, -0.01815267652273178, -0.01815267652273178, -0.01815267652273178, -0.01815267652273178, -0.01815267652273178, -0.01815267652273178, -0.01815267652273178, -0.01815267652273178, -0.01815267652273178, -0.01815267652273178, -0.01815267652273178, -0.01815267652273178, -0.01815267652273178, -0.01815267652273178, -0.01815267652273178, -0.01815267652273178, -0.01815267652273178, -0.01815267652273178, -0.01815267652273178, -0.01815267652273178, -0.01815267652273178, -0.01815267652273178, -0.01815267652273178, -0.01815267652273178, -0.01815267652273178, -0.01815267652273178, -0.01815267652273178, -0.01815267652273178, -0.01815267652273178, -0.01815267652273178, -0.01815267652273178, -0.01815267652273178, -0.01815267652273178, -0.01815267652273178, -0.01815267652273178, -0.01815267652273178, -0.01815267652273178, -0.01815267652273178, -0.01815267652273178, -0.01815267652273178, -0.01815267652273178, -0.01815267652273178]}, "gradients/graph_8linear.weight": {"_type": "histogram", "values": [1.0, 0.0, 0.0, 1.0, 0.0, 1.0, 1.0, 0.0, 0.0, 1.0, 1.0, 0.0, 0.0, 0.0, 1.0, 0.0, 2.0, 0.0, 1.0, 0.0, 1.0, 0.0, 1.0, 1.0, 0.0, 4.0, 1.0, 1.0, 2.0, 2.0, 2.0, 4.0, 3.0, 2.0, 2.0, 3.0, 4.0, 0.0, 2.0, 1.0, 1.0, 1.0, 1.0, 5.0, 0.0, 0.0, 1.0, 2.0, 0.0, 0.0, 0.0, 0.0, 0.0, 1.0, 0.0, 0.0, 0.0, 0.0, 0.0, 0.0, 1.0, 0.0, 0.0, 1.0], "bins": [-0.011709838174283504, -0.01133056078106165, -0.01095128245651722, -0.010572005063295364, -0.01019272767007351, -0.00981344934552908, -0.009434171952307224, -0.009054893627762794, -0.00867561623454094, -0.008296338841319084, -0.007917060516774654, -0.007537783123552799, -0.007158505264669657, -0.006779227405786514, -0.006399950012564659, -0.006020672153681517, -0.005641394294798374, -0.005262116435915232, -0.004882838577032089, -0.004503561183810234, -0.004124283324927092, -0.003745005466043949, -0.0033657278399914503, -0.0029864502139389515, -0.002607172355055809, -0.0022278944961726665, -0.0018486168701201677, -0.001469339127652347, -0.0010900613851845264, -0.0007107836427167058, -0.00033150590024888515, 4.777172580361366e-05, 0.00042705051600933075, 0.0008063282584771514, 0.001185606000944972, 0.0015648837434127927, 0.0019441614858806133, 0.002323439344763756, 0.0027027169708162546, 0.0030819945968687534, 0.003461272455751896, 0.0038405503146350384, 0.004219828173518181, 0.004599105566740036, 0.0049783834256231785, 0.005357661284506321, 0.005736938677728176, 0.006116216536611319, 0.006495494395494461, 0.0068747722543776035, 0.007254050113260746, 0.007633327506482601, 0.008012605831027031, 0.008391883224248886, 0.008771160617470741, 0.009150438010692596, 0.009529716335237026, 0.009908993728458881, 0.010288272053003311, 0.010667549446225166, 0.011046826839447021, 0.011426105163991451, 0.011805382557213306, 0.012184660881757736, 0.012563938274979591]}, "gradients/graph_8lstm.weight_ih_l0": {"_type": "histogram", "values": [1.0, 0.0, 0.0, 2.0, 0.0, 1.0, 0.0, 0.0, 0.0, 0.0, 0.0, 0.0, 0.0, 1.0, 1.0, 1.0, 1.0, 0.0, 0.0, 1.0, 1.0, 0.0, 3.0, 0.0, 3.0, 2.0, 0.0, 1.0, 2.0, 0.0, 3.0, 4.0, 2.0, 4.0, 6.0, 11.0, 22.0, 21.0, 41.0, 80.0, 226.0, 95.0, 6.0, 5.0, 7.0, 4.0, 5.0, 3.0, 3.0, 4.0, 2.0, 3.0, 4.0, 2.0, 3.0, 2.0, 3.0, 0.0, 2.0, 2.0, 0.0, 0.0, 3.0, 1.0], "bins": [-0.0022854781709611416, -0.0022299091797322035, -0.0021743401885032654, -0.0021187709644436836, -0.0020632019732147455, -0.0020076329819858074, -0.0019520638743415475, -0.0018964948831126094, -0.0018409257754683495, -0.0017853567842394114, -0.0017297876765951514, -0.0016742186853662133, -0.0016186495777219534, -0.0015630805864930153, -0.0015075114788487554, -0.0014519424876198173, -0.0013963733799755573, -0.0013408043887466192, -0.0012852352811023593, -0.0012296662898734212, -0.0011740971822291613, -0.0011185281910002232, -0.0010629590833559632, -0.0010073900921270251, -0.000951821100898087, -0.000896252051461488, -0.000840683002024889, -0.00078511395258829, -0.000729544903151691, -0.0006739759119227529, -0.0006184068042784929, -0.0005628378130495548, -0.0005072687054052949, -0.0004516996559686959, -0.00039613060653209686, -0.00034056155709549785, -0.00028499250765889883, -0.00022942348732613027, -0.00017385443788953125, -0.00011828538845293224, -6.271633901633322e-05, -7.147293217713013e-06, 4.8421752580907196e-05, 0.0001039907947415486, 0.00015955984417814761, 0.0002151288790628314, 0.0002706979284994304, 0.00032626697793602943, 0.00038183602737262845, 0.00043740507680922747, 0.0004929741262458265, 0.0005485431756824255, 0.0006041122251190245, 0.0006596812745556235, 0.0007152502657845616, 0.0007708193734288216, 0.0008263883646577597, 0.0008819574140943587, 0.0009375264635309577, 0.0009930954547598958, 0.0010486645624041557, 0.0011042335536330938, 0.0011598026612773538, 0.0012153716525062919, 0.0012709407601505518]}, "gradients/graph_8lstm.bias_ih_l0": {"_type": "histogram", "values": [1.0, 0.0, 0.0, 1.0, 0.0, 0.0, 0.0, 0.0, 0.0, 0.0, 0.0, 0.0, 1.0, 0.0, 0.0, 0.0, 1.0, 0.0, 0.0, 0.0, 0.0, 0.0, 1.0, 0.0, 0.0, 0.0, 1.0, 0.0, 0.0, 0.0, 0.0, 1.0, 1.0, 5.0, 2.0, 4.0, 4.0, 10.0, 8.0, 21.0, 35.0, 12.0, 0.0, 0.0, 1.0, 0.0, 0.0, 0.0, 0.0, 0.0, 1.0, 1.0, 1.0, 1.0, 0.0, 0.0, 0.0, 2.0, 0.0, 0.0, 3.0, 0.0, 0.0, 1.0], "bins": [-0.002322710584849119, -0.0022662151604890823, -0.0022097197361290455, -0.002153224078938365, -0.002096728654578328, -0.0020402332302182913, -0.0019837375730276108, -0.001927242148667574, -0.001870746724307537, -0.0018142512999475002, -0.0017577557591721416, -0.0017012602183967829, -0.001644764794036746, -0.0015882693696767092, -0.0015317738289013505, -0.0014752782881259918, -0.001418782863765955, -0.0013622874394059181, -0.0013057918986305594, -0.0012492963578552008, -0.001192800933495164, -0.001136305509135127, -0.0010798099683597684, -0.0010233144275844097, -0.0009668190032243729, -0.0009103235206566751, -0.0008538280380889773, -0.0007973325555212796, -0.0007408370729535818, -0.000684341590385884, -0.0006278461078181863, -0.0005713506252504885, -0.0005148550262674689, -0.00045835954369977117, -0.0004018640611320734, -0.00034536857856437564, -0.0002888730959966779, -0.0002323776134289801, -0.00017588213086128235, -0.00011938664829358459, -6.289116572588682e-05, -6.395683158189058e-06, 5.0099799409508705e-05, 0.00010659528197720647, 0.00016309076454490423, 0.000219586247112602, 0.00027608172968029976, 0.0003325772122479975, 0.0003890726948156953, 0.00044556817738339305, 0.0005020636599510908, 0.0005585591425187886, 0.0006150546250864863, 0.0006715501076541841, 0.0007280455902218819, 0.0007845410727895796, 0.0008410365553572774, 0.0008975320379249752, 0.0009540275204926729, 0.0010105229448527098, 0.0010670184856280684, 0.0011235140264034271, 0.001180009450763464, 0.0012365048751235008, 0.0012930004158988595]}, "gradients/graph_8lstm.bias_ih_l0_reverse": {"_type": "histogram", "values": [1.0, 0.0, 0.0, 1.0, 0.0, 0.0, 0.0, 1.0, 1.0, 0.0, 0.0, 1.0, 0.0, 0.0, 1.0, 1.0, 1.0, 2.0, 3.0, 3.0, 10.0, 28.0, 36.0, 12.0, 1.0, 1.0, 1.0, 3.0, 3.0, 2.0, 1.0, 0.0, 3.0, 1.0, 0.0, 0.0, 0.0, 0.0, 0.0, 0.0, 0.0, 0.0, 0.0, 0.0, 0.0, 0.0, 0.0, 0.0, 0.0, 0.0, 0.0, 0.0, 0.0, 0.0, 0.0, 0.0, 0.0, 0.0, 0.0, 0.0, 0.0, 1.0, 0.0, 1.0], "bins": [-0.005172936245799065, -0.004951215349137783, -0.004729493986815214, -0.004507773090153933, -0.004286051727831364, -0.004064330831170082, -0.003842609701678157, -0.0036208885721862316, -0.0033991674426943064, -0.003177446313202381, -0.002955725183710456, -0.0027340040542185307, -0.002512283157557249, -0.00229056179523468, -0.0020688408985733986, -0.0018471197690814734, -0.0016253986395895481, -0.0014036775100976229, -0.0011819563806056976, -0.0009602353675290942, -0.000738514238037169, -0.0005167931085452437, -0.00029507209546864033, -7.335096597671509e-05, 0.00014837016351521015, 0.00037009126390330493, 0.0005918123642913997, 0.000813533435575664, 0.0010352545650675893, 0.0012569756945595145, 0.001478696707636118, 0.0017004178371280432, 0.0019221389666199684, 0.0021438600961118937, 0.002365581225603819, 0.0025873021222651005, 0.0028090234845876694, 0.003030744381248951, 0.003252465510740876, 0.0034741866402328014, 0.0036959077697247267, 0.003917628899216652, 0.0041393497958779335, 0.004361071158200502, 0.004582792054861784, 0.004804513417184353, 0.0050262343138456345, 0.005247955210506916, 0.005469676572829485, 0.0056913974694907665, 0.005913118831813335, 0.006134839728474617, 0.006356561090797186, 0.0065782819874584675, 0.006800003349781036, 0.007021724246442318, 0.0072434451431035995, 0.007465166039764881, 0.00768688740208745, 0.007908608764410019, 0.0081303296610713, 0.008352050557732582, 0.008573771454393864, 0.008795492351055145, 0.009017214179039001]}, "gradients/graph_8lstm.weight_hh_l0_reverse": {"_type": "histogram", "values": [2.0, 1.0, 0.0, 0.0, 0.0, 0.0, 0.0, 0.0, 1.0, 0.0, 0.0, 1.0, 1.0, 0.0, 0.0, 1.0, 1.0, 1.0, 1.0, 0.0, 2.0, 4.0, 3.0, 5.0, 14.0, 15.0, 27.0, 32.0, 44.0, 126.0, 435.0, 2090.0, 490.0, 124.0, 56.0, 45.0, 24.0, 12.0, 10.0, 4.0, 8.0, 2.0, 4.0, 1.0, 2.0, 1.0, 1.0, 0.0, 2.0, 1.0, 1.0, 0.0, 0.0, 1.0, 0.0, 2.0, 0.0, 0.0, 0.0, 0.0, 0.0, 1.0, 0.0, 1.0], "bins": [-0.005070128012448549, -0.004909636918455362, -0.004749146290123463, -0.004588655196130276, -0.004428164102137089, -0.004267673008143902, -0.004107181914150715, -0.003946691285818815, -0.0037862001918256283, -0.0036257090978324413, -0.003465218236669898, -0.0033047273755073547, -0.003144236281514168, -0.002983745187520981, -0.0028232543263584375, -0.0026627634651958942, -0.0025022723712027073, -0.0023417812772095203, -0.002181290416046977, -0.0020207995548844337, -0.0018603084608912468, -0.0016998174833133817, -0.0015393265057355165, -0.0013788355281576514, -0.0012183445505797863, -0.0010578535730019212, -0.000897362595424056, -0.0007368716178461909, -0.0005763806402683258, -0.0004158896626904607, -0.00025539868511259556, -9.490770753473043e-05, 6.558280438184738e-05, 0.0002260737819597125, 0.00038656475953757763, 0.0005470557371154428, 0.0007075467146933079, 0.000868037692271173, 0.0010285286698490381, 0.0011890196474269032, 0.0013495106250047684, 0.0015100016025826335, 0.0016704925801604986, 0.0018309835577383637, 0.001991474535316229, 0.002151965629309416, 0.002312456490471959, 0.0024729473516345024, 0.0026334384456276894, 0.0027939295396208763, 0.0029544204007834196, 0.003114911261945963, 0.00327540235593915, 0.003435893449932337, 0.00359638431109488, 0.0037568751722574234, 0.00391736626625061, 0.004077857360243797, 0.004238348454236984, 0.004398839082568884, 0.004559330176562071, 0.004719821270555258, 0.0048803118988871574, 0.005040802992880344, 0.005201294086873531]}, "gradients/graph_8lstm.bias_hh_l0_reverse": {"_type": "histogram", "values": [1.0, 0.0, 0.0, 1.0, 0.0, 0.0, 0.0, 1.0, 1.0, 0.0, 0.0, 1.0, 0.0, 0.0, 1.0, 1.0, 1.0, 2.0, 3.0, 3.0, 10.0, 28.0, 36.0, 12.0, 1.0, 1.0, 1.0, 3.0, 3.0, 2.0, 1.0, 0.0, 3.0, 1.0, 0.0, 0.0, 0.0, 0.0, 0.0, 0.0, 0.0, 0.0, 0.0, 0.0, 0.0, 0.0, 0.0, 0.0, 0.0, 0.0, 0.0, 0.0, 0.0, 0.0, 0.0, 0.0, 0.0, 0.0, 0.0, 0.0, 0.0, 1.0, 0.0, 1.0], "bins": [-0.005172936245799065, -0.004951215349137783, -0.004729493986815214, -0.004507773090153933, -0.004286051727831364, -0.004064330831170082, -0.003842609701678157, -0.0036208885721862316, -0.0033991674426943064, -0.003177446313202381, -0.002955725183710456, -0.0027340040542185307, -0.002512283157557249, -0.00229056179523468, -0.0020688408985733986, -0.0018471197690814734, -0.0016253986395895481, -0.0014036775100976229, -0.0011819563806056976, -0.0009602353675290942, -0.000738514238037169, -0.0005167931085452437, -0.00029507209546864033, -7.335096597671509e-05, 0.00014837016351521015, 0.00037009126390330493, 0.0005918123642913997, 0.000813533435575664, 0.0010352545650675893, 0.0012569756945595145, 0.001478696707636118, 0.0017004178371280432, 0.0019221389666199684, 0.0021438600961118937, 0.002365581225603819, 0.0025873021222651005, 0.0028090234845876694, 0.003030744381248951, 0.003252465510740876, 0.0034741866402328014, 0.0036959077697247267, 0.003917628899216652, 0.0041393497958779335, 0.004361071158200502, 0.004582792054861784, 0.004804513417184353, 0.0050262343138456345, 0.005247955210506916, 0.005469676572829485, 0.0056913974694907665, 0.005913118831813335, 0.006134839728474617, 0.006356561090797186, 0.0065782819874584675, 0.006800003349781036, 0.007021724246442318, 0.0072434451431035995, 0.007465166039764881, 0.00768688740208745, 0.007908608764410019, 0.0081303296610713, 0.008352050557732582, 0.008573771454393864, 0.008795492351055145, 0.009017214179039001]}, "gradients/graph_8lstm.weight_ih_l0_reverse": {"_type": "histogram", "values": [1.0, 0.0, 0.0, 1.0, 0.0, 1.0, 2.0, 0.0, 2.0, 1.0, 0.0, 2.0, 5.0, 1.0, 5.0, 4.0, 13.0, 14.0, 17.0, 31.0, 95.0, 218.0, 110.0, 8.0, 17.0, 4.0, 14.0, 7.0, 6.0, 2.0, 4.0, 1.0, 3.0, 0.0, 2.0, 1.0, 0.0, 0.0, 1.0, 0.0, 0.0, 0.0, 0.0, 0.0, 1.0, 0.0, 0.0, 0.0, 0.0, 0.0, 0.0, 1.0, 0.0, 0.0, 0.0, 0.0, 1.0, 0.0, 1.0, 0.0, 0.0, 1.0, 0.0, 2.0], "bins": [-0.003276600269600749, -0.003130214987322688, -0.002983829705044627, -0.0028374444227665663, -0.002691059373319149, -0.002544674091041088, -0.002398288808763027, -0.0022519035264849663, -0.0021055182442069054, -0.0019591329619288445, -0.0018127476796507835, -0.0016663625137880445, -0.0015199772315099835, -0.0013735919492319226, -0.0012272067833691835, -0.0010808215010911226, -0.0009344362188130617, -0.0007880509365350008, -0.0006416657124646008, -0.0004952804883942008, -0.0003488952061161399, -0.00020250992383807898, -5.6124699767678976e-05, 9.026052430272102e-05, 0.00023664580658078194, 0.0003830310597550124, 0.0005294163129292428, 0.0006758015369996428, 0.0008221868192777038, 0.0009685721015557647, 0.0011149572674185038, 0.0012613425496965647, 0.001407727599143982, 0.0015541128814220428, 0.0017004981637001038, 0.0018468833295628428, 0.0019932687282562256, 0.0021396540105342865, 0.0022860390599817038, 0.0024324243422597647, 0.0025788096245378256, 0.0027251949068158865, 0.0028715801890939474, 0.0030179654713720083, 0.0031643505208194256, 0.0033107358030974865, 0.0034571210853755474, 0.0036035063676536083, 0.0037498916499316692, 0.00389627693220973, 0.004042662214487791, 0.004189047496765852, 0.004335432779043913, 0.004481818061321974, 0.004628203343600035, 0.004774588160216808, 0.004920973442494869, 0.00506735872477293, 0.005213744007050991, 0.005360129289329052, 0.005506514571607113, 0.005652899853885174, 0.005799285136163235, 0.005945670418441296, 0.0060920557007193565]}, "gradients/graph_8lstm.weight_hh_l0": {"_type": "histogram", "values": [3.0, 0.0, 1.0, 0.0, 1.0, 0.0, 0.0, 0.0, 1.0, 5.0, 1.0, 5.0, 6.0, 7.0, 9.0, 3.0, 6.0, 10.0, 17.0, 18.0, 20.0, 21.0, 34.0, 61.0, 85.0, 224.0, 1440.0, 1003.0, 238.0, 138.0, 77.0, 35.0, 38.0, 12.0, 11.0, 11.0, 10.0, 6.0, 5.0, 7.0, 5.0, 5.0, 2.0, 1.0, 5.0, 2.0, 0.0, 0.0, 0.0, 1.0, 1.0, 0.0, 1.0, 3.0, 1.0, 1.0, 1.0, 0.0, 0.0, 0.0, 0.0, 0.0, 1.0, 1.0], "bins": [-0.0005237295990809798, -0.0005042707198299468, -0.0004848118405789137, -0.0004653529613278806, -0.00044589408207684755, -0.0004264352028258145, -0.0004069763235747814, -0.00038751744432374835, -0.0003680585650727153, -0.0003485996858216822, -0.00032914080657064915, -0.0003096819273196161, -0.000290223048068583, -0.00027076416881754994, -0.0002513052895665169, -0.0002318464103154838, -0.00021238753106445074, -0.00019292865181341767, -0.0001734697725623846, -0.00015401089331135154, -0.00013455201406031847, -0.0001150931348092854, -9.563425555825233e-05, -7.617537630721927e-05, -5.67164970561862e-05, -3.725761780515313e-05, -1.7798738554120064e-05, 1.660140696913004e-06, 2.111901994794607e-05, 4.057789919897914e-05, 6.003677845001221e-05, 7.949565770104527e-05, 9.895459515973926e-05, 0.00011841347441077232, 0.0001378723536618054, 0.00015733123291283846, 0.00017679011216387153, 0.0001962489914149046, 0.00021570787066593766, 0.00023516674991697073, 0.0002546256291680038, 0.00027408450841903687, 0.00029354338767006993, 0.000313002266921103, 0.00033246114617213607, 0.00035192002542316914, 0.0003713789046742022, 0.00039083778392523527, 0.00041029666317626834, 0.0004297555424273014, 0.0004492144216783345, 0.00046867330092936754, 0.0004881321801804006, 0.0005075910594314337, 0.0005270499386824667, 0.0005465088179334998, 0.0005659676971845329, 0.000585426576435566, 0.000604885455686599, 0.0006243443349376321, 0.0006438032141886652, 0.0006632620934396982, 0.0006827209726907313, 0.0007021798519417644, 0.0007216387311927974]}, "gradients/graph_8lstm.bias_hh_l0": {"_type": "histogram", "values": [1.0, 0.0, 0.0, 1.0, 0.0, 0.0, 0.0, 0.0, 0.0, 0.0, 0.0, 0.0, 1.0, 0.0, 0.0, 0.0, 1.0, 0.0, 0.0, 0.0, 0.0, 0.0, 1.0, 0.0, 0.0, 0.0, 1.0, 0.0, 0.0, 0.0, 0.0, 1.0, 1.0, 5.0, 2.0, 4.0, 4.0, 10.0, 8.0, 21.0, 35.0, 12.0, 0.0, 0.0, 1.0, 0.0, 0.0, 0.0, 0.0, 0.0, 1.0, 1.0, 1.0, 1.0, 0.0, 0.0, 0.0, 2.0, 0.0, 0.0, 3.0, 0.0, 0.0, 1.0], "bins": [-0.002322710584849119, -0.0022662151604890823, -0.0022097197361290455, -0.002153224078938365, -0.002096728654578328, -0.0020402332302182913, -0.0019837375730276108, -0.001927242148667574, -0.001870746724307537, -0.0018142512999475002, -0.0017577557591721416, -0.0017012602183967829, -0.001644764794036746, -0.0015882693696767092, -0.0015317738289013505, -0.0014752782881259918, -0.001418782863765955, -0.0013622874394059181, -0.0013057918986305594, -0.0012492963578552008, -0.001192800933495164, -0.001136305509135127, -0.0010798099683597684, -0.0010233144275844097, -0.0009668190032243729, -0.0009103235206566751, -0.0008538280380889773, -0.0007973325555212796, -0.0007408370729535818, -0.000684341590385884, -0.0006278461078181863, -0.0005713506252504885, -0.0005148550262674689, -0.00045835954369977117, -0.0004018640611320734, -0.00034536857856437564, -0.0002888730959966779, -0.0002323776134289801, -0.00017588213086128235, -0.00011938664829358459, -6.289116572588682e-05, -6.395683158189058e-06, 5.0099799409508705e-05, 0.00010659528197720647, 0.00016309076454490423, 0.000219586247112602, 0.00027608172968029976, 0.0003325772122479975, 0.0003890726948156953, 0.00044556817738339305, 0.0005020636599510908, 0.0005585591425187886, 0.0006150546250864863, 0.0006715501076541841, 0.0007280455902218819, 0.0007845410727895796, 0.0008410365553572774, 0.0008975320379249752, 0.0009540275204926729, 0.0010105229448527098, 0.0010670184856280684, 0.0011235140264034271, 0.001180009450763464, 0.0012365048751235008, 0.0012930004158988595]}, "train_loss": 0.01715875522274038, "_step": 4, "_wandb": {"runtime": 5}}