{"parameters/graph_9lstm.weight_ih_l0": {"_type": "histogram", "values": [3.0, 0.0, 0.0, 4.0, 0.0, 0.0, 0.0, 4.0, 3.0, 6.0, 3.0, 7.0, 11.0, 5.0, 16.0, 15.0, 16.0, 4.0, 9.0, 11.0, 16.0, 10.0, 15.0, 15.0, 12.0, 11.0, 9.0, 17.0, 17.0, 23.0, 14.0, 13.0, 18.0, 13.0, 17.0, 19.0, 20.0, 12.0, 10.0, 7.0, 12.0, 11.0, 13.0, 16.0, 15.0, 15.0, 11.0, 14.0, 18.0, 8.0, 7.0, 5.0, 11.0, 6.0, 7.0, 4.0, 4.0, 6.0, 7.0, 0.0, 1.0, 3.0, 0.0, 1.0], "bins": [-0.2565877437591553, -0.24810326099395752, -0.23961877822875977, -0.231134295463562, -0.22264981269836426, -0.2141653299331665, -0.20568084716796875, -0.197196364402771, -0.18871188163757324, -0.1802273988723755, -0.17174291610717773, -0.16325843334197998, -0.15477395057678223, -0.14628946781158447, -0.13780498504638672, -0.12932050228118896, -0.1208360344171524, -0.11235155165195465, -0.1038670688867569, -0.09538258612155914, -0.08689810335636139, -0.07841362059116364, -0.06992914527654648, -0.061444662511348724, -0.05296017974615097, -0.04447569698095322, -0.03599121421575546, -0.027506735175848007, -0.019022252410650253, -0.0105377696454525, -0.002053290605545044, 0.00643119215965271, 0.014915674924850464, 0.023400157690048218, 0.03188464045524597, 0.04036911949515343, 0.04885360226035118, 0.057338085025548935, 0.06582256406545639, 0.07430704683065414, 0.0827915295958519, 0.09127601236104965, 0.0997604951262474, 0.10824497044086456, 0.11672945320606232, 0.12521393597126007, 0.13369841873645782, 0.14218290150165558, 0.15066738426685333, 0.1591518670320511, 0.16763634979724884, 0.1761208325624466, 0.18460531532764435, 0.1930897980928421, 0.20157426595687866, 0.21005874872207642, 0.21854323148727417, 0.22702771425247192, 0.23551219701766968, 0.24399667978286743, 0.2524811625480652, 0.26096564531326294, 0.2694501280784607, 0.27793461084365845, 0.2864190936088562]}, "_timestamp": 1650851051, "_runtime": 33, "parameters/graph_9lstm.weight_hh_l0": {"_type": "histogram", "values": [4.0, 4.0, 6.0, 7.0, 17.0, 16.0, 21.0, 19.0, 37.0, 25.0, 50.0, 45.0, 40.0, 45.0, 69.0, 59.0, 72.0, 99.0, 81.0, 84.0, 85.0, 88.0, 88.0, 91.0, 115.0, 97.0, 103.0, 99.0, 101.0, 81.0, 92.0, 84.0, 82.0, 101.0, 90.0, 84.0, 103.0, 89.0, 93.0, 85.0, 89.0, 90.0, 87.0, 66.0, 85.0, 73.0, 70.0, 60.0, 52.0, 53.0, 41.0, 33.0, 23.0, 37.0, 26.0, 17.0, 17.0, 9.0, 7.0, 3.0, 4.0, 4.0, 2.0, 1.0], "bins": [-0.2957625091075897, -0.2864952087402344, -0.27722787857055664, -0.2679605782032013, -0.25869327783584595, -0.2494259625673294, -0.24015864729881287, -0.23089134693145752, -0.22162404656410217, -0.21235673129558563, -0.20308943092823029, -0.19382211565971375, -0.1845548152923584, -0.17528750002384186, -0.16602018475532532, -0.15675288438796997, -0.14748556911945343, -0.1382182538509369, -0.12895095348358154, -0.119683638215065, -0.11041633784770966, -0.10114902257919312, -0.09188171476125717, -0.08261440694332123, -0.07334709912538528, -0.06407979130744934, -0.0548124834895134, -0.045545171946287155, -0.03627786412835121, -0.027010556310415268, -0.017743244767189026, -0.008475936949253082, 0.0007913708686828613, 0.01005867961794138, 0.019325988367199898, 0.02859329804778099, 0.037860605865716934, 0.04712791368365288, 0.05639522522687912, 0.06566253304481506, 0.07492984086275101, 0.08419714868068695, 0.0934644564986229, 0.10273176431655884, 0.11199907958507538, 0.12126637995243073, 0.13053369522094727, 0.1398009955883026, 0.14906831085681915, 0.1583356261253357, 0.16760292649269104, 0.17687024176120758, 0.18613754212856293, 0.19540485739707947, 0.20467215776443481, 0.21393947303295135, 0.2232067883014679, 0.23247410356998444, 0.24174140393733978, 0.2510087192058563, 0.26027601957321167, 0.269543319940567, 0.27881065011024475, 0.2880779504776001, 0.29734525084495544]}, "parameters/graph_9lstm.bias_ih_l0": {"_type": "histogram", "values": [1.0, 0.0, 1.0, 0.0, 3.0, 1.0, 2.0, 1.0, 1.0, 0.0, 2.0, 0.0, 3.0, 4.0, 6.0, 1.0, 3.0, 0.0, 5.0, 2.0, 3.0, 3.0, 1.0, 3.0, 4.0, 3.0, 2.0, 1.0, 2.0, 2.0, 2.0, 0.0, 0.0, 1.0, 3.0, 3.0, 2.0, 4.0, 5.0, 8.0, 2.0, 2.0, 1.0, 0.0, 3.0, 3.0, 1.0, 1.0, 0.0, 2.0, 0.0, 2.0, 2.0, 3.0, 4.0, 2.0, 0.0, 0.0, 1.0, 1.0, 0.0, 1.0, 0.0, 1.0], "bins": [-0.1955878734588623, -0.18825799226760864, -0.1809280961751938, -0.17359821498394012, -0.16626831889152527, -0.1589384377002716, -0.15160854160785675, -0.1442786604166031, -0.13694876432418823, -0.12961888313293457, -0.12228898704051971, -0.11495909839868546, -0.1076292097568512, -0.10029932856559753, -0.09296943247318268, -0.08563955128192902, -0.07830966264009476, -0.0709797739982605, -0.06364988535642624, -0.05631999671459198, -0.04899010807275772, -0.04166022315621376, -0.0343303345143795, -0.027000445872545242, -0.019670557230710983, -0.012340668588876724, -0.00501078087836504, 0.0023191068321466446, 0.009648995473980904, 0.016978882253170013, 0.024308770895004272, 0.03163865953683853, 0.03896854817867279, 0.04629843682050705, 0.05362832546234131, 0.06095821410417557, 0.06828810274600983, 0.07561798393726349, 0.08294788002967834, 0.090277761220932, 0.09760765731334686, 0.10493754595518112, 0.11226743459701538, 0.11959732323884964, 0.1269272118806839, 0.13425709307193756, 0.14158698916435242, 0.14891687035560608, 0.15624675154685974, 0.1635766327381134, 0.17090652883052826, 0.17823641002178192, 0.18556630611419678, 0.19289618730545044, 0.2002260833978653, 0.20755596458911896, 0.2148858606815338, 0.22221574187278748, 0.22954563796520233, 0.236875519156456, 0.24420541524887085, 0.2515352964401245, 0.2588651776313782, 0.2661950886249542, 0.2735249698162079]}, "parameters/graph_9lstm.bias_hh_l0": {"_type": "histogram", "values": [3.0, 2.0, 1.0, 1.0, 3.0, 2.0, 1.0, 0.0, 0.0, 1.0, 2.0, 0.0, 2.0, 2.0, 3.0, 2.0, 1.0, 3.0, 4.0, 3.0, 0.0, 2.0, 0.0, 0.0, 2.0, 5.0, 4.0, 2.0, 2.0, 2.0, 1.0, 4.0, 2.0, 3.0, 4.0, 2.0, 1.0, 2.0, 1.0, 4.0, 1.0, 0.0, 2.0, 6.0, 2.0, 2.0, 1.0, 3.0, 2.0, 1.0, 3.0, 2.0, 4.0, 0.0, 0.0, 2.0, 2.0, 1.0, 2.0, 2.0, 0.0, 0.0, 1.0, 2.0], "bins": [-0.16304618120193481, -0.1570109724998474, -0.1509757786989212, -0.1449405699968338, -0.1389053761959076, -0.1328701674938202, -0.1268349587917328, -0.12079976499080658, -0.11476456373929977, -0.10872936248779297, -0.10269416123628616, -0.09665895998477936, -0.09062375128269196, -0.08458855748176575, -0.07855334877967834, -0.07251814752817154, -0.06648294627666473, -0.06044774502515793, -0.05441254377365112, -0.04837733879685402, -0.042342137545347214, -0.03630693629384041, -0.030271731317043304, -0.0242365300655365, -0.018201328814029694, -0.012166126631200314, -0.0061309244483709335, -9.572133421897888e-05, 0.0059394799172878265, 0.011974681168794632, 0.018009886145591736, 0.02404508739709854, 0.030080288648605347, 0.03611548990011215, 0.04215069115161896, 0.04818589612841606, 0.05422109737992287, 0.06025629863142967, 0.06629150360822678, 0.07232670485973358, 0.07836190611124039, 0.08439710736274719, 0.090432308614254, 0.0964675098657608, 0.1025027185678482, 0.10853791236877441, 0.11457312107086182, 0.12060832232236862, 0.12664352357387543, 0.13267873227596283, 0.13871392607688904, 0.14474913477897644, 0.15078432857990265, 0.15681953728199005, 0.16285473108291626, 0.16888993978500366, 0.17492514848709106, 0.18096035718917847, 0.18699555099010468, 0.19303075969219208, 0.1990659534931183, 0.2051011621952057, 0.2111363708972931, 0.2171715646982193, 0.2232067584991455]}, "parameters/graph_9lstm.weight_ih_l0_reverse": {"_type": "histogram", "values": [2.0, 3.0, 1.0, 2.0, 2.0, 4.0, 8.0, 8.0, 11.0, 12.0, 15.0, 7.0, 8.0, 9.0, 11.0, 7.0, 7.0, 11.0, 16.0, 18.0, 13.0, 9.0, 13.0, 14.0, 22.0, 14.0, 16.0, 9.0, 24.0, 10.0, 12.0, 10.0, 8.0, 9.0, 7.0, 12.0, 17.0, 18.0, 13.0, 12.0, 21.0, 16.0, 12.0, 16.0, 17.0, 7.0, 5.0, 15.0, 5.0, 7.0, 10.0, 11.0, 10.0, 4.0, 4.0, 3.0, 0.0, 2.0, 2.0, 2.0, 2.0, 3.0, 1.0, 1.0], "bins": [-0.22506265342235565, -0.21716022491455078, -0.2092578113079071, -0.20135538280010223, -0.19345295429229736, -0.1855505406856537, -0.17764811217784882, -0.16974568367004395, -0.16184327006340027, -0.1539408415555954, -0.14603842794895172, -0.13813599944114685, -0.13023358583450317, -0.1223311573266983, -0.11442872881889343, -0.10652630776166916, -0.09862388670444489, -0.09072146564722061, -0.08281904458999634, -0.07491661608219147, -0.0670141950249672, -0.05911177396774292, -0.05120934918522835, -0.043306924402713776, -0.0354045033454895, -0.02750208042562008, -0.019599657505750656, -0.011697234585881233, -0.0037948116660118103, 0.004107609391212463, 0.012010034173727036, 0.019912458956241608, 0.027814894914627075, 0.03571731597185135, 0.04361974075436592, 0.05152216553688049, 0.05942458659410477, 0.06732700765132904, 0.07522943615913391, 0.08313185721635818, 0.09103427827358246, 0.09893669933080673, 0.106839120388031, 0.11474154889583588, 0.12264396995306015, 0.13054639101028442, 0.1384488195180893, 0.14635124802589417, 0.15425366163253784, 0.1621560901403427, 0.1700585037469864, 0.17796093225479126, 0.18586334586143494, 0.1937657743692398, 0.20166820287704468, 0.20957061648368835, 0.21747304499149323, 0.2253754734992981, 0.23327788710594177, 0.24118031561374664, 0.2490827441215515, 0.2569851577281952, 0.26488757133483887, 0.27279001474380493, 0.2806924283504486]}, "parameters/graph_9lstm.weight_hh_l0_reverse": {"_type": "histogram", "values": [1.0, 1.0, 2.0, 1.0, 4.0, 1.0, 4.0, 7.0, 9.0, 15.0, 27.0, 46.0, 41.0, 59.0, 51.0, 75.0, 77.0, 75.0, 82.0, 93.0, 114.0, 89.0, 107.0, 80.0, 93.0, 92.0, 80.0, 89.0, 94.0, 97.0, 80.0, 100.0, 86.0, 91.0, 88.0, 96.0, 89.0, 80.0, 105.0, 82.0, 91.0, 80.0, 107.0, 100.0, 97.0, 75.0, 84.0, 81.0, 74.0, 67.0, 59.0, 55.0, 40.0, 23.0, 24.0, 16.0, 4.0, 8.0, 4.0, 5.0, 2.0, 0.0, 0.0, 1.0], "bins": [-0.29891645908355713, -0.28957074880599976, -0.28022500872612, -0.2708792984485626, -0.26153358817100525, -0.2521878778934479, -0.24284213781356812, -0.23349642753601074, -0.22415071725845337, -0.2148049920797348, -0.20545928180217743, -0.19611355662345886, -0.1867678463459015, -0.17742212116718292, -0.16807639598846436, -0.15873068571090698, -0.14938496053218842, -0.14003923535346985, -0.13069352507591248, -0.12134779989719391, -0.11200208961963654, -0.10265636444091797, -0.09331064671278, -0.08396492898464203, -0.07461921125650406, -0.06527349352836609, -0.05592777580022812, -0.04658205434679985, -0.03723633661866188, -0.02789061889052391, -0.018544897437095642, -0.009199179708957672, 0.00014653801918029785, 0.009492256678640842, 0.018837975338101387, 0.028183694928884506, 0.037529412657022476, 0.046875130385160446, 0.056220851838588715, 0.06556656956672668, 0.07491228729486465, 0.08425800502300262, 0.0936037227511406, 0.10294944047927856, 0.11229516565799713, 0.1216408759355545, 0.13098660111427307, 0.14033231139183044, 0.149678036570549, 0.15902376174926758, 0.16836947202682495, 0.17771519720554352, 0.1870609074831009, 0.19640663266181946, 0.20575234293937683, 0.2150980681180954, 0.22444379329681396, 0.23378951847553253, 0.2431352287530899, 0.25248095393180847, 0.26182666420936584, 0.2711723744869232, 0.280518114566803, 0.28986382484436035, 0.2992095351219177]}, "parameters/graph_9lstm.bias_ih_l0_reverse": {"_type": "histogram", "values": [2.0, 1.0, 0.0, 2.0, 2.0, 2.0, 1.0, 3.0, 3.0, 1.0, 2.0, 2.0, 4.0, 1.0, 1.0, 2.0, 2.0, 3.0, 2.0, 3.0, 3.0, 1.0, 3.0, 2.0, 8.0, 1.0, 5.0, 3.0, 1.0, 3.0, 2.0, 3.0, 0.0, 2.0, 3.0, 2.0, 1.0, 3.0, 2.0, 1.0, 3.0, 1.0, 2.0, 2.0, 2.0, 1.0, 4.0, 2.0, 3.0, 1.0, 3.0, 1.0, 3.0, 2.0, 0.0, 0.0, 0.0, 1.0, 0.0, 0.0, 0.0, 0.0, 0.0, 1.0], "bins": [-0.19633004069328308, -0.1890597939491272, -0.1817895472049713, -0.17451930046081543, -0.16724905371665955, -0.15997880697250366, -0.15270857512950897, -0.1454383283853531, -0.1381680816411972, -0.13089783489704132, -0.12362758815288544, -0.11635734885931015, -0.10908710211515427, -0.10181685537099838, -0.0945466160774231, -0.08727636933326721, -0.08000612258911133, -0.07273587584495544, -0.06546562910079956, -0.058195389807224274, -0.05092514306306839, -0.043654896318912506, -0.03638465330004692, -0.029114410281181335, -0.02184416353702545, -0.014573918655514717, -0.0073036737740039825, -3.3428892493247986e-05, 0.007236815989017487, 0.01450706273317337, 0.021777305752038956, 0.02904754877090454, 0.036317795515060425, 0.04358804225921631, 0.050858285278081894, 0.05812852829694748, 0.06539877504110336, 0.07266902178525925, 0.07993926107883453, 0.08720950782299042, 0.0944797545671463, 0.10175000131130219, 0.10902024805545807, 0.11629048734903336, 0.12356073409318924, 0.13083097338676453, 0.1381012201309204, 0.1453714668750763, 0.15264171361923218, 0.15991196036338806, 0.16718220710754395, 0.17445245385169983, 0.1817227005958557, 0.1889929473400116, 0.1962631791830063, 0.20353342592716217, 0.21080367267131805, 0.21807391941547394, 0.22534416615962982, 0.2326144129037857, 0.2398846447467804, 0.24715489149093628, 0.25442513823509216, 0.26169538497924805, 0.26896563172340393]}, "parameters/graph_9lstm.bias_hh_l0_reverse": {"_type": "histogram", "values": [3.0, 0.0, 2.0, 3.0, 3.0, 3.0, 1.0, 1.0, 0.0, 2.0, 1.0, 0.0, 2.0, 0.0, 1.0, 4.0, 1.0, 1.0, 2.0, 0.0, 1.0, 6.0, 2.0, 3.0, 3.0, 4.0, 2.0, 4.0, 2.0, 0.0, 4.0, 3.0, 3.0, 0.0, 2.0, 1.0, 1.0, 4.0, 2.0, 2.0, 1.0, 0.0, 2.0, 2.0, 1.0, 2.0, 4.0, 3.0, 2.0, 3.0, 2.0, 4.0, 0.0, 1.0, 4.0, 0.0, 0.0, 0.0, 2.0, 4.0, 1.0, 0.0, 1.0, 2.0], "bins": [-0.1738416999578476, -0.1677791327238083, -0.16171656548976898, -0.15565398335456848, -0.14959141612052917, -0.14352884888648987, -0.13746628165245056, -0.13140371441841125, -0.12534114718437195, -0.11927857995033264, -0.11321600526571274, -0.10715343803167343, -0.10109086334705353, -0.09502829611301422, -0.08896572887897491, -0.08290316164493561, -0.07684057950973511, -0.0707780122756958, -0.0647154375910759, -0.05865287035703659, -0.052590299397706985, -0.04652772843837738, -0.040465161204338074, -0.03440259024500847, -0.028340019285678864, -0.02227744832634926, -0.016214879229664803, -0.010152310132980347, -0.004089739173650742, 0.0019728317856788635, 0.00803539901971817, 0.014097969979047775, 0.020160526037216187, 0.02622309699654579, 0.0322856679558754, 0.0383482351899147, 0.04441080614924431, 0.050473377108573914, 0.05653594434261322, 0.06259851157665253, 0.06866108626127243, 0.07472365349531174, 0.08078622817993164, 0.08684879541397095, 0.09291136264801025, 0.09897393733263016, 0.10503650456666946, 0.11109907925128937, 0.11716164648532867, 0.12322421371936798, 0.1292867809534073, 0.1353493630886078, 0.1414119303226471, 0.1474744975566864, 0.1535370647907257, 0.15959963202476501, 0.16566219925880432, 0.17172476649284363, 0.17778733372688293, 0.18384990096092224, 0.18991248309612274, 0.19597505033016205, 0.20203761756420135, 0.20810018479824066, 0.21416276693344116]}, "parameters/graph_9linear.weight": {"_type": "histogram", "values": [1.0, 1.0, 1.0, 0.0, 1.0, 0.0, 3.0, 1.0, 0.0, 0.0, 0.0, 0.0, 0.0, 3.0, 1.0, 4.0, 1.0, 0.0, 2.0, 1.0, 1.0, 0.0, 1.0, 1.0, 2.0, 1.0, 1.0, 1.0, 1.0, 0.0, 0.0, 1.0, 1.0, 1.0, 0.0, 1.0, 2.0, 0.0, 0.0, 1.0, 1.0, 2.0, 2.0, 3.0, 3.0, 0.0, 2.0, 0.0, 0.0, 0.0, 0.0, 2.0, 1.0, 1.0, 0.0, 0.0, 1.0, 1.0, 1.0, 0.0, 1.0, 1.0, 1.0, 1.0], "bins": [-0.16312319040298462, -0.15817011892795563, -0.15321704745292664, -0.14826396107673645, -0.14331088960170746, -0.13835781812667847, -0.13340474665164948, -0.12845167517662048, -0.12349860370159149, -0.1185455322265625, -0.11359245330095291, -0.10863938182592392, -0.10368631035089493, -0.09873323142528534, -0.09378015995025635, -0.08882708847522736, -0.08387400954961777, -0.07892093807458878, -0.07396785914897919, -0.0690147876739502, -0.0640617161989212, -0.05910864099860191, -0.05415556579828262, -0.04920249432325363, -0.04424941912293434, -0.03929634392261505, -0.03434327244758606, -0.02939019724726677, -0.02443712390959263, -0.019484050571918488, -0.014530975371599197, -0.009577903896570206, -0.0046248286962509155, 0.0003282451070845127, 0.005281318910419941, 0.010234393179416656, 0.015187466517090797, 0.02014053985476494, 0.02509361505508423, 0.03004668653011322, 0.03499976173043251, 0.0399528369307518, 0.04490590840578079, 0.04985898360610008, 0.05481205880641937, 0.059765130281448364, 0.06471820175647736, 0.06967127323150635, 0.07462435215711594, 0.07957742363214493, 0.08453050255775452, 0.08948357403278351, 0.0944366455078125, 0.09938971698284149, 0.10434279590845108, 0.10929586738348007, 0.11424894630908966, 0.11920201778411865, 0.12415509670972824, 0.12910816073417664, 0.13406124711036682, 0.1390143185853958, 0.1439673900604248, 0.1489204615354538, 0.1538735330104828]}, "parameters/graph_9linear.bias": {"_type": "histogram", "values": [0.0, 0.0, 0.0, 0.0, 0.0, 0.0, 0.0, 0.0, 0.0, 0.0, 0.0, 0.0, 0.0, 0.0, 0.0, 0.0, 0.0, 0.0, 0.0, 0.0, 0.0, 0.0, 0.0, 0.0, 0.0, 0.0, 0.0, 0.0, 0.0, 0.0, 0.0, 0.0, 1.0, 0.0, 0.0, 0.0, 0.0, 0.0, 0.0, 0.0, 0.0, 0.0, 0.0, 0.0, 0.0, 0.0, 0.0, 0.0, 0.0, 0.0, 0.0, 0.0, 0.0, 0.0, 0.0, 0.0, 0.0, 0.0, 0.0, 0.0, 0.0, 0.0, 0.0, 0.0], "bins": [-0.11431428790092468, -0.11431428790092468, -0.11431428790092468, -0.11431428790092468, -0.11431428790092468, -0.11431428790092468, -0.11431428790092468, -0.11431428790092468, -0.11431428790092468, -0.11431428790092468, -0.11431428790092468, -0.11431428790092468, -0.11431428790092468, -0.11431428790092468, -0.11431428790092468, -0.11431428790092468, -0.11431428790092468, -0.11431428790092468, -0.11431428790092468, -0.11431428790092468, -0.11431428790092468, -0.11431428790092468, -0.11431428790092468, -0.11431428790092468, -0.11431428790092468, -0.11431428790092468, -0.11431428790092468, -0.11431428790092468, -0.11431428790092468, -0.11431428790092468, -0.11431428790092468, -0.11431428790092468, -0.11431428790092468, -0.11431428790092468, -0.11431428790092468, -0.11431428790092468, -0.11431428790092468, -0.11431428790092468, -0.11431428790092468, -0.11431428790092468, -0.11431428790092468, -0.11431428790092468, -0.11431428790092468, -0.11431428790092468, -0.11431428790092468, -0.11431428790092468, -0.11431428790092468, -0.11431428790092468, -0.11431428790092468, -0.11431428790092468, -0.11431428790092468, -0.11431428790092468, -0.11431428790092468, -0.11431428790092468, -0.11431428790092468, -0.11431428790092468, -0.11431428790092468, -0.11431428790092468, -0.11431428790092468, -0.11431428790092468, -0.11431428790092468, -0.11431428790092468, -0.11431428790092468, -0.11431428790092468, -0.11431428790092468]}, "gradients/graph_9linear.bias": {"_type": "histogram", "values": [0.0, 0.0, 0.0, 0.0, 0.0, 0.0, 0.0, 0.0, 0.0, 0.0, 0.0, 0.0, 0.0, 0.0, 0.0, 0.0, 0.0, 0.0, 0.0, 0.0, 0.0, 0.0, 0.0, 0.0, 0.0, 0.0, 0.0, 0.0, 0.0, 0.0, 0.0, 0.0, 1.0, 0.0, 0.0, 0.0, 0.0, 0.0, 0.0, 0.0, 0.0, 0.0, 0.0, 0.0, 0.0, 0.0, 0.0, 0.0, 0.0, 0.0, 0.0, 0.0, 0.0, 0.0, 0.0, 0.0, 0.0, 0.0, 0.0, 0.0, 0.0, 0.0, 0.0, 0.0], "bins": [0.10969004034996033, 0.10969004034996033, 0.10969004034996033, 0.10969004034996033, 0.10969004034996033, 0.10969004034996033, 0.10969004034996033, 0.10969004034996033, 0.10969004034996033, 0.10969004034996033, 0.10969004034996033, 0.10969004034996033, 0.10969004034996033, 0.10969004034996033, 0.10969004034996033, 0.10969004034996033, 0.10969004034996033, 0.10969004034996033, 0.10969004034996033, 0.10969004034996033, 0.10969004034996033, 0.10969004034996033, 0.10969004034996033, 0.10969004034996033, 0.10969004034996033, 0.10969004034996033, 0.10969004034996033, 0.10969004034996033, 0.10969004034996033, 0.10969004034996033, 0.10969004034996033, 0.10969004034996033, 0.10969004034996033, 0.10969004034996033, 0.10969004034996033, 0.10969004034996033, 0.10969004034996033, 0.10969004034996033, 0.10969004034996033, 0.10969004034996033, 0.10969004034996033, 0.10969004034996033, 0.10969004034996033, 0.10969004034996033, 0.10969004034996033, 0.10969004034996033, 0.10969004034996033, 0.10969004034996033, 0.10969004034996033, 0.10969004034996033, 0.10969004034996033, 0.10969004034996033, 0.10969004034996033, 0.10969004034996033, 0.10969004034996033, 0.10969004034996033, 0.10969004034996033, 0.10969004034996033, 0.10969004034996033, 0.10969004034996033, 0.10969004034996033, 0.10969004034996033, 0.10969004034996033, 0.10969004034996033, 0.10969004034996033]}, "gradients/graph_9linear.weight": {"_type": "histogram", "values": [1.0, 0.0, 0.0, 0.0, 0.0, 2.0, 1.0, 2.0, 1.0, 2.0, 1.0, 0.0, 1.0, 1.0, 0.0, 1.0, 1.0, 1.0, 2.0, 1.0, 2.0, 1.0, 1.0, 1.0, 1.0, 1.0, 2.0, 2.0, 2.0, 1.0, 1.0, 2.0, 3.0, 2.0, 0.0, 2.0, 1.0, 2.0, 0.0, 2.0, 1.0, 2.0, 2.0, 1.0, 1.0, 0.0, 0.0, 0.0, 1.0, 2.0, 0.0, 0.0, 1.0, 1.0, 0.0, 0.0, 0.0, 0.0, 0.0, 0.0, 0.0, 0.0, 0.0, 1.0], "bins": [-0.036378782242536545, -0.0351775623857975, -0.033976346254348755, -0.03277512639760971, -0.031573906540870667, -0.03037269040942192, -0.029171470552682877, -0.02797025255858898, -0.026769034564495087, -0.02556781657040119, -0.024366596713662148, -0.023165378719568253, -0.021964160725474358, -0.020762942731380463, -0.01956172287464142, -0.018360504880547523, -0.01715928502380848, -0.015958067029714584, -0.014756848104298115, -0.013555629178881645, -0.01235441118478775, -0.01115319225937128, -0.009951973333954811, -0.008750755339860916, -0.0075495364144444466, -0.006348317954689264, -0.005147099494934082, -0.0039458805695176125, -0.00274466210976243, -0.001543443650007248, -0.00034222472459077835, 0.0008589932695031166, 0.002060212194919586, 0.0032614306546747684, 0.004462649114429951, 0.00566386803984642, 0.0068650864996016026, 0.008066304959356785, 0.009267523884773254, 0.01046874187886715, 0.011669960804283619, 0.012871179729700089, 0.014072397723793983, 0.015273616649210453, 0.016474835574626923, 0.017676053568720818, 0.018877271562814713, 0.020078491419553757, 0.02127970941364765, 0.022480927407741547, 0.02368214726448059, 0.024883365258574486, 0.02608458325266838, 0.027285803109407425, 0.02848702110350132, 0.029688239097595215, 0.03088945895433426, 0.0320906788110733, 0.03329189494252205, 0.03449311479926109, 0.03569433465600014, 0.03689555078744888, 0.03809677064418793, 0.03929799050092697, 0.04049920663237572]}, "gradients/graph_9lstm.weight_ih_l0": {"_type": "histogram", "values": [1.0, 1.0, 0.0, 0.0, 0.0, 0.0, 1.0, 0.0, 1.0, 0.0, 1.0, 1.0, 0.0, 0.0, 0.0, 2.0, 0.0, 0.0, 2.0, 2.0, 0.0, 0.0, 0.0, 5.0, 5.0, 2.0, 8.0, 6.0, 5.0, 8.0, 11.0, 15.0, 53.0, 367.0, 56.0, 14.0, 9.0, 3.0, 3.0, 5.0, 2.0, 1.0, 4.0, 0.0, 1.0, 1.0, 0.0, 0.0, 0.0, 0.0, 0.0, 0.0, 0.0, 2.0, 0.0, 0.0, 0.0, 0.0, 0.0, 0.0, 0.0, 0.0, 0.0, 2.0], "bins": [-0.026187658309936523, -0.02539539895951748, -0.024603137746453285, -0.02381087839603424, -0.023018617182970047, -0.022226357832551003, -0.021434098482131958, -0.020641837269067764, -0.01984957791864872, -0.019057318568229675, -0.01826505735516548, -0.017472798004746437, -0.016680538654327393, -0.0158882774412632, -0.015096018090844154, -0.014303757809102535, -0.013511497527360916, -0.012719237245619297, -0.011926976963877678, -0.011134717613458633, -0.010342457331717014, -0.009550197049975395, -0.00875793769955635, -0.007965677417814732, -0.0071734171360731125, -0.006381156854331493, -0.005588897038251162, -0.00479663722217083, -0.004004376940429211, -0.0032121166586875916, -0.0024198568426072598, -0.001627597026526928, -0.0008353367447853088, -4.307669587433338e-05, 0.0007491833530366421, 0.0015414434019476175, 0.002333703450858593, 0.003125963732600212, 0.003918223548680544, 0.004710483364760876, 0.005502743646502495, 0.006295003928244114, 0.007087263744324446, 0.007879523560404778, 0.008671783842146397, 0.009464044123888016, 0.01025630347430706, 0.01104856375604868, 0.011840824037790298, 0.012633084319531918, 0.013425344601273537, 0.014217603951692581, 0.0150098642334342, 0.01580212451517582, 0.016594383865594864, 0.017386645078659058, 0.018178904429078102, 0.018971163779497147, 0.01976342499256134, 0.020555684342980385, 0.02134794369339943, 0.022140204906463623, 0.022932464256882668, 0.023724723607301712, 0.024516984820365906]}, "gradients/graph_9lstm.bias_ih_l0": {"_type": "histogram", "values": [1.0, 0.0, 0.0, 0.0, 0.0, 0.0, 1.0, 0.0, 0.0, 0.0, 0.0, 0.0, 0.0, 0.0, 0.0, 0.0, 0.0, 0.0, 1.0, 1.0, 0.0, 0.0, 0.0, 2.0, 1.0, 1.0, 3.0, 0.0, 1.0, 2.0, 2.0, 1.0, 13.0, 64.0, 14.0, 3.0, 2.0, 1.0, 2.0, 0.0, 0.0, 0.0, 2.0, 0.0, 0.0, 1.0, 0.0, 0.0, 0.0, 0.0, 0.0, 0.0, 0.0, 0.0, 0.0, 0.0, 0.0, 0.0, 0.0, 0.0, 0.0, 0.0, 0.0, 1.0], "bins": [-0.03367619216442108, -0.032654885202646255, -0.03163357824087143, -0.030612271279096603, -0.029590962454676628, -0.028569655492901802, -0.027548348531126976, -0.02652704156935215, -0.025505732744932175, -0.02448442578315735, -0.023463118821382523, -0.022441811859607697, -0.02142050303518772, -0.020399196073412895, -0.01937788911163807, -0.018356582149863243, -0.017335275188088417, -0.01631396822631359, -0.01529266033321619, -0.014271353371441364, -0.013250045478343964, -0.012228738516569138, -0.011207431554794312, -0.010186124593019485, -0.009164816699922085, -0.008143509738147259, -0.007122201845049858, -0.006100894883275032, -0.005079587455838919, -0.004058280028402805, -0.0030369730666279793, -0.002015665639191866, -0.0009943582117557526, 2.6949099265038967e-05, 0.0010482564102858305, 0.0020695636048913, 0.0030908710323274136, 0.004112178459763527, 0.005133485421538353, 0.006154792848974466, 0.00717610027641058, 0.008197407238185406, 0.009218715131282806, 0.010240022093057632, 0.011261329054832458, 0.01228263694792986, 0.013303943909704685, 0.014325251802802086, 0.015346558764576912, 0.016367865726351738, 0.017389172688126564, 0.01841048151254654, 0.019431788474321365, 0.02045309543609619, 0.021474402397871017, 0.022495709359645844, 0.02351701632142067, 0.024538323283195496, 0.02555963024497032, 0.026580937206745148, 0.027602246031165123, 0.02862355299293995, 0.029644859954714775, 0.0306661669164896, 0.031687475740909576]}, "gradients/graph_9lstm.bias_ih_l0_reverse": {"_type": "histogram", "values": [1.0, 0.0, 0.0, 0.0, 0.0, 0.0, 0.0, 0.0, 0.0, 1.0, 0.0, 0.0, 0.0, 1.0, 0.0, 0.0, 0.0, 0.0, 1.0, 0.0, 3.0, 2.0, 0.0, 0.0, 1.0, 2.0, 1.0, 0.0, 29.0, 39.0, 17.0, 10.0, 0.0, 2.0, 0.0, 1.0, 1.0, 0.0, 0.0, 2.0, 1.0, 0.0, 1.0, 0.0, 1.0, 1.0, 0.0, 0.0, 1.0, 0.0, 0.0, 0.0, 0.0, 0.0, 0.0, 0.0, 0.0, 0.0, 0.0, 0.0, 0.0, 0.0, 0.0, 1.0], "bins": [-0.017733804881572723, -0.017120501026511192, -0.016507195308804512, -0.01589389145374298, -0.0152805857360363, -0.01466728188097477, -0.014053977094590664, -0.013440672308206558, -0.012827367521822453, -0.012214062735438347, -0.011600757949054241, -0.010987453162670135, -0.010374149307608604, -0.009760843589901924, -0.009147539734840393, -0.008534234948456287, -0.007920930162072182, -0.007307625375688076, -0.00669432058930397, -0.006081016268581152, -0.005467711482197046, -0.004854406695812941, -0.004241102375090122, -0.0036277975887060165, -0.003014492802321911, -0.002401188015937805, -0.0017878834623843431, -0.0011745787924155593, -0.0005612741224467754, 5.2030663937330246e-05, 0.0006653352174907923, 0.0012786397710442543, 0.00189194455742836, 0.0025052493438124657, 0.0031185538973659277, 0.0037318584509193897, 0.004345163237303495, 0.004958468023687601, 0.0055717723444104195, 0.006185077130794525, 0.006798381917178631, 0.0074116867035627365, 0.008024991489946842, 0.008638296276330948, 0.009251600131392479, 0.00986490584909916, 0.01047820970416069, 0.011091514490544796, 0.011704819276928902, 0.012318124063313007, 0.012931428849697113, 0.013544733636081219, 0.014158038422465324, 0.014771342277526855, 0.015384647063910961, 0.015997951850295067, 0.016611255705356598, 0.01722455956041813, 0.01783786527812481, 0.01845116913318634, 0.01906447485089302, 0.01967777870595455, 0.020291084423661232, 0.020904388278722763, 0.021517693996429443]}, "gradients/graph_9lstm.weight_hh_l0_reverse": {"_type": "histogram", "values": [1.0, 1.0, 1.0, 0.0, 1.0, 0.0, 0.0, 0.0, 0.0, 0.0, 0.0, 1.0, 2.0, 2.0, 0.0, 3.0, 3.0, 1.0, 4.0, 8.0, 7.0, 11.0, 8.0, 15.0, 13.0, 24.0, 33.0, 46.0, 76.0, 202.0, 1816.0, 951.0, 132.0, 60.0, 39.0, 36.0, 24.0, 19.0, 14.0, 9.0, 6.0, 6.0, 2.0, 6.0, 2.0, 2.0, 1.0, 3.0, 4.0, 0.0, 0.0, 1.0, 0.0, 0.0, 3.0, 0.0, 0.0, 0.0, 0.0, 0.0, 0.0, 0.0, 0.0, 1.0], "bins": [-0.005003129132091999, -0.00484126340597868, -0.00467939767986536, -0.004517531953752041, -0.0043556662276387215, -0.004193800501525402, -0.004031934775412083, -0.003870069282129407, -0.0037082035560160875, -0.003546337829902768, -0.0033844721037894487, -0.0032226063776761293, -0.0030607408843934536, -0.002898875158280134, -0.002737009432166815, -0.0025751437060534954, -0.002413277979940176, -0.0022514122538268566, -0.002089546527713537, -0.0019276809180155396, -0.0017658151919022202, -0.0016039494657889009, -0.0014420838560909033, -0.0012802181299775839, -0.0011183524038642645, -0.0009564866777509451, -0.0007946210098452866, -0.0006327553419396281, -0.00047088961582630873, -0.00030902388971298933, -0.00014715822180733085, 1.4707446098327637e-05, 0.00017657363787293434, 0.0003384393348824233, 0.0005003050318919122, 0.0006621706997975707, 0.0008240364259108901, 0.0009859021520242095, 0.001147767761722207, 0.0013096334878355265, 0.0014714992139488459, 0.0016333649400621653, 0.0017952306661754847, 0.001957096392288804, 0.00211896188557148, 0.002280827611684799, 0.0024426933377981186, 0.002604559063911438, 0.0027664247900247574, 0.0029282905161380768, 0.003090156242251396, 0.0032520219683647156, 0.003413887694478035, 0.0035757534205913544, 0.00373761891387403, 0.0038994846399873495, 0.0040613505989313126, 0.004223216325044632, 0.004385082051157951, 0.004546947777271271, 0.00470881350338459, 0.0048706792294979095, 0.005032544955611229, 0.005194410681724548, 0.00535627594217658]}, "gradients/graph_9lstm.bias_hh_l0_reverse": {"_type": "histogram", "values": [1.0, 0.0, 0.0, 0.0, 0.0, 0.0, 0.0, 0.0, 0.0, 1.0, 0.0, 0.0, 0.0, 1.0, 0.0, 0.0, 0.0, 0.0, 1.0, 0.0, 3.0, 2.0, 0.0, 0.0, 1.0, 2.0, 1.0, 0.0, 29.0, 39.0, 17.0, 10.0, 0.0, 2.0, 0.0, 1.0, 1.0, 0.0, 0.0, 2.0, 1.0, 0.0, 1.0, 0.0, 1.0, 1.0, 0.0, 0.0, 1.0, 0.0, 0.0, 0.0, 0.0, 0.0, 0.0, 0.0, 0.0, 0.0, 0.0, 0.0, 0.0, 0.0, 0.0, 1.0], "bins": [-0.017733804881572723, -0.017120501026511192, -0.016507195308804512, -0.01589389145374298, -0.0152805857360363, -0.01466728188097477, -0.014053977094590664, -0.013440672308206558, -0.012827367521822453, -0.012214062735438347, -0.011600757949054241, -0.010987453162670135, -0.010374149307608604, -0.009760843589901924, -0.009147539734840393, -0.008534234948456287, -0.007920930162072182, -0.007307625375688076, -0.00669432058930397, -0.006081016268581152, -0.005467711482197046, -0.004854406695812941, -0.004241102375090122, -0.0036277975887060165, -0.003014492802321911, -0.002401188015937805, -0.0017878834623843431, -0.0011745787924155593, -0.0005612741224467754, 5.2030663937330246e-05, 0.0006653352174907923, 0.0012786397710442543, 0.00189194455742836, 0.0025052493438124657, 0.0031185538973659277, 0.0037318584509193897, 0.004345163237303495, 0.004958468023687601, 0.0055717723444104195, 0.006185077130794525, 0.006798381917178631, 0.0074116867035627365, 0.008024991489946842, 0.008638296276330948, 0.009251600131392479, 0.00986490584909916, 0.01047820970416069, 0.011091514490544796, 0.011704819276928902, 0.012318124063313007, 0.012931428849697113, 0.013544733636081219, 0.014158038422465324, 0.014771342277526855, 0.015384647063910961, 0.015997951850295067, 0.016611255705356598, 0.01722455956041813, 0.01783786527812481, 0.01845116913318634, 0.01906447485089302, 0.01967777870595455, 0.020291084423661232, 0.020904388278722763, 0.021517693996429443]}, "gradients/graph_9lstm.weight_ih_l0_reverse": {"_type": "histogram", "values": [1.0, 0.0, 0.0, 1.0, 0.0, 0.0, 0.0, 0.0, 0.0, 1.0, 1.0, 1.0, 0.0, 1.0, 0.0, 1.0, 1.0, 1.0, 0.0, 2.0, 5.0, 5.0, 4.0, 5.0, 6.0, 7.0, 9.0, 9.0, 120.0, 281.0, 64.0, 24.0, 5.0, 10.0, 3.0, 4.0, 4.0, 2.0, 4.0, 3.0, 2.0, 2.0, 3.0, 1.0, 1.0, 1.0, 1.0, 0.0, 1.0, 0.0, 0.0, 1.0, 0.0, 0.0, 0.0, 0.0, 0.0, 0.0, 0.0, 1.0, 0.0, 0.0, 0.0, 1.0], "bins": [-0.013828229159116745, -0.013351661153137684, -0.012875092215836048, -0.012398524209856987, -0.011921955272555351, -0.01144538726657629, -0.010968819260597229, -0.010492250323295593, -0.010015682317316532, -0.009539114311337471, -0.009062545374035835, -0.008585977368056774, -0.008109408430755138, -0.007632840424776077, -0.007156271953135729, -0.00667970348149538, -0.006203135009855032, -0.0057265665382146835, -0.005249998066574335, -0.004773429594933987, -0.0042968615889549255, -0.003820293117314577, -0.0033437246456742287, -0.002867156406864524, -0.0023905879352241755, -0.0019140195799991488, -0.0014374512247741222, -0.0009608827531337738, -0.0004843143979087472, -7.746042683720589e-06, 0.00046882242895662785, 0.0009453906677663326, 0.001421959139406681, 0.0018985274946317077, 0.0023750958498567343, 0.0028516643214970827, 0.0033282325603067875, 0.003804801031947136, 0.004281369503587484, 0.004757937975227833, 0.005234505981206894, 0.005711074452847242, 0.006187642924487591, 0.006664210930466652, 0.007140779402107, 0.007617347873747349, 0.00809391587972641, 0.008570484817028046, 0.009047053754329681, 0.009523621760308743, 0.010000190697610378, 0.01047675870358944, 0.010953327640891075, 0.011429895646870136, 0.011906463652849197, 0.012383032590150833, 0.012859600596129894, 0.013336168602108955, 0.013812737539410591, 0.014289305545389652, 0.014765874482691288, 0.015242442488670349, 0.015719011425971985, 0.01619557850062847, 0.016672147437930107]}, "gradients/graph_9lstm.weight_hh_l0": {"_type": "histogram", "values": [1.0, 0.0, 0.0, 0.0, 0.0, 2.0, 0.0, 0.0, 0.0, 2.0, 2.0, 4.0, 2.0, 1.0, 1.0, 2.0, 2.0, 2.0, 1.0, 5.0, 2.0, 2.0, 4.0, 7.0, 7.0, 12.0, 18.0, 26.0, 32.0, 45.0, 80.0, 326.0, 2170.0, 519.0, 93.0, 53.0, 39.0, 35.0, 24.0, 19.0, 12.0, 7.0, 4.0, 3.0, 2.0, 1.0, 3.0, 2.0, 2.0, 3.0, 3.0, 3.0, 1.0, 4.0, 1.0, 0.0, 3.0, 1.0, 1.0, 2.0, 0.0, 1.0, 0.0, 1.0], "bins": [-0.012521376833319664, -0.01213817112147808, -0.011754965409636497, -0.011371759697794914, -0.010988554917275906, -0.010605349205434322, -0.010222143493592739, -0.009838937781751156, -0.009455732069909573, -0.00907252635806799, -0.008689320646226406, -0.008306115865707397, -0.007922910153865814, -0.007539704442024231, -0.007156498730182648, -0.0067732930183410645, -0.0063900877721607685, -0.006006882060319185, -0.005623676814138889, -0.005240471102297306, -0.004857265390455723, -0.0044740596786141396, -0.004090854432433844, -0.0037076487205922604, -0.0033244432415813208, -0.002941237762570381, -0.002558032050728798, -0.0021748265717178583, -0.0017916209762915969, -0.0014084153808653355, -0.0010252099018543959, -0.0006420041900128126, -0.000258798711001873, 0.00012440685532055795, 0.0005076124216429889, 0.0008908179588615894, 0.0012740235542878509, 0.0016572291497141123, 0.002040434628725052, 0.002423640340566635, 0.0028068458195775747, 0.0031900512985885143, 0.0035732570104300976, 0.0039564622566103935, 0.004339667968451977, 0.00472287368029356, 0.005106079392135143, 0.0054892851039767265, 0.0058724903501570225, 0.006255696061998606, 0.006638901308178902, 0.007022107020020485, 0.007405312731862068, 0.007788518443703651, 0.008171724155545235, 0.008554929867386818, 0.008938134647905827, 0.00932134035974741, 0.009704546071588993, 0.010087750852108002, 0.010470956563949585, 0.010854162275791168, 0.011237367987632751, 0.011620573699474335, 0.012003779411315918]}, "gradients/graph_9lstm.bias_hh_l0": {"_type": "histogram", "values": [1.0, 0.0, 0.0, 0.0, 0.0, 0.0, 1.0, 0.0, 0.0, 0.0, 0.0, 0.0, 0.0, 0.0, 0.0, 0.0, 0.0, 0.0, 1.0, 1.0, 0.0, 0.0, 0.0, 2.0, 1.0, 1.0, 3.0, 0.0, 1.0, 2.0, 2.0, 1.0, 13.0, 64.0, 14.0, 3.0, 2.0, 1.0, 2.0, 0.0, 0.0, 0.0, 2.0, 0.0, 0.0, 1.0, 0.0, 0.0, 0.0, 0.0, 0.0, 0.0, 0.0, 0.0, 0.0, 0.0, 0.0, 0.0, 0.0, 0.0, 0.0, 0.0, 0.0, 1.0], "bins": [-0.03367619216442108, -0.032654885202646255, -0.03163357824087143, -0.030612271279096603, -0.029590962454676628, -0.028569655492901802, -0.027548348531126976, -0.02652704156935215, -0.025505732744932175, -0.02448442578315735, -0.023463118821382523, -0.022441811859607697, -0.02142050303518772, -0.020399196073412895, -0.01937788911163807, -0.018356582149863243, -0.017335275188088417, -0.01631396822631359, -0.01529266033321619, -0.014271353371441364, -0.013250045478343964, -0.012228738516569138, -0.011207431554794312, -0.010186124593019485, -0.009164816699922085, -0.008143509738147259, -0.007122201845049858, -0.006100894883275032, -0.005079587455838919, -0.004058280028402805, -0.0030369730666279793, -0.002015665639191866, -0.0009943582117557526, 2.6949099265038967e-05, 0.0010482564102858305, 0.0020695636048913, 0.0030908710323274136, 0.004112178459763527, 0.005133485421538353, 0.006154792848974466, 0.00717610027641058, 0.008197407238185406, 0.009218715131282806, 0.010240022093057632, 0.011261329054832458, 0.01228263694792986, 0.013303943909704685, 0.014325251802802086, 0.015346558764576912, 0.016367865726351738, 0.017389172688126564, 0.01841048151254654, 0.019431788474321365, 0.02045309543609619, 0.021474402397871017, 0.022495709359645844, 0.02351701632142067, 0.024538323283195496, 0.02555963024497032, 0.026580937206745148, 0.027602246031165123, 0.02862355299293995, 0.029644859954714775, 0.0306661669164896, 0.031687475740909576]}, "train_loss": 0.024222170164727646, "test_loss": 0.027176680415868758, "_step": 4, "_wandb": {"runtime": 5}}