{"parameters/graph_3lstm.weight_ih_l0": {"_type": "histogram", "values": [1.0, 0.0, 1.0, 0.0, 0.0, 0.0, 0.0, 0.0, 0.0, 0.0, 0.0, 0.0, 1.0, 0.0, 0.0, 0.0, 1.0, 3.0, 1.0, 3.0, 2.0, 5.0, 4.0, 8.0, 11.0, 5.0, 15.0, 21.0, 17.0, 27.0, 20.0, 22.0, 20.0, 28.0, 21.0, 24.0, 22.0, 29.0, 20.0, 32.0, 30.0, 23.0, 26.0, 25.0, 22.0, 21.0, 21.0, 11.0, 10.0, 8.0, 7.0, 7.0, 7.0, 5.0, 4.0, 2.0, 2.0, 1.0, 0.0, 2.0, 1.0, 0.0, 0.0, 1.0], "bins": [-0.6096116304397583, -0.5931941270828247, -0.5767766833305359, -0.5603591799736023, -0.5439416766166687, -0.5275241732597351, -0.5111067295074463, -0.4946892261505127, -0.4782717227935791, -0.4618542492389679, -0.4454367458820343, -0.4290192723274231, -0.4126017689704895, -0.3961842954158783, -0.3797668218612671, -0.3633493185043335, -0.3469318449497223, -0.3305143713951111, -0.3140968680381775, -0.2976793944835663, -0.2812618911266327, -0.2648444175720215, -0.24842692911624908, -0.23200944066047668, -0.21559195220470428, -0.19917446374893188, -0.18275697529315948, -0.16633948683738708, -0.14992201328277588, -0.13350450992584229, -0.11708703637123108, -0.10066954791545868, -0.08425205945968628, -0.06783457100391388, -0.05141708627343178, -0.034999601542949677, -0.018582113087177277, -0.0021646246314048767, 0.014252856373786926, 0.030670344829559326, 0.047087833285331726, 0.06350532174110413, 0.07992281019687653, 0.09634029120206833, 0.11275777965784073, 0.12917527556419373, 0.14559274911880493, 0.16201023757457733, 0.17842772603034973, 0.19484521448612213, 0.21126270294189453, 0.22768017649650574, 0.24409767985343933, 0.26051515340805054, 0.27693265676498413, 0.29335013031959534, 0.30976760387420654, 0.32618507742881775, 0.34260258078575134, 0.35902005434036255, 0.37543755769729614, 0.39185503125190735, 0.40827250480651855, 0.42469000816345215, 0.44110751152038574]}, "_timestamp": 1650850041, "_runtime": 40, "parameters/graph_3lstm.weight_hh_l0": {"_type": "histogram", "values": [1.0, 0.0, 0.0, 0.0, 0.0, 0.0, 0.0, 0.0, 1.0, 1.0, 1.0, 0.0, 1.0, 2.0, 2.0, 2.0, 4.0, 5.0, 1.0, 5.0, 8.0, 15.0, 17.0, 19.0, 24.0, 55.0, 78.0, 93.0, 155.0, 190.0, 192.0, 193.0, 237.0, 210.0, 237.0, 254.0, 234.0, 221.0, 206.0, 206.0, 176.0, 151.0, 112.0, 75.0, 53.0, 44.0, 38.0, 23.0, 14.0, 11.0, 3.0, 7.0, 7.0, 7.0, 1.0, 1.0, 2.0, 0.0, 1.0, 0.0, 0.0, 2.0, 1.0, 1.0], "bins": [-0.9411304593086243, -0.9141407012939453, -0.8871509432792664, -0.8601611852645874, -0.8331713676452637, -0.8061816096305847, -0.7791918516159058, -0.7522020936012268, -0.7252123355865479, -0.6982225775718689, -0.6712328195571899, -0.6442430019378662, -0.6172532439231873, -0.5902634859085083, -0.5632737278938293, -0.5362839698791504, -0.5092941522598267, -0.4823043942451477, -0.45531460642814636, -0.4283248484134674, -0.40133506059646606, -0.3743453025817871, -0.34735554456710815, -0.3203657865524292, -0.29337599873542786, -0.2663862407207489, -0.23939645290374756, -0.2124066948890686, -0.18541692197322845, -0.1584271490573883, -0.13143739104270935, -0.1044476181268692, -0.07745790481567383, -0.05046813562512398, -0.023478366434574127, 0.003511399030685425, 0.030501171946525574, 0.05749094486236572, 0.08448070287704468, 0.11147047579288483, 0.13846024870872498, 0.16545002162456512, 0.19243979454040527, 0.21942955255508423, 0.24641932547092438, 0.2734090983867645, 0.3003988564014435, 0.3273886442184448, 0.3543784022331238, 0.38136816024780273, 0.4083579480648041, 0.43534770607948303, 0.4623374938964844, 0.48932725191116333, 0.5163170099258423, 0.5433067679405212, 0.5702965259552002, 0.5972862839698792, 0.6242760419845581, 0.6512658596038818, 0.6782556176185608, 0.7052453756332397, 0.7322351336479187, 0.7592248916625977, 0.7862147092819214]}, "parameters/graph_3lstm.bias_ih_l0": {"_type": "histogram", "values": [1.0, 0.0, 0.0, 0.0, 0.0, 0.0, 1.0, 1.0, 0.0, 1.0, 1.0, 0.0, 3.0, 3.0, 4.0, 1.0, 2.0, 0.0, 3.0, 3.0, 2.0, 5.0, 4.0, 0.0, 4.0, 2.0, 2.0, 0.0, 5.0, 8.0, 1.0, 3.0, 5.0, 1.0, 3.0, 3.0, 1.0, 4.0, 3.0, 1.0, 4.0, 2.0, 5.0, 3.0, 1.0, 2.0, 3.0, 5.0, 2.0, 1.0, 0.0, 1.0, 1.0, 1.0, 0.0, 0.0, 1.0, 0.0, 3.0, 0.0, 1.0, 0.0, 1.0, 2.0], "bins": [-0.23627686500549316, -0.22812817990779877, -0.21997949481010437, -0.21183080971240997, -0.20368212461471558, -0.19553343951702118, -0.18738475441932678, -0.17923606932163239, -0.171087384223938, -0.1629386991262436, -0.1547900140285492, -0.1466413289308548, -0.1384926438331604, -0.130343958735466, -0.1221952736377716, -0.11404658854007721, -0.10589790344238281, -0.09774921834468842, -0.08960053324699402, -0.08145184814929962, -0.07330316305160522, -0.06515447795391083, -0.05700579285621643, -0.048857107758522034, -0.04070842266082764, -0.03255973756313324, -0.024411052465438843, -0.016262367367744446, -0.008113682270050049, 3.5002827644348145e-05, 0.008183687925338745, 0.016332373023033142, 0.024481087923049927, 0.032629773020744324, 0.04077845811843872, 0.04892714321613312, 0.057075828313827515, 0.06522451341152191, 0.07337319850921631, 0.0815218836069107, 0.0896705687046051, 0.0978192538022995, 0.1059679388999939, 0.1141166239976883, 0.12226530909538269, 0.1304139941930771, 0.13856267929077148, 0.14671136438846588, 0.15486004948616028, 0.16300873458385468, 0.17115741968154907, 0.17930610477924347, 0.18745478987693787, 0.19560347497463226, 0.20375216007232666, 0.21190084517002106, 0.22004953026771545, 0.22819821536540985, 0.23634690046310425, 0.24449558556079865, 0.25264427065849304, 0.26079297065734863, 0.26894164085388184, 0.27709031105041504, 0.28523901104927063]}, "parameters/graph_3lstm.bias_hh_l0": {"_type": "histogram", "values": [1.0, 0.0, 0.0, 1.0, 1.0, 2.0, 1.0, 1.0, 1.0, 2.0, 0.0, 2.0, 3.0, 2.0, 2.0, 1.0, 2.0, 4.0, 2.0, 2.0, 2.0, 1.0, 2.0, 2.0, 2.0, 2.0, 3.0, 2.0, 1.0, 3.0, 2.0, 0.0, 4.0, 2.0, 3.0, 1.0, 4.0, 3.0, 3.0, 6.0, 3.0, 2.0, 2.0, 2.0, 1.0, 0.0, 1.0, 0.0, 2.0, 3.0, 2.0, 2.0, 1.0, 3.0, 4.0, 3.0, 0.0, 1.0, 2.0, 1.0, 3.0, 1.0, 1.0, 2.0], "bins": [-0.2250935286283493, -0.21770691871643066, -0.21032030880451202, -0.20293369889259338, -0.19554708898067474, -0.1881604790687561, -0.18077386915683746, -0.17338725924491882, -0.16600064933300018, -0.15861403942108154, -0.1512274295091629, -0.14384081959724426, -0.13645420968532562, -0.12906759977340698, -0.12168098986148834, -0.1142943799495697, -0.10690777003765106, -0.09952116012573242, -0.09213455021381378, -0.08474794030189514, -0.0773613303899765, -0.06997472047805786, -0.06258811056613922, -0.05520150065422058, -0.04781489074230194, -0.0404282808303833, -0.03304167091846466, -0.02565506100654602, -0.01826845109462738, -0.01088184118270874, -0.0034952312707901, 0.00389137864112854, 0.01127798855304718, 0.01866459846496582, 0.02605120837688446, 0.0334378182888031, 0.04082442820072174, 0.04821103811264038, 0.05559764802455902, 0.06298425793647766, 0.0703708678483963, 0.07775747776031494, 0.08514408767223358, 0.09253069758415222, 0.09991730749607086, 0.1073039174079895, 0.11469052731990814, 0.12207713723182678, 0.12946374714374542, 0.13685035705566406, 0.1442369669675827, 0.15162357687950134, 0.15901018679141998, 0.16639679670333862, 0.17378340661525726, 0.1811700165271759, 0.18855662643909454, 0.19594323635101318, 0.20332984626293182, 0.21071645617485046, 0.2181030660867691, 0.22548967599868774, 0.23287628591060638, 0.24026289582252502, 0.24764950573444366]}, "parameters/graph_3lstm.weight_ih_l0_reverse": {"_type": "histogram", "values": [1.0, 0.0, 0.0, 2.0, 0.0, 2.0, 3.0, 0.0, 2.0, 6.0, 5.0, 7.0, 3.0, 11.0, 15.0, 12.0, 15.0, 19.0, 19.0, 10.0, 18.0, 22.0, 20.0, 21.0, 21.0, 20.0, 26.0, 23.0, 16.0, 16.0, 28.0, 21.0, 25.0, 19.0, 20.0, 18.0, 22.0, 23.0, 12.0, 13.0, 7.0, 12.0, 5.0, 9.0, 7.0, 10.0, 1.0, 2.0, 1.0, 3.0, 2.0, 2.0, 0.0, 1.0, 0.0, 0.0, 1.0, 0.0, 0.0, 0.0, 0.0, 0.0, 0.0, 1.0], "bins": [-0.4007459282875061, -0.3860316872596741, -0.37131744623184204, -0.35660320520401, -0.3418889343738556, -0.32717469334602356, -0.31246045231819153, -0.2977462112903595, -0.2830319404602051, -0.26831769943237305, -0.253603458404541, -0.2388892024755478, -0.22417494654655457, -0.20946070551872253, -0.1947464644908905, -0.18003222346305847, -0.16531798243522644, -0.1506037414073944, -0.13588948547840118, -0.12117524445056915, -0.10646099597215652, -0.0917467474937439, -0.07703250646591187, -0.06231825798749924, -0.04760400950908661, -0.03288976103067398, -0.01817551627755165, -0.0034612715244293213, 0.011252976953983307, 0.025967225432395935, 0.040681466460227966, 0.055395714938640594, 0.07010996341705322, 0.08482421189546585, 0.09953846037387848, 0.11425270140171051, 0.12896695733070374, 0.14368119835853577, 0.1583954393863678, 0.17310968041419983, 0.18782393634319305, 0.20253817737102509, 0.2172524333000183, 0.23196667432785034, 0.24668091535568237, 0.2613951563835144, 0.27610939741134644, 0.29082366824150085, 0.3055379092693329, 0.3202521502971649, 0.33496639132499695, 0.34968066215515137, 0.3643949031829834, 0.37910914421081543, 0.39382338523864746, 0.4085376262664795, 0.4232518672943115, 0.43796610832214355, 0.4526803493499756, 0.4673945903778076, 0.48210886120796204, 0.49682310223579407, 0.5115373134613037, 0.5262516140937805, 0.5409658551216125]}, "parameters/graph_3lstm.weight_hh_l0_reverse": {"_type": "histogram", "values": [3.0, 0.0, 2.0, 3.0, 1.0, 1.0, 1.0, 1.0, 2.0, 1.0, 2.0, 4.0, 6.0, 5.0, 11.0, 15.0, 16.0, 11.0, 19.0, 21.0, 32.0, 42.0, 65.0, 84.0, 116.0, 114.0, 157.0, 157.0, 165.0, 178.0, 162.0, 155.0, 159.0, 156.0, 166.0, 151.0, 170.0, 161.0, 167.0, 154.0, 136.0, 141.0, 102.0, 86.0, 66.0, 59.0, 35.0, 40.0, 23.0, 19.0, 17.0, 10.0, 7.0, 7.0, 3.0, 3.0, 1.0, 3.0, 2.0, 2.0, 0.0, 0.0, 0.0, 2.0], "bins": [-0.6408376097679138, -0.6218962669372559, -0.6029548645019531, -0.5840135216712952, -0.5650721788406372, -0.5461307764053345, -0.5271894335746765, -0.5082480907440186, -0.4893067181110382, -0.47036534547805786, -0.4514240026473999, -0.43248263001441956, -0.4135412573814392, -0.39459991455078125, -0.3756585419178009, -0.35671716928482056, -0.3377758264541626, -0.31883445382118225, -0.2998931109905243, -0.28095173835754395, -0.262010395526886, -0.24306902289390564, -0.2241276502609253, -0.20518629252910614, -0.186244934797287, -0.16730357706546783, -0.14836221933364868, -0.12942084670066833, -0.11047948896884918, -0.09153813123703003, -0.07259676605463028, -0.05365540087223053, -0.0347139835357666, -0.01577262207865715, 0.003168739378452301, 0.022110100835561752, 0.041051462292671204, 0.059992820024490356, 0.0789341852068901, 0.09787555038928986, 0.11681690812110901, 0.13575826585292816, 0.15469962358474731, 0.17364099621772766, 0.19258235394954681, 0.21152371168136597, 0.2304650843143463, 0.24940644204616547, 0.2683477997779846, 0.28728917241096497, 0.3062305152416229, 0.32517188787460327, 0.34411323070526123, 0.3630546033382416, 0.3819959759712219, 0.4009373188018799, 0.41987869143486023, 0.4388200640678406, 0.45776140689849854, 0.4767027795314789, 0.49564415216445923, 0.5145854949951172, 0.5335268378257751, 0.5524682402610779, 0.5714095830917358]}, "parameters/graph_3lstm.bias_ih_l0_reverse": {"_type": "histogram", "values": [1.0, 0.0, 1.0, 1.0, 0.0, 3.0, 1.0, 3.0, 1.0, 1.0, 3.0, 5.0, 0.0, 1.0, 1.0, 5.0, 4.0, 0.0, 2.0, 2.0, 2.0, 1.0, 5.0, 4.0, 0.0, 1.0, 2.0, 1.0, 4.0, 3.0, 5.0, 1.0, 2.0, 2.0, 2.0, 2.0, 1.0, 3.0, 2.0, 6.0, 1.0, 5.0, 5.0, 2.0, 2.0, 1.0, 2.0, 2.0, 1.0, 2.0, 1.0, 0.0, 2.0, 1.0, 1.0, 2.0, 2.0, 2.0, 0.0, 0.0, 0.0, 1.0, 0.0, 1.0], "bins": [-0.21872153878211975, -0.21088388562202454, -0.20304623246192932, -0.1952085793018341, -0.1873709261417389, -0.17953327298164368, -0.17169560492038727, -0.16385795176029205, -0.15602029860019684, -0.14818264544010162, -0.1403449922800064, -0.1325073391199112, -0.12466967850923538, -0.11683202534914017, -0.10899436473846436, -0.10115671157836914, -0.09331905841827393, -0.08548140525817871, -0.0776437520980835, -0.06980609148740768, -0.06196843832731247, -0.054130785167217255, -0.04629312828183174, -0.03845547139644623, -0.030617818236351013, -0.02278016321361065, -0.014942508190870285, -0.007104853168129921, 0.0007328018546104431, 0.008570455014705658, 0.01640811190009117, 0.024245768785476685, 0.0320834219455719, 0.039921075105667114, 0.04775873199105263, 0.05559638887643814, 0.06343404203653336, 0.07127169519662857, 0.07910935580730438, 0.0869470089673996, 0.09478466212749481, 0.10262231528759003, 0.11045996844768524, 0.11829762905836105, 0.12613528966903687, 0.13397294282913208, 0.1418105959892273, 0.1496482491493225, 0.15748590230941772, 0.16532355546951294, 0.17316120862960815, 0.18099886178970337, 0.18883651494979858, 0.1966741681098938, 0.2045118361711502, 0.21234948933124542, 0.22018714249134064, 0.22802479565143585, 0.23586244881153107, 0.24370010197162628, 0.2515377700328827, 0.2593754231929779, 0.2672130763530731, 0.27505072951316833, 0.28288838267326355]}, "parameters/graph_3lstm.bias_hh_l0_reverse": {"_type": "histogram", "values": [1.0, 1.0, 0.0, 2.0, 0.0, 4.0, 1.0, 2.0, 1.0, 0.0, 4.0, 3.0, 2.0, 1.0, 2.0, 2.0, 0.0, 2.0, 2.0, 3.0, 2.0, 3.0, 4.0, 3.0, 1.0, 3.0, 1.0, 5.0, 2.0, 3.0, 2.0, 3.0, 4.0, 3.0, 4.0, 1.0, 4.0, 3.0, 2.0, 4.0, 7.0, 1.0, 3.0, 2.0, 1.0, 4.0, 2.0, 1.0, 0.0, 2.0, 0.0, 1.0, 2.0, 0.0, 1.0, 0.0, 0.0, 0.0, 2.0, 0.0, 0.0, 0.0, 0.0, 1.0], "bins": [-0.2336147129535675, -0.22468149662017822, -0.21574829518795013, -0.20681507885456085, -0.19788187742233276, -0.18894866108894348, -0.1800154447555542, -0.17108222842216492, -0.16214902698993683, -0.15321581065654755, -0.14428260922431946, -0.13534939289093018, -0.1264161765575409, -0.1174829751253128, -0.10854975879192352, -0.09961654990911484, -0.09068334102630615, -0.08175013214349747, -0.07281692326068878, -0.0638837069272995, -0.054950498044490814, -0.04601728916168213, -0.037084076553583145, -0.02815086394548416, -0.019217655062675476, -0.010284444317221642, -0.001351233571767807, 0.0075819771736860275, 0.016515187919139862, 0.025448396801948547, 0.03438160941004753, 0.043314822018146515, 0.05224800109863281, 0.0611812099814415, 0.07011441886425018, 0.07904763519763947, 0.08798084408044815, 0.09691405296325684, 0.10584726929664612, 0.1147804781794548, 0.12371368706226349, 0.13264690339565277, 0.14158010482788086, 0.15051332116127014, 0.15944653749465942, 0.1683797389268875, 0.1773129552602768, 0.18624615669250488, 0.19517937302589417, 0.20411258935928345, 0.21304579079151154, 0.22197900712490082, 0.2309122085571289, 0.2398454248905182, 0.24877864122390747, 0.25771185755729675, 0.26664507389068604, 0.2755782902240753, 0.2845115065574646, 0.2934446930885315, 0.3023779094219208, 0.31131112575531006, 0.32024434208869934, 0.3291775584220886, 0.3381107449531555]}, "parameters/graph_3linear.weight": {"_type": "histogram", "values": [1.0, 0.0, 0.0, 2.0, 0.0, 0.0, 1.0, 3.0, 1.0, 1.0, 0.0, 0.0, 3.0, 0.0, 0.0, 3.0, 2.0, 2.0, 0.0, 2.0, 1.0, 1.0, 2.0, 2.0, 1.0, 0.0, 0.0, 3.0, 1.0, 2.0, 2.0, 0.0, 1.0, 2.0, 1.0, 1.0, 2.0, 3.0, 1.0, 1.0, 4.0, 1.0, 1.0, 0.0, 0.0, 1.0, 1.0, 2.0, 0.0, 0.0, 0.0, 0.0, 0.0, 1.0, 0.0, 0.0, 0.0, 0.0, 0.0, 0.0, 0.0, 0.0, 0.0, 1.0], "bins": [-0.16474322974681854, -0.15890777111053467, -0.153072327375412, -0.1472368687391281, -0.14140141010284424, -0.13556596636772156, -0.12973050773143768, -0.1238950565457344, -0.11805960536003113, -0.11222415417432785, -0.10638870298862457, -0.1005532443523407, -0.09471779316663742, -0.08888234198093414, -0.08304688334465027, -0.07721143215894699, -0.07137598097324371, -0.06554052978754044, -0.05970507487654686, -0.053869619965553284, -0.048034168779850006, -0.04219871759414673, -0.03636326268315315, -0.030527807772159576, -0.0246923565864563, -0.018856903538107872, -0.013021450489759445, -0.007185997441411018, -0.0013505443930625916, 0.004484908655285835, 0.010320361703634262, 0.016155816614627838, 0.021991267800331116, 0.027826720848679543, 0.03366217389702797, 0.039497628808021545, 0.04533307999372482, 0.0511685311794281, 0.05700398609042168, 0.06283944100141525, 0.06867489218711853, 0.07451034337282181, 0.08034579455852509, 0.08618125319480896, 0.09201670438051224, 0.09785215556621552, 0.10368761420249939, 0.10952306538820267, 0.11535851657390594, 0.12119396775960922, 0.1270294189453125, 0.13286487758159637, 0.13870033621788025, 0.14453577995300293, 0.1503712385892868, 0.15620669722557068, 0.16204214096069336, 0.16787759959697723, 0.17371304333209991, 0.1795485019683838, 0.18538394570350647, 0.19121940433979034, 0.19705486297607422, 0.2028903067111969, 0.20872576534748077]}, "parameters/graph_3linear.bias": {"_type": "histogram", "values": [0.0, 0.0, 0.0, 0.0, 0.0, 0.0, 0.0, 0.0, 0.0, 0.0, 0.0, 0.0, 0.0, 0.0, 0.0, 0.0, 0.0, 0.0, 0.0, 0.0, 0.0, 0.0, 0.0, 0.0, 0.0, 0.0, 0.0, 0.0, 0.0, 0.0, 0.0, 0.0, 1.0, 0.0, 0.0, 0.0, 0.0, 0.0, 0.0, 0.0, 0.0, 0.0, 0.0, 0.0, 0.0, 0.0, 0.0, 0.0, 0.0, 0.0, 0.0, 0.0, 0.0, 0.0, 0.0, 0.0, 0.0, 0.0, 0.0, 0.0, 0.0, 0.0, 0.0, 0.0], "bins": [-0.00923916045576334, -0.00923916045576334, -0.00923916045576334, -0.00923916045576334, -0.00923916045576334, -0.00923916045576334, -0.00923916045576334, -0.00923916045576334, -0.00923916045576334, -0.00923916045576334, -0.00923916045576334, -0.00923916045576334, -0.00923916045576334, -0.00923916045576334, -0.00923916045576334, -0.00923916045576334, -0.00923916045576334, -0.00923916045576334, -0.00923916045576334, -0.00923916045576334, -0.00923916045576334, -0.00923916045576334, -0.00923916045576334, -0.00923916045576334, -0.00923916045576334, -0.00923916045576334, -0.00923916045576334, -0.00923916045576334, -0.00923916045576334, -0.00923916045576334, -0.00923916045576334, -0.00923916045576334, -0.00923916045576334, -0.00923916045576334, -0.00923916045576334, -0.00923916045576334, -0.00923916045576334, -0.00923916045576334, -0.00923916045576334, -0.00923916045576334, -0.00923916045576334, -0.00923916045576334, -0.00923916045576334, -0.00923916045576334, -0.00923916045576334, -0.00923916045576334, -0.00923916045576334, -0.00923916045576334, -0.00923916045576334, -0.00923916045576334, -0.00923916045576334, -0.00923916045576334, -0.00923916045576334, -0.00923916045576334, -0.00923916045576334, -0.00923916045576334, -0.00923916045576334, -0.00923916045576334, -0.00923916045576334, -0.00923916045576334, -0.00923916045576334, -0.00923916045576334, -0.00923916045576334, -0.00923916045576334, -0.00923916045576334]}, "parameters/graph_4lstm.weight_ih_l0": {"_type": "histogram", "values": [1.0, 0.0, 1.0, 0.0, 0.0, 0.0, 0.0, 0.0, 0.0, 0.0, 0.0, 0.0, 1.0, 0.0, 0.0, 0.0, 1.0, 3.0, 1.0, 3.0, 2.0, 5.0, 4.0, 8.0, 11.0, 5.0, 15.0, 21.0, 17.0, 27.0, 20.0, 22.0, 20.0, 28.0, 21.0, 24.0, 22.0, 29.0, 20.0, 32.0, 30.0, 23.0, 26.0, 25.0, 22.0, 21.0, 21.0, 11.0, 10.0, 8.0, 7.0, 7.0, 7.0, 5.0, 4.0, 2.0, 2.0, 1.0, 0.0, 2.0, 1.0, 0.0, 0.0, 1.0], "bins": [-0.6096116304397583, -0.5931941270828247, -0.5767766833305359, -0.5603591799736023, -0.5439416766166687, -0.5275241732597351, -0.5111067295074463, -0.4946892261505127, -0.4782717227935791, -0.4618542492389679, -0.4454367458820343, -0.4290192723274231, -0.4126017689704895, -0.3961842954158783, -0.3797668218612671, -0.3633493185043335, -0.3469318449497223, -0.3305143713951111, -0.3140968680381775, -0.2976793944835663, -0.2812618911266327, -0.2648444175720215, -0.24842692911624908, -0.23200944066047668, -0.21559195220470428, -0.19917446374893188, -0.18275697529315948, -0.16633948683738708, -0.14992201328277588, -0.13350450992584229, -0.11708703637123108, -0.10066954791545868, -0.08425205945968628, -0.06783457100391388, -0.05141708627343178, -0.034999601542949677, -0.018582113087177277, -0.0021646246314048767, 0.014252856373786926, 0.030670344829559326, 0.047087833285331726, 0.06350532174110413, 0.07992281019687653, 0.09634029120206833, 0.11275777965784073, 0.12917527556419373, 0.14559274911880493, 0.16201023757457733, 0.17842772603034973, 0.19484521448612213, 0.21126270294189453, 0.22768017649650574, 0.24409767985343933, 0.26051515340805054, 0.27693265676498413, 0.29335013031959534, 0.30976760387420654, 0.32618507742881775, 0.34260258078575134, 0.35902005434036255, 0.37543755769729614, 0.39185503125190735, 0.40827250480651855, 0.42469000816345215, 0.44110751152038574]}, "parameters/graph_4lstm.weight_hh_l0": {"_type": "histogram", "values": [1.0, 0.0, 0.0, 0.0, 0.0, 0.0, 0.0, 0.0, 1.0, 1.0, 1.0, 0.0, 1.0, 2.0, 2.0, 2.0, 4.0, 5.0, 1.0, 5.0, 8.0, 15.0, 17.0, 19.0, 24.0, 55.0, 78.0, 93.0, 155.0, 190.0, 192.0, 193.0, 237.0, 210.0, 237.0, 254.0, 234.0, 221.0, 206.0, 206.0, 176.0, 151.0, 112.0, 75.0, 53.0, 44.0, 38.0, 23.0, 14.0, 11.0, 3.0, 7.0, 7.0, 7.0, 1.0, 1.0, 2.0, 0.0, 1.0, 0.0, 0.0, 2.0, 1.0, 1.0], "bins": [-0.9411304593086243, -0.9141407012939453, -0.8871509432792664, -0.8601611852645874, -0.8331713676452637, -0.8061816096305847, -0.7791918516159058, -0.7522020936012268, -0.7252123355865479, -0.6982225775718689, -0.6712328195571899, -0.6442430019378662, -0.6172532439231873, -0.5902634859085083, -0.5632737278938293, -0.5362839698791504, -0.5092941522598267, -0.4823043942451477, -0.45531460642814636, -0.4283248484134674, -0.40133506059646606, -0.3743453025817871, -0.34735554456710815, -0.3203657865524292, -0.29337599873542786, -0.2663862407207489, -0.23939645290374756, -0.2124066948890686, -0.18541692197322845, -0.1584271490573883, -0.13143739104270935, -0.1044476181268692, -0.07745790481567383, -0.05046813562512398, -0.023478366434574127, 0.003511399030685425, 0.030501171946525574, 0.05749094486236572, 0.08448070287704468, 0.11147047579288483, 0.13846024870872498, 0.16545002162456512, 0.19243979454040527, 0.21942955255508423, 0.24641932547092438, 0.2734090983867645, 0.3003988564014435, 0.3273886442184448, 0.3543784022331238, 0.38136816024780273, 0.4083579480648041, 0.43534770607948303, 0.4623374938964844, 0.48932725191116333, 0.5163170099258423, 0.5433067679405212, 0.5702965259552002, 0.5972862839698792, 0.6242760419845581, 0.6512658596038818, 0.6782556176185608, 0.7052453756332397, 0.7322351336479187, 0.7592248916625977, 0.7862147092819214]}, "parameters/graph_4lstm.bias_ih_l0": {"_type": "histogram", "values": [1.0, 0.0, 0.0, 0.0, 0.0, 0.0, 1.0, 1.0, 0.0, 1.0, 1.0, 0.0, 3.0, 3.0, 4.0, 1.0, 2.0, 0.0, 3.0, 3.0, 2.0, 5.0, 4.0, 0.0, 4.0, 2.0, 2.0, 0.0, 5.0, 8.0, 1.0, 3.0, 5.0, 1.0, 3.0, 3.0, 1.0, 4.0, 3.0, 1.0, 4.0, 2.0, 5.0, 3.0, 1.0, 2.0, 3.0, 5.0, 2.0, 1.0, 0.0, 1.0, 1.0, 1.0, 0.0, 0.0, 1.0, 0.0, 3.0, 0.0, 1.0, 0.0, 1.0, 2.0], "bins": [-0.23627686500549316, -0.22812817990779877, -0.21997949481010437, -0.21183080971240997, -0.20368212461471558, -0.19553343951702118, -0.18738475441932678, -0.17923606932163239, -0.171087384223938, -0.1629386991262436, -0.1547900140285492, -0.1466413289308548, -0.1384926438331604, -0.130343958735466, -0.1221952736377716, -0.11404658854007721, -0.10589790344238281, -0.09774921834468842, -0.08960053324699402, -0.08145184814929962, -0.07330316305160522, -0.06515447795391083, -0.05700579285621643, -0.048857107758522034, -0.04070842266082764, -0.03255973756313324, -0.024411052465438843, -0.016262367367744446, -0.008113682270050049, 3.5002827644348145e-05, 0.008183687925338745, 0.016332373023033142, 0.024481087923049927, 0.032629773020744324, 0.04077845811843872, 0.04892714321613312, 0.057075828313827515, 0.06522451341152191, 0.07337319850921631, 0.0815218836069107, 0.0896705687046051, 0.0978192538022995, 0.1059679388999939, 0.1141166239976883, 0.12226530909538269, 0.1304139941930771, 0.13856267929077148, 0.14671136438846588, 0.15486004948616028, 0.16300873458385468, 0.17115741968154907, 0.17930610477924347, 0.18745478987693787, 0.19560347497463226, 0.20375216007232666, 0.21190084517002106, 0.22004953026771545, 0.22819821536540985, 0.23634690046310425, 0.24449558556079865, 0.25264427065849304, 0.26079297065734863, 0.26894164085388184, 0.27709031105041504, 0.28523901104927063]}, "parameters/graph_4lstm.bias_hh_l0": {"_type": "histogram", "values": [1.0, 0.0, 0.0, 1.0, 1.0, 2.0, 1.0, 1.0, 1.0, 2.0, 0.0, 2.0, 3.0, 2.0, 2.0, 1.0, 2.0, 4.0, 2.0, 2.0, 2.0, 1.0, 2.0, 2.0, 2.0, 2.0, 3.0, 2.0, 1.0, 3.0, 2.0, 0.0, 4.0, 2.0, 3.0, 1.0, 4.0, 3.0, 3.0, 6.0, 3.0, 2.0, 2.0, 2.0, 1.0, 0.0, 1.0, 0.0, 2.0, 3.0, 2.0, 2.0, 1.0, 3.0, 4.0, 3.0, 0.0, 1.0, 2.0, 1.0, 3.0, 1.0, 1.0, 2.0], "bins": [-0.2250935286283493, -0.21770691871643066, -0.21032030880451202, -0.20293369889259338, -0.19554708898067474, -0.1881604790687561, -0.18077386915683746, -0.17338725924491882, -0.16600064933300018, -0.15861403942108154, -0.1512274295091629, -0.14384081959724426, -0.13645420968532562, -0.12906759977340698, -0.12168098986148834, -0.1142943799495697, -0.10690777003765106, -0.09952116012573242, -0.09213455021381378, -0.08474794030189514, -0.0773613303899765, -0.06997472047805786, -0.06258811056613922, -0.05520150065422058, -0.04781489074230194, -0.0404282808303833, -0.03304167091846466, -0.02565506100654602, -0.01826845109462738, -0.01088184118270874, -0.0034952312707901, 0.00389137864112854, 0.01127798855304718, 0.01866459846496582, 0.02605120837688446, 0.0334378182888031, 0.04082442820072174, 0.04821103811264038, 0.05559764802455902, 0.06298425793647766, 0.0703708678483963, 0.07775747776031494, 0.08514408767223358, 0.09253069758415222, 0.09991730749607086, 0.1073039174079895, 0.11469052731990814, 0.12207713723182678, 0.12946374714374542, 0.13685035705566406, 0.1442369669675827, 0.15162357687950134, 0.15901018679141998, 0.16639679670333862, 0.17378340661525726, 0.1811700165271759, 0.18855662643909454, 0.19594323635101318, 0.20332984626293182, 0.21071645617485046, 0.2181030660867691, 0.22548967599868774, 0.23287628591060638, 0.24026289582252502, 0.24764950573444366]}, "parameters/graph_4lstm.weight_ih_l0_reverse": {"_type": "histogram", "values": [1.0, 0.0, 0.0, 2.0, 0.0, 2.0, 3.0, 0.0, 2.0, 6.0, 5.0, 7.0, 3.0, 11.0, 15.0, 12.0, 15.0, 19.0, 19.0, 10.0, 18.0, 22.0, 20.0, 21.0, 21.0, 20.0, 26.0, 23.0, 16.0, 16.0, 28.0, 21.0, 25.0, 19.0, 20.0, 18.0, 22.0, 23.0, 12.0, 13.0, 7.0, 12.0, 5.0, 9.0, 7.0, 10.0, 1.0, 2.0, 1.0, 3.0, 2.0, 2.0, 0.0, 1.0, 0.0, 0.0, 1.0, 0.0, 0.0, 0.0, 0.0, 0.0, 0.0, 1.0], "bins": [-0.4007459282875061, -0.3860316872596741, -0.37131744623184204, -0.35660320520401, -0.3418889343738556, -0.32717469334602356, -0.31246045231819153, -0.2977462112903595, -0.2830319404602051, -0.26831769943237305, -0.253603458404541, -0.2388892024755478, -0.22417494654655457, -0.20946070551872253, -0.1947464644908905, -0.18003222346305847, -0.16531798243522644, -0.1506037414073944, -0.13588948547840118, -0.12117524445056915, -0.10646099597215652, -0.0917467474937439, -0.07703250646591187, -0.06231825798749924, -0.04760400950908661, -0.03288976103067398, -0.01817551627755165, -0.0034612715244293213, 0.011252976953983307, 0.025967225432395935, 0.040681466460227966, 0.055395714938640594, 0.07010996341705322, 0.08482421189546585, 0.09953846037387848, 0.11425270140171051, 0.12896695733070374, 0.14368119835853577, 0.1583954393863678, 0.17310968041419983, 0.18782393634319305, 0.20253817737102509, 0.2172524333000183, 0.23196667432785034, 0.24668091535568237, 0.2613951563835144, 0.27610939741134644, 0.29082366824150085, 0.3055379092693329, 0.3202521502971649, 0.33496639132499695, 0.34968066215515137, 0.3643949031829834, 0.37910914421081543, 0.39382338523864746, 0.4085376262664795, 0.4232518672943115, 0.43796610832214355, 0.4526803493499756, 0.4673945903778076, 0.48210886120796204, 0.49682310223579407, 0.5115373134613037, 0.5262516140937805, 0.5409658551216125]}, "parameters/graph_4lstm.weight_hh_l0_reverse": {"_type": "histogram", "values": [3.0, 0.0, 2.0, 3.0, 1.0, 1.0, 1.0, 1.0, 2.0, 1.0, 2.0, 4.0, 6.0, 5.0, 11.0, 15.0, 16.0, 11.0, 19.0, 21.0, 32.0, 42.0, 65.0, 84.0, 116.0, 114.0, 157.0, 157.0, 165.0, 178.0, 162.0, 155.0, 159.0, 156.0, 166.0, 151.0, 170.0, 161.0, 167.0, 154.0, 136.0, 141.0, 102.0, 86.0, 66.0, 59.0, 35.0, 40.0, 23.0, 19.0, 17.0, 10.0, 7.0, 7.0, 3.0, 3.0, 1.0, 3.0, 2.0, 2.0, 0.0, 0.0, 0.0, 2.0], "bins": [-0.6408376097679138, -0.6218962669372559, -0.6029548645019531, -0.5840135216712952, -0.5650721788406372, -0.5461307764053345, -0.5271894335746765, -0.5082480907440186, -0.4893067181110382, -0.47036534547805786, -0.4514240026473999, -0.43248263001441956, -0.4135412573814392, -0.39459991455078125, -0.3756585419178009, -0.35671716928482056, -0.3377758264541626, -0.31883445382118225, -0.2998931109905243, -0.28095173835754395, -0.262010395526886, -0.24306902289390564, -0.2241276502609253, -0.20518629252910614, -0.186244934797287, -0.16730357706546783, -0.14836221933364868, -0.12942084670066833, -0.11047948896884918, -0.09153813123703003, -0.07259676605463028, -0.05365540087223053, -0.0347139835357666, -0.01577262207865715, 0.003168739378452301, 0.022110100835561752, 0.041051462292671204, 0.059992820024490356, 0.0789341852068901, 0.09787555038928986, 0.11681690812110901, 0.13575826585292816, 0.15469962358474731, 0.17364099621772766, 0.19258235394954681, 0.21152371168136597, 0.2304650843143463, 0.24940644204616547, 0.2683477997779846, 0.28728917241096497, 0.3062305152416229, 0.32517188787460327, 0.34411323070526123, 0.3630546033382416, 0.3819959759712219, 0.4009373188018799, 0.41987869143486023, 0.4388200640678406, 0.45776140689849854, 0.4767027795314789, 0.49564415216445923, 0.5145854949951172, 0.5335268378257751, 0.5524682402610779, 0.5714095830917358]}, "parameters/graph_4lstm.bias_ih_l0_reverse": {"_type": "histogram", "values": [1.0, 0.0, 1.0, 1.0, 0.0, 3.0, 1.0, 3.0, 1.0, 1.0, 3.0, 5.0, 0.0, 1.0, 1.0, 5.0, 4.0, 0.0, 2.0, 2.0, 2.0, 1.0, 5.0, 4.0, 0.0, 1.0, 2.0, 1.0, 4.0, 3.0, 5.0, 1.0, 2.0, 2.0, 2.0, 2.0, 1.0, 3.0, 2.0, 6.0, 1.0, 5.0, 5.0, 2.0, 2.0, 1.0, 2.0, 2.0, 1.0, 2.0, 1.0, 0.0, 2.0, 1.0, 1.0, 2.0, 2.0, 2.0, 0.0, 0.0, 0.0, 1.0, 0.0, 1.0], "bins": [-0.21872153878211975, -0.21088388562202454, -0.20304623246192932, -0.1952085793018341, -0.1873709261417389, -0.17953327298164368, -0.17169560492038727, -0.16385795176029205, -0.15602029860019684, -0.14818264544010162, -0.1403449922800064, -0.1325073391199112, -0.12466967850923538, -0.11683202534914017, -0.10899436473846436, -0.10115671157836914, -0.09331905841827393, -0.08548140525817871, -0.0776437520980835, -0.06980609148740768, -0.06196843832731247, -0.054130785167217255, -0.04629312828183174, -0.03845547139644623, -0.030617818236351013, -0.02278016321361065, -0.014942508190870285, -0.007104853168129921, 0.0007328018546104431, 0.008570455014705658, 0.01640811190009117, 0.024245768785476685, 0.0320834219455719, 0.039921075105667114, 0.04775873199105263, 0.05559638887643814, 0.06343404203653336, 0.07127169519662857, 0.07910935580730438, 0.0869470089673996, 0.09478466212749481, 0.10262231528759003, 0.11045996844768524, 0.11829762905836105, 0.12613528966903687, 0.13397294282913208, 0.1418105959892273, 0.1496482491493225, 0.15748590230941772, 0.16532355546951294, 0.17316120862960815, 0.18099886178970337, 0.18883651494979858, 0.1966741681098938, 0.2045118361711502, 0.21234948933124542, 0.22018714249134064, 0.22802479565143585, 0.23586244881153107, 0.24370010197162628, 0.2515377700328827, 0.2593754231929779, 0.2672130763530731, 0.27505072951316833, 0.28288838267326355]}, "parameters/graph_4lstm.bias_hh_l0_reverse": {"_type": "histogram", "values": [1.0, 1.0, 0.0, 2.0, 0.0, 4.0, 1.0, 2.0, 1.0, 0.0, 4.0, 3.0, 2.0, 1.0, 2.0, 2.0, 0.0, 2.0, 2.0, 3.0, 2.0, 3.0, 4.0, 3.0, 1.0, 3.0, 1.0, 5.0, 2.0, 3.0, 2.0, 3.0, 4.0, 3.0, 4.0, 1.0, 4.0, 3.0, 2.0, 4.0, 7.0, 1.0, 3.0, 2.0, 1.0, 4.0, 2.0, 1.0, 0.0, 2.0, 0.0, 1.0, 2.0, 0.0, 1.0, 0.0, 0.0, 0.0, 2.0, 0.0, 0.0, 0.0, 0.0, 1.0], "bins": [-0.2336147129535675, -0.22468149662017822, -0.21574829518795013, -0.20681507885456085, -0.19788187742233276, -0.18894866108894348, -0.1800154447555542, -0.17108222842216492, -0.16214902698993683, -0.15321581065654755, -0.14428260922431946, -0.13534939289093018, -0.1264161765575409, -0.1174829751253128, -0.10854975879192352, -0.09961654990911484, -0.09068334102630615, -0.08175013214349747, -0.07281692326068878, -0.0638837069272995, -0.054950498044490814, -0.04601728916168213, -0.037084076553583145, -0.02815086394548416, -0.019217655062675476, -0.010284444317221642, -0.001351233571767807, 0.0075819771736860275, 0.016515187919139862, 0.025448396801948547, 0.03438160941004753, 0.043314822018146515, 0.05224800109863281, 0.0611812099814415, 0.07011441886425018, 0.07904763519763947, 0.08798084408044815, 0.09691405296325684, 0.10584726929664612, 0.1147804781794548, 0.12371368706226349, 0.13264690339565277, 0.14158010482788086, 0.15051332116127014, 0.15944653749465942, 0.1683797389268875, 0.1773129552602768, 0.18624615669250488, 0.19517937302589417, 0.20411258935928345, 0.21304579079151154, 0.22197900712490082, 0.2309122085571289, 0.2398454248905182, 0.24877864122390747, 0.25771185755729675, 0.26664507389068604, 0.2755782902240753, 0.2845115065574646, 0.2934446930885315, 0.3023779094219208, 0.31131112575531006, 0.32024434208869934, 0.3291775584220886, 0.3381107449531555]}, "parameters/graph_4linear.weight": {"_type": "histogram", "values": [1.0, 0.0, 0.0, 2.0, 0.0, 0.0, 1.0, 3.0, 1.0, 1.0, 0.0, 0.0, 3.0, 0.0, 0.0, 3.0, 2.0, 2.0, 0.0, 2.0, 1.0, 1.0, 2.0, 2.0, 1.0, 0.0, 0.0, 3.0, 1.0, 2.0, 2.0, 0.0, 1.0, 2.0, 1.0, 1.0, 2.0, 3.0, 1.0, 1.0, 4.0, 1.0, 1.0, 0.0, 0.0, 1.0, 1.0, 2.0, 0.0, 0.0, 0.0, 0.0, 0.0, 1.0, 0.0, 0.0, 0.0, 0.0, 0.0, 0.0, 0.0, 0.0, 0.0, 1.0], "bins": [-0.16474322974681854, -0.15890777111053467, -0.153072327375412, -0.1472368687391281, -0.14140141010284424, -0.13556596636772156, -0.12973050773143768, -0.1238950565457344, -0.11805960536003113, -0.11222415417432785, -0.10638870298862457, -0.1005532443523407, -0.09471779316663742, -0.08888234198093414, -0.08304688334465027, -0.07721143215894699, -0.07137598097324371, -0.06554052978754044, -0.05970507487654686, -0.053869619965553284, -0.048034168779850006, -0.04219871759414673, -0.03636326268315315, -0.030527807772159576, -0.0246923565864563, -0.018856903538107872, -0.013021450489759445, -0.007185997441411018, -0.0013505443930625916, 0.004484908655285835, 0.010320361703634262, 0.016155816614627838, 0.021991267800331116, 0.027826720848679543, 0.03366217389702797, 0.039497628808021545, 0.04533307999372482, 0.0511685311794281, 0.05700398609042168, 0.06283944100141525, 0.06867489218711853, 0.07451034337282181, 0.08034579455852509, 0.08618125319480896, 0.09201670438051224, 0.09785215556621552, 0.10368761420249939, 0.10952306538820267, 0.11535851657390594, 0.12119396775960922, 0.1270294189453125, 0.13286487758159637, 0.13870033621788025, 0.14453577995300293, 0.1503712385892868, 0.15620669722557068, 0.16204214096069336, 0.16787759959697723, 0.17371304333209991, 0.1795485019683838, 0.18538394570350647, 0.19121940433979034, 0.19705486297607422, 0.2028903067111969, 0.20872576534748077]}, "parameters/graph_4linear.bias": {"_type": "histogram", "values": [0.0, 0.0, 0.0, 0.0, 0.0, 0.0, 0.0, 0.0, 0.0, 0.0, 0.0, 0.0, 0.0, 0.0, 0.0, 0.0, 0.0, 0.0, 0.0, 0.0, 0.0, 0.0, 0.0, 0.0, 0.0, 0.0, 0.0, 0.0, 0.0, 0.0, 0.0, 0.0, 1.0, 0.0, 0.0, 0.0, 0.0, 0.0, 0.0, 0.0, 0.0, 0.0, 0.0, 0.0, 0.0, 0.0, 0.0, 0.0, 0.0, 0.0, 0.0, 0.0, 0.0, 0.0, 0.0, 0.0, 0.0, 0.0, 0.0, 0.0, 0.0, 0.0, 0.0, 0.0], "bins": [-0.00923916045576334, -0.00923916045576334, -0.00923916045576334, -0.00923916045576334, -0.00923916045576334, -0.00923916045576334, -0.00923916045576334, -0.00923916045576334, -0.00923916045576334, -0.00923916045576334, -0.00923916045576334, -0.00923916045576334, -0.00923916045576334, -0.00923916045576334, -0.00923916045576334, -0.00923916045576334, -0.00923916045576334, -0.00923916045576334, -0.00923916045576334, -0.00923916045576334, -0.00923916045576334, -0.00923916045576334, -0.00923916045576334, -0.00923916045576334, -0.00923916045576334, -0.00923916045576334, -0.00923916045576334, -0.00923916045576334, -0.00923916045576334, -0.00923916045576334, -0.00923916045576334, -0.00923916045576334, -0.00923916045576334, -0.00923916045576334, -0.00923916045576334, -0.00923916045576334, -0.00923916045576334, -0.00923916045576334, -0.00923916045576334, -0.00923916045576334, -0.00923916045576334, -0.00923916045576334, -0.00923916045576334, -0.00923916045576334, -0.00923916045576334, -0.00923916045576334, -0.00923916045576334, -0.00923916045576334, -0.00923916045576334, -0.00923916045576334, -0.00923916045576334, -0.00923916045576334, -0.00923916045576334, -0.00923916045576334, -0.00923916045576334, -0.00923916045576334, -0.00923916045576334, -0.00923916045576334, -0.00923916045576334, -0.00923916045576334, -0.00923916045576334, -0.00923916045576334, -0.00923916045576334, -0.00923916045576334, -0.00923916045576334]}, "gradients/graph_3linear.bias": {"_type": "histogram", "values": [0.0, 0.0, 0.0, 0.0, 0.0, 0.0, 0.0, 0.0, 0.0, 0.0, 0.0, 0.0, 0.0, 0.0, 0.0, 0.0, 0.0, 0.0, 0.0, 0.0, 0.0, 0.0, 0.0, 0.0, 0.0, 0.0, 0.0, 0.0, 0.0, 0.0, 0.0, 0.0, 1.0, 0.0, 0.0, 0.0, 0.0, 0.0, 0.0, 0.0, 0.0, 0.0, 0.0, 0.0, 0.0, 0.0, 0.0, 0.0, 0.0, 0.0, 0.0, 0.0, 0.0, 0.0, 0.0, 0.0, 0.0, 0.0, 0.0, 0.0, 0.0, 0.0, 0.0, 0.0], "bins": [0.05029374361038208, 0.05029374361038208, 0.05029374361038208, 0.05029374361038208, 0.05029374361038208, 0.05029374361038208, 0.05029374361038208, 0.05029374361038208, 0.05029374361038208, 0.05029374361038208, 0.05029374361038208, 0.05029374361038208, 0.05029374361038208, 0.05029374361038208, 0.05029374361038208, 0.05029374361038208, 0.05029374361038208, 0.05029374361038208, 0.05029374361038208, 0.05029374361038208, 0.05029374361038208, 0.05029374361038208, 0.05029374361038208, 0.05029374361038208, 0.05029374361038208, 0.05029374361038208, 0.05029374361038208, 0.05029374361038208, 0.05029374361038208, 0.05029374361038208, 0.05029374361038208, 0.05029374361038208, 0.05029374361038208, 0.05029374361038208, 0.05029374361038208, 0.05029374361038208, 0.05029374361038208, 0.05029374361038208, 0.05029374361038208, 0.05029374361038208, 0.05029374361038208, 0.05029374361038208, 0.05029374361038208, 0.05029374361038208, 0.05029374361038208, 0.05029374361038208, 0.05029374361038208, 0.05029374361038208, 0.05029374361038208, 0.05029374361038208, 0.05029374361038208, 0.05029374361038208, 0.05029374361038208, 0.05029374361038208, 0.05029374361038208, 0.05029374361038208, 0.05029374361038208, 0.05029374361038208, 0.05029374361038208, 0.05029374361038208, 0.05029374361038208, 0.05029374361038208, 0.05029374361038208, 0.05029374361038208, 0.05029374361038208]}, "gradients/graph_4linear.bias": {"_type": "histogram", "values": [0.0, 0.0, 0.0, 0.0, 0.0, 0.0, 0.0, 0.0, 0.0, 0.0, 0.0, 0.0, 0.0, 0.0, 0.0, 0.0, 0.0, 0.0, 0.0, 0.0, 0.0, 0.0, 0.0, 0.0, 0.0, 0.0, 0.0, 0.0, 0.0, 0.0, 0.0, 0.0, 1.0, 0.0, 0.0, 0.0, 0.0, 0.0, 0.0, 0.0, 0.0, 0.0, 0.0, 0.0, 0.0, 0.0, 0.0, 0.0, 0.0, 0.0, 0.0, 0.0, 0.0, 0.0, 0.0, 0.0, 0.0, 0.0, 0.0, 0.0, 0.0, 0.0, 0.0, 0.0], "bins": [0.05029374361038208, 0.05029374361038208, 0.05029374361038208, 0.05029374361038208, 0.05029374361038208, 0.05029374361038208, 0.05029374361038208, 0.05029374361038208, 0.05029374361038208, 0.05029374361038208, 0.05029374361038208, 0.05029374361038208, 0.05029374361038208, 0.05029374361038208, 0.05029374361038208, 0.05029374361038208, 0.05029374361038208, 0.05029374361038208, 0.05029374361038208, 0.05029374361038208, 0.05029374361038208, 0.05029374361038208, 0.05029374361038208, 0.05029374361038208, 0.05029374361038208, 0.05029374361038208, 0.05029374361038208, 0.05029374361038208, 0.05029374361038208, 0.05029374361038208, 0.05029374361038208, 0.05029374361038208, 0.05029374361038208, 0.05029374361038208, 0.05029374361038208, 0.05029374361038208, 0.05029374361038208, 0.05029374361038208, 0.05029374361038208, 0.05029374361038208, 0.05029374361038208, 0.05029374361038208, 0.05029374361038208, 0.05029374361038208, 0.05029374361038208, 0.05029374361038208, 0.05029374361038208, 0.05029374361038208, 0.05029374361038208, 0.05029374361038208, 0.05029374361038208, 0.05029374361038208, 0.05029374361038208, 0.05029374361038208, 0.05029374361038208, 0.05029374361038208, 0.05029374361038208, 0.05029374361038208, 0.05029374361038208, 0.05029374361038208, 0.05029374361038208, 0.05029374361038208, 0.05029374361038208, 0.05029374361038208, 0.05029374361038208]}, "gradients/graph_3linear.weight": {"_type": "histogram", "values": [1.0, 0.0, 0.0, 0.0, 0.0, 0.0, 0.0, 0.0, 2.0, 0.0, 0.0, 0.0, 1.0, 2.0, 0.0, 0.0, 0.0, 2.0, 0.0, 2.0, 0.0, 1.0, 0.0, 1.0, 0.0, 3.0, 4.0, 4.0, 4.0, 4.0, 4.0, 3.0, 3.0, 2.0, 1.0, 2.0, 1.0, 2.0, 1.0, 0.0, 3.0, 0.0, 0.0, 1.0, 1.0, 0.0, 1.0, 1.0, 1.0, 0.0, 0.0, 0.0, 0.0, 0.0, 0.0, 0.0, 0.0, 1.0, 0.0, 0.0, 0.0, 0.0, 0.0, 1.0], "bins": [-0.018284644931554794, -0.01764814369380474, -0.017011642456054688, -0.016375141218304634, -0.01573863998055458, -0.015102138742804527, -0.014465637505054474, -0.01382913626730442, -0.013192635029554367, -0.012556133791804314, -0.01191963255405426, -0.011283131316304207, -0.010646630078554153, -0.0100101288408041, -0.009373627603054047, -0.008737126365303993, -0.00810062512755394, -0.007464123889803886, -0.006827622652053833, -0.00619112141430378, -0.005554620176553726, -0.004918118938803673, -0.004281617701053619, -0.003645116463303566, -0.0030086152255535126, -0.002372113987803459, -0.0017356127500534058, -0.0010991115123033524, -0.00046261027455329895, 0.00017389096319675446, 0.0008103922009468079, 0.0014468934386968613, 0.0020833946764469147, 0.002719895914196968, 0.0033563971519470215, 0.003992898389697075, 0.004629399627447128, 0.005265900865197182, 0.005902402102947235, 0.0065389033406972885, 0.007175404578447342, 0.007811905816197395, 0.008448407053947449, 0.009084908291697502, 0.009721409529447556, 0.010357910767197609, 0.010994412004947662, 0.011630913242697716, 0.01226741448044777, 0.012903915718197823, 0.013540416955947876, 0.01417691819369793, 0.014813419431447983, 0.015449920669198036, 0.01608642190694809, 0.016722923144698143, 0.017359424382448196, 0.01799592562019825, 0.018632426857948303, 0.019268928095698357, 0.01990542933344841, 0.020541930571198463, 0.021178431808948517, 0.02181493304669857, 0.022451434284448624]}, "gradients/graph_4linear.weight": {"_type": "histogram", "values": [1.0, 0.0, 0.0, 0.0, 0.0, 0.0, 0.0, 0.0, 2.0, 0.0, 0.0, 0.0, 1.0, 2.0, 0.0, 0.0, 0.0, 2.0, 0.0, 2.0, 0.0, 1.0, 0.0, 1.0, 0.0, 3.0, 4.0, 4.0, 4.0, 4.0, 4.0, 3.0, 3.0, 2.0, 1.0, 2.0, 1.0, 2.0, 1.0, 0.0, 3.0, 0.0, 0.0, 1.0, 1.0, 0.0, 1.0, 1.0, 1.0, 0.0, 0.0, 0.0, 0.0, 0.0, 0.0, 0.0, 0.0, 1.0, 0.0, 0.0, 0.0, 0.0, 0.0, 1.0], "bins": [-0.018284644931554794, -0.01764814369380474, -0.017011642456054688, -0.016375141218304634, -0.01573863998055458, -0.015102138742804527, -0.014465637505054474, -0.01382913626730442, -0.013192635029554367, -0.012556133791804314, -0.01191963255405426, -0.011283131316304207, -0.010646630078554153, -0.0100101288408041, -0.009373627603054047, -0.008737126365303993, -0.00810062512755394, -0.007464123889803886, -0.006827622652053833, -0.00619112141430378, -0.005554620176553726, -0.004918118938803673, -0.004281617701053619, -0.003645116463303566, -0.0030086152255535126, -0.002372113987803459, -0.0017356127500534058, -0.0010991115123033524, -0.00046261027455329895, 0.00017389096319675446, 0.0008103922009468079, 0.0014468934386968613, 0.0020833946764469147, 0.002719895914196968, 0.0033563971519470215, 0.003992898389697075, 0.004629399627447128, 0.005265900865197182, 0.005902402102947235, 0.0065389033406972885, 0.007175404578447342, 0.007811905816197395, 0.008448407053947449, 0.009084908291697502, 0.009721409529447556, 0.010357910767197609, 0.010994412004947662, 0.011630913242697716, 0.01226741448044777, 0.012903915718197823, 0.013540416955947876, 0.01417691819369793, 0.014813419431447983, 0.015449920669198036, 0.01608642190694809, 0.016722923144698143, 0.017359424382448196, 0.01799592562019825, 0.018632426857948303, 0.019268928095698357, 0.01990542933344841, 0.020541930571198463, 0.021178431808948517, 0.02181493304669857, 0.022451434284448624]}, "gradients/graph_3lstm.weight_ih_l0": {"_type": "histogram", "values": [1.0, 0.0, 0.0, 2.0, 0.0, 0.0, 0.0, 0.0, 1.0, 0.0, 2.0, 4.0, 4.0, 2.0, 2.0, 3.0, 5.0, 14.0, 46.0, 252.0, 135.0, 38.0, 18.0, 12.0, 11.0, 9.0, 7.0, 3.0, 2.0, 5.0, 4.0, 1.0, 2.0, 0.0, 0.0, 0.0, 0.0, 2.0, 0.0, 0.0, 0.0, 0.0, 1.0, 2.0, 0.0, 0.0, 1.0, 1.0, 0.0, 1.0, 2.0, 0.0, 0.0, 0.0, 3.0, 0.0, 0.0, 0.0, 0.0, 1.0, 0.0, 0.0, 0.0, 1.0], "bins": [-0.00355388130992651, -0.003373011015355587, -0.003192140953615308, -0.003011270659044385, -0.0028304005973041058, -0.002649530302733183, -0.00246866000816226, -0.002287789713591337, -0.002106919651851058, -0.001926049473695457, -0.001745179295539856, -0.001564309000968933, -0.001383438822813332, -0.001202568644657731, -0.0010216983500868082, -0.0008408281719312072, -0.0006599579937756062, -0.0004790877865161747, -0.0002982175792567432, -0.00011734734289348125, 6.352283526211977e-05, 0.0002443930134177208, 0.00042526330798864365, 0.0006061334861442447, 0.0007870036642998457, 0.0009678738424554467, 0.0011487440206110477, 0.0013296143151819706, 0.0015104844933375716, 0.0016913546714931726, 0.0018722249660640955, 0.0020530950278043747, 0.0022339653223752975, 0.0024148356169462204, 0.0025957056786864996, 0.0027765759732574224, 0.0029574460349977016, 0.0031383163295686245, 0.0033191866241395473, 0.00350005691871047, 0.0036809269804507494, 0.0038617972750216722, 0.0040426673367619514, 0.004223537631332874, 0.004404407925903797, 0.00458527822047472, 0.004766148515045643, 0.004947018343955278, 0.005127888638526201, 0.005308758933097124, 0.005489629227668047, 0.0056704990565776825, 0.005851369351148605, 0.006032239645719528, 0.006213109940290451, 0.006393980234861374, 0.006574850529432297, 0.00675572082400322, 0.0069365911185741425, 0.007117461413145065, 0.007298331242054701, 0.007479201536625624, 0.0076600718311965466, 0.007840941660106182, 0.008021811954677105]}, "gradients/graph_4lstm.weight_ih_l0": {"_type": "histogram", "values": [1.0, 0.0, 0.0, 2.0, 0.0, 0.0, 0.0, 0.0, 1.0, 0.0, 2.0, 4.0, 4.0, 2.0, 2.0, 3.0, 5.0, 14.0, 46.0, 252.0, 135.0, 38.0, 18.0, 12.0, 11.0, 9.0, 7.0, 3.0, 2.0, 5.0, 4.0, 1.0, 2.0, 0.0, 0.0, 0.0, 0.0, 2.0, 0.0, 0.0, 0.0, 0.0, 1.0, 2.0, 0.0, 0.0, 1.0, 1.0, 0.0, 1.0, 2.0, 0.0, 0.0, 0.0, 3.0, 0.0, 0.0, 0.0, 0.0, 1.0, 0.0, 0.0, 0.0, 1.0], "bins": [-0.00355388130992651, -0.003373011015355587, -0.003192140953615308, -0.003011270659044385, -0.0028304005973041058, -0.002649530302733183, -0.00246866000816226, -0.002287789713591337, -0.002106919651851058, -0.001926049473695457, -0.001745179295539856, -0.001564309000968933, -0.001383438822813332, -0.001202568644657731, -0.0010216983500868082, -0.0008408281719312072, -0.0006599579937756062, -0.0004790877865161747, -0.0002982175792567432, -0.00011734734289348125, 6.352283526211977e-05, 0.0002443930134177208, 0.00042526330798864365, 0.0006061334861442447, 0.0007870036642998457, 0.0009678738424554467, 0.0011487440206110477, 0.0013296143151819706, 0.0015104844933375716, 0.0016913546714931726, 0.0018722249660640955, 0.0020530950278043747, 0.0022339653223752975, 0.0024148356169462204, 0.0025957056786864996, 0.0027765759732574224, 0.0029574460349977016, 0.0031383163295686245, 0.0033191866241395473, 0.00350005691871047, 0.0036809269804507494, 0.0038617972750216722, 0.0040426673367619514, 0.004223537631332874, 0.004404407925903797, 0.00458527822047472, 0.004766148515045643, 0.004947018343955278, 0.005127888638526201, 0.005308758933097124, 0.005489629227668047, 0.0056704990565776825, 0.005851369351148605, 0.006032239645719528, 0.006213109940290451, 0.006393980234861374, 0.006574850529432297, 0.00675572082400322, 0.0069365911185741425, 0.007117461413145065, 0.007298331242054701, 0.007479201536625624, 0.0076600718311965466, 0.007840941660106182, 0.008021811954677105]}, "gradients/graph_3lstm.bias_ih_l0": {"_type": "histogram", "values": [1.0, 0.0, 0.0, 0.0, 0.0, 0.0, 0.0, 0.0, 0.0, 1.0, 1.0, 1.0, 0.0, 0.0, 0.0, 1.0, 1.0, 1.0, 6.0, 19.0, 42.0, 16.0, 9.0, 3.0, 2.0, 2.0, 2.0, 2.0, 0.0, 2.0, 1.0, 1.0, 1.0, 0.0, 0.0, 0.0, 0.0, 0.0, 0.0, 0.0, 0.0, 0.0, 1.0, 0.0, 0.0, 0.0, 0.0, 0.0, 0.0, 0.0, 1.0, 0.0, 0.0, 0.0, 1.0, 0.0, 0.0, 0.0, 1.0, 0.0, 0.0, 0.0, 0.0, 1.0], "bins": [-0.004337784368544817, -0.004121247213333845, -0.0039047105237841606, -0.0036881733685731888, -0.0034716364461928606, -0.0032550995238125324, -0.0030385623686015606, -0.0028220254462212324, -0.0026054885238409042, -0.002388951601460576, -0.002172414679080248, -0.001955877523869276, -0.0017393406014889479, -0.0015228036791086197, -0.0013062666403129697, -0.0010897296015173197, -0.0008731926791369915, -0.0006566556985490024, -0.0004401187179610133, -0.00022358173737302423, -7.044756785035133e-06, 0.00020949216559529305, 0.00042602920439094305, 0.0006425662431865931, 0.0008591031655669212, 0.0010756400879472494, 0.0012921771267428994, 0.0015087141655385494, 0.0017252510879188776, 0.0019417880102992058, 0.0021583251655101776, 0.002374862087890506, 0.0025913985446095467, 0.002807935466989875, 0.003024472389370203, 0.003241009544581175, 0.003457546466961503, 0.003674083389341831, 0.003890620544552803, 0.004107157699763775, 0.004323694389313459, 0.004540231544524431, 0.004756768234074116, 0.004973305389285088, 0.005189842544496059, 0.005406379234045744, 0.005622916389256716, 0.0058394530788064, 0.006055990234017372, 0.006272527389228344, 0.0064890640787780285, 0.006705601233989, 0.006922137923538685, 0.007138675078749657, 0.0073552122339606285, 0.0075717493891716, 0.007788286078721285, 0.00800482276827097, 0.008221359923481941, 0.008437897078692913, 0.008654434233903885, 0.008870970457792282, 0.009087507613003254, 0.009304044768214226, 0.009520581923425198]}, "gradients/graph_4lstm.bias_ih_l0": {"_type": "histogram", "values": [1.0, 0.0, 0.0, 0.0, 0.0, 0.0, 0.0, 0.0, 0.0, 1.0, 1.0, 1.0, 0.0, 0.0, 0.0, 1.0, 1.0, 1.0, 6.0, 19.0, 42.0, 16.0, 9.0, 3.0, 2.0, 2.0, 2.0, 2.0, 0.0, 2.0, 1.0, 1.0, 1.0, 0.0, 0.0, 0.0, 0.0, 0.0, 0.0, 0.0, 0.0, 0.0, 1.0, 0.0, 0.0, 0.0, 0.0, 0.0, 0.0, 0.0, 1.0, 0.0, 0.0, 0.0, 1.0, 0.0, 0.0, 0.0, 1.0, 0.0, 0.0, 0.0, 0.0, 1.0], "bins": [-0.004337784368544817, -0.004121247213333845, -0.0039047105237841606, -0.0036881733685731888, -0.0034716364461928606, -0.0032550995238125324, -0.0030385623686015606, -0.0028220254462212324, -0.0026054885238409042, -0.002388951601460576, -0.002172414679080248, -0.001955877523869276, -0.0017393406014889479, -0.0015228036791086197, -0.0013062666403129697, -0.0010897296015173197, -0.0008731926791369915, -0.0006566556985490024, -0.0004401187179610133, -0.00022358173737302423, -7.044756785035133e-06, 0.00020949216559529305, 0.00042602920439094305, 0.0006425662431865931, 0.0008591031655669212, 0.0010756400879472494, 0.0012921771267428994, 0.0015087141655385494, 0.0017252510879188776, 0.0019417880102992058, 0.0021583251655101776, 0.002374862087890506, 0.0025913985446095467, 0.002807935466989875, 0.003024472389370203, 0.003241009544581175, 0.003457546466961503, 0.003674083389341831, 0.003890620544552803, 0.004107157699763775, 0.004323694389313459, 0.004540231544524431, 0.004756768234074116, 0.004973305389285088, 0.005189842544496059, 0.005406379234045744, 0.005622916389256716, 0.0058394530788064, 0.006055990234017372, 0.006272527389228344, 0.0064890640787780285, 0.006705601233989, 0.006922137923538685, 0.007138675078749657, 0.0073552122339606285, 0.0075717493891716, 0.007788286078721285, 0.00800482276827097, 0.008221359923481941, 0.008437897078692913, 0.008654434233903885, 0.008870970457792282, 0.009087507613003254, 0.009304044768214226, 0.009520581923425198]}, "gradients/graph_3lstm.bias_ih_l0_reverse": {"_type": "histogram", "values": [1.0, 0.0, 0.0, 1.0, 0.0, 0.0, 1.0, 2.0, 3.0, 5.0, 20.0, 54.0, 11.0, 7.0, 4.0, 2.0, 2.0, 0.0, 0.0, 1.0, 0.0, 0.0, 0.0, 2.0, 0.0, 0.0, 0.0, 1.0, 0.0, 1.0, 0.0, 0.0, 0.0, 0.0, 0.0, 0.0, 0.0, 0.0, 0.0, 0.0, 0.0, 0.0, 0.0, 1.0, 0.0, 0.0, 0.0, 0.0, 0.0, 0.0, 0.0, 0.0, 0.0, 0.0, 0.0, 0.0, 0.0, 0.0, 0.0, 0.0, 0.0, 0.0, 0.0, 1.0], "bins": [-0.004351179115474224, -0.003978264518082142, -0.003605350386351347, -0.0032324360217899084, -0.00285952165722847, -0.0024866072926670313, -0.0021136929281055927, -0.0017407785635441542, -0.0013678641989827156, -0.000994949834421277, -0.0006220354698598385, -0.0002491211052983999, 0.00012379325926303864, 0.0004967076238244772, 0.0008696219883859158, 0.0012425363529473543, 0.0016154507175087929, 0.0019883650820702314, 0.00236127944663167, 0.0027341938111931086, 0.003107108175754547, 0.0034800225403159857, 0.0038529369048774242, 0.004225851036608219, 0.004598765634000301, 0.004971680231392384, 0.0053445943631231785, 0.005717508494853973, 0.006090423092246056, 0.006463337689638138, 0.006836251821368933, 0.007209165953099728, 0.007582079619169235, 0.007954994216561317, 0.0083279088139534, 0.008700822480022907, 0.00907373707741499, 0.009446651674807072, 0.00981956534087658, 0.010192479938268661, 0.010565394535660744, 0.010938309133052826, 0.011311223730444908, 0.011684137396514416, 0.012057051993906498, 0.01242996659129858, 0.012802880257368088, 0.01317579485476017, 0.013548709452152252, 0.013921624049544334, 0.014294538646936417, 0.014667452313005924, 0.015040366910398006, 0.015413281507790089, 0.015786195173859596, 0.01615910977125168, 0.01653202436864376, 0.016904938966035843, 0.017277853563427925, 0.017650768160820007, 0.01802368089556694, 0.018396595492959023, 0.018769510090351105, 0.019142424687743187, 0.01951533928513527]}, "gradients/graph_4lstm.bias_ih_l0_reverse": {"_type": "histogram", "values": [1.0, 0.0, 0.0, 1.0, 0.0, 0.0, 1.0, 2.0, 3.0, 5.0, 20.0, 54.0, 11.0, 7.0, 4.0, 2.0, 2.0, 0.0, 0.0, 1.0, 0.0, 0.0, 0.0, 2.0, 0.0, 0.0, 0.0, 1.0, 0.0, 1.0, 0.0, 0.0, 0.0, 0.0, 0.0, 0.0, 0.0, 0.0, 0.0, 0.0, 0.0, 0.0, 0.0, 1.0, 0.0, 0.0, 0.0, 0.0, 0.0, 0.0, 0.0, 0.0, 0.0, 0.0, 0.0, 0.0, 0.0, 0.0, 0.0, 0.0, 0.0, 0.0, 0.0, 1.0], "bins": [-0.004351179115474224, -0.003978264518082142, -0.003605350386351347, -0.0032324360217899084, -0.00285952165722847, -0.0024866072926670313, -0.0021136929281055927, -0.0017407785635441542, -0.0013678641989827156, -0.000994949834421277, -0.0006220354698598385, -0.0002491211052983999, 0.00012379325926303864, 0.0004967076238244772, 0.0008696219883859158, 0.0012425363529473543, 0.0016154507175087929, 0.0019883650820702314, 0.00236127944663167, 0.0027341938111931086, 0.003107108175754547, 0.0034800225403159857, 0.0038529369048774242, 0.004225851036608219, 0.004598765634000301, 0.004971680231392384, 0.0053445943631231785, 0.005717508494853973, 0.006090423092246056, 0.006463337689638138, 0.006836251821368933, 0.007209165953099728, 0.007582079619169235, 0.007954994216561317, 0.0083279088139534, 0.008700822480022907, 0.00907373707741499, 0.009446651674807072, 0.00981956534087658, 0.010192479938268661, 0.010565394535660744, 0.010938309133052826, 0.011311223730444908, 0.011684137396514416, 0.012057051993906498, 0.01242996659129858, 0.012802880257368088, 0.01317579485476017, 0.013548709452152252, 0.013921624049544334, 0.014294538646936417, 0.014667452313005924, 0.015040366910398006, 0.015413281507790089, 0.015786195173859596, 0.01615910977125168, 0.01653202436864376, 0.016904938966035843, 0.017277853563427925, 0.017650768160820007, 0.01802368089556694, 0.018396595492959023, 0.018769510090351105, 0.019142424687743187, 0.01951533928513527]}, "gradients/graph_3lstm.weight_hh_l0_reverse": {"_type": "histogram", "values": [1.0, 0.0, 0.0, 1.0, 0.0, 0.0, 0.0, 1.0, 0.0, 0.0, 0.0, 0.0, 0.0, 0.0, 0.0, 1.0, 2.0, 3.0, 2.0, 2.0, 1.0, 2.0, 2.0, 5.0, 3.0, 4.0, 4.0, 6.0, 7.0, 20.0, 17.0, 37.0, 70.0, 348.0, 2733.0, 169.0, 64.0, 19.0, 16.0, 18.0, 7.0, 6.0, 4.0, 4.0, 6.0, 2.0, 0.0, 1.0, 0.0, 2.0, 0.0, 1.0, 1.0, 1.0, 0.0, 0.0, 3.0, 0.0, 1.0, 0.0, 1.0, 0.0, 1.0, 1.0], "bins": [-0.006904157809913158, -0.006702840328216553, -0.006501522846519947, -0.006300205364823341, -0.006098887883126736, -0.00589757040143013, -0.005696252454072237, -0.005494934972375631, -0.005293617490679026, -0.00509230000898242, -0.004890982527285814, -0.004689665045589209, -0.004488347098231316, -0.00428702961653471, -0.004085712134838104, -0.0038843946531414986, -0.003683077171444893, -0.003481759689748287, -0.0032804422080516815, -0.003079124493524432, -0.0028778070118278265, -0.002676489530131221, -0.0024751718156039715, -0.002273854333907366, -0.00207253685221076, -0.0018712193705141544, -0.001669901772402227, -0.0014685841742902994, -0.0012672666925936937, -0.001065949210897088, -0.0008646316127851605, -0.000663314014673233, -0.00046199606731534004, -0.00026067852741107345, -5.936098750680685e-05, 0.00014195655239745975, 0.00034327409230172634, 0.000544591573998332, 0.0007459091721102595, 0.000947226770222187, 0.0011485442519187927, 0.0013498617336153984, 0.001551179331727326, 0.0017524969298392534, 0.001953814411535859, 0.002155131893232465, 0.002356449607759714, 0.00255776708945632, 0.0027590845711529255, 0.002960402052849531, 0.003161719534546137, 0.003363037249073386, 0.003564354730769992, 0.0037656722124665976, 0.003966989926993847, 0.004168307408690453, 0.004369624890387058, 0.004570942372083664, 0.00477225985378027, 0.004973577335476875, 0.005174894817173481, 0.005376212298870087, 0.00557753024622798, 0.005778847727924585, 0.005980165209621191]}, "gradients/graph_4lstm.weight_hh_l0_reverse": {"_type": "histogram", "values": [1.0, 0.0, 0.0, 1.0, 0.0, 0.0, 0.0, 1.0, 0.0, 0.0, 0.0, 0.0, 0.0, 0.0, 0.0, 1.0, 2.0, 3.0, 2.0, 2.0, 1.0, 2.0, 2.0, 5.0, 3.0, 4.0, 4.0, 6.0, 7.0, 20.0, 17.0, 37.0, 70.0, 348.0, 2733.0, 169.0, 64.0, 19.0, 16.0, 18.0, 7.0, 6.0, 4.0, 4.0, 6.0, 2.0, 0.0, 1.0, 0.0, 2.0, 0.0, 1.0, 1.0, 1.0, 0.0, 0.0, 3.0, 0.0, 1.0, 0.0, 1.0, 0.0, 1.0, 1.0], "bins": [-0.006904157809913158, -0.006702840328216553, -0.006501522846519947, -0.006300205364823341, -0.006098887883126736, -0.00589757040143013, -0.005696252454072237, -0.005494934972375631, -0.005293617490679026, -0.00509230000898242, -0.004890982527285814, -0.004689665045589209, -0.004488347098231316, -0.00428702961653471, -0.004085712134838104, -0.0038843946531414986, -0.003683077171444893, -0.003481759689748287, -0.0032804422080516815, -0.003079124493524432, -0.0028778070118278265, -0.002676489530131221, -0.0024751718156039715, -0.002273854333907366, -0.00207253685221076, -0.0018712193705141544, -0.001669901772402227, -0.0014685841742902994, -0.0012672666925936937, -0.001065949210897088, -0.0008646316127851605, -0.000663314014673233, -0.00046199606731534004, -0.00026067852741107345, -5.936098750680685e-05, 0.00014195655239745975, 0.00034327409230172634, 0.000544591573998332, 0.0007459091721102595, 0.000947226770222187, 0.0011485442519187927, 0.0013498617336153984, 0.001551179331727326, 0.0017524969298392534, 0.001953814411535859, 0.002155131893232465, 0.002356449607759714, 0.00255776708945632, 0.0027590845711529255, 0.002960402052849531, 0.003161719534546137, 0.003363037249073386, 0.003564354730769992, 0.0037656722124665976, 0.003966989926993847, 0.004168307408690453, 0.004369624890387058, 0.004570942372083664, 0.00477225985378027, 0.004973577335476875, 0.005174894817173481, 0.005376212298870087, 0.00557753024622798, 0.005778847727924585, 0.005980165209621191]}, "gradients/graph_3lstm.bias_hh_l0_reverse": {"_type": "histogram", "values": [1.0, 0.0, 0.0, 1.0, 0.0, 0.0, 1.0, 2.0, 3.0, 5.0, 20.0, 54.0, 11.0, 7.0, 4.0, 2.0, 2.0, 0.0, 0.0, 1.0, 0.0, 0.0, 0.0, 2.0, 0.0, 0.0, 0.0, 1.0, 0.0, 1.0, 0.0, 0.0, 0.0, 0.0, 0.0, 0.0, 0.0, 0.0, 0.0, 0.0, 0.0, 0.0, 0.0, 1.0, 0.0, 0.0, 0.0, 0.0, 0.0, 0.0, 0.0, 0.0, 0.0, 0.0, 0.0, 0.0, 0.0, 0.0, 0.0, 0.0, 0.0, 0.0, 0.0, 1.0], "bins": [-0.004351179115474224, -0.003978264518082142, -0.003605350386351347, -0.0032324360217899084, -0.00285952165722847, -0.0024866072926670313, -0.0021136929281055927, -0.0017407785635441542, -0.0013678641989827156, -0.000994949834421277, -0.0006220354698598385, -0.0002491211052983999, 0.00012379325926303864, 0.0004967076238244772, 0.0008696219883859158, 0.0012425363529473543, 0.0016154507175087929, 0.0019883650820702314, 0.00236127944663167, 0.0027341938111931086, 0.003107108175754547, 0.0034800225403159857, 0.0038529369048774242, 0.004225851036608219, 0.004598765634000301, 0.004971680231392384, 0.0053445943631231785, 0.005717508494853973, 0.006090423092246056, 0.006463337689638138, 0.006836251821368933, 0.007209165953099728, 0.007582079619169235, 0.007954994216561317, 0.0083279088139534, 0.008700822480022907, 0.00907373707741499, 0.009446651674807072, 0.00981956534087658, 0.010192479938268661, 0.010565394535660744, 0.010938309133052826, 0.011311223730444908, 0.011684137396514416, 0.012057051993906498, 0.01242996659129858, 0.012802880257368088, 0.01317579485476017, 0.013548709452152252, 0.013921624049544334, 0.014294538646936417, 0.014667452313005924, 0.015040366910398006, 0.015413281507790089, 0.015786195173859596, 0.01615910977125168, 0.01653202436864376, 0.016904938966035843, 0.017277853563427925, 0.017650768160820007, 0.01802368089556694, 0.018396595492959023, 0.018769510090351105, 0.019142424687743187, 0.01951533928513527]}, "gradients/graph_4lstm.bias_hh_l0_reverse": {"_type": "histogram", "values": [1.0, 0.0, 0.0, 1.0, 0.0, 0.0, 1.0, 2.0, 3.0, 5.0, 20.0, 54.0, 11.0, 7.0, 4.0, 2.0, 2.0, 0.0, 0.0, 1.0, 0.0, 0.0, 0.0, 2.0, 0.0, 0.0, 0.0, 1.0, 0.0, 1.0, 0.0, 0.0, 0.0, 0.0, 0.0, 0.0, 0.0, 0.0, 0.0, 0.0, 0.0, 0.0, 0.0, 1.0, 0.0, 0.0, 0.0, 0.0, 0.0, 0.0, 0.0, 0.0, 0.0, 0.0, 0.0, 0.0, 0.0, 0.0, 0.0, 0.0, 0.0, 0.0, 0.0, 1.0], "bins": [-0.004351179115474224, -0.003978264518082142, -0.003605350386351347, -0.0032324360217899084, -0.00285952165722847, -0.0024866072926670313, -0.0021136929281055927, -0.0017407785635441542, -0.0013678641989827156, -0.000994949834421277, -0.0006220354698598385, -0.0002491211052983999, 0.00012379325926303864, 0.0004967076238244772, 0.0008696219883859158, 0.0012425363529473543, 0.0016154507175087929, 0.0019883650820702314, 0.00236127944663167, 0.0027341938111931086, 0.003107108175754547, 0.0034800225403159857, 0.0038529369048774242, 0.004225851036608219, 0.004598765634000301, 0.004971680231392384, 0.0053445943631231785, 0.005717508494853973, 0.006090423092246056, 0.006463337689638138, 0.006836251821368933, 0.007209165953099728, 0.007582079619169235, 0.007954994216561317, 0.0083279088139534, 0.008700822480022907, 0.00907373707741499, 0.009446651674807072, 0.00981956534087658, 0.010192479938268661, 0.010565394535660744, 0.010938309133052826, 0.011311223730444908, 0.011684137396514416, 0.012057051993906498, 0.01242996659129858, 0.012802880257368088, 0.01317579485476017, 0.013548709452152252, 0.013921624049544334, 0.014294538646936417, 0.014667452313005924, 0.015040366910398006, 0.015413281507790089, 0.015786195173859596, 0.01615910977125168, 0.01653202436864376, 0.016904938966035843, 0.017277853563427925, 0.017650768160820007, 0.01802368089556694, 0.018396595492959023, 0.018769510090351105, 0.019142424687743187, 0.01951533928513527]}, "gradients/graph_3lstm.weight_ih_l0_reverse": {"_type": "histogram", "values": [1.0, 0.0, 0.0, 0.0, 0.0, 0.0, 0.0, 0.0, 0.0, 1.0, 0.0, 1.0, 0.0, 3.0, 3.0, 1.0, 4.0, 3.0, 14.0, 23.0, 91.0, 346.0, 44.0, 15.0, 13.0, 7.0, 7.0, 0.0, 2.0, 4.0, 2.0, 1.0, 2.0, 3.0, 2.0, 0.0, 0.0, 0.0, 0.0, 0.0, 0.0, 0.0, 0.0, 2.0, 1.0, 1.0, 0.0, 0.0, 0.0, 0.0, 0.0, 0.0, 0.0, 0.0, 0.0, 0.0, 1.0, 0.0, 0.0, 1.0, 0.0, 0.0, 0.0, 1.0], "bins": [-0.007462498266249895, -0.007115123327821493, -0.006767748389393091, -0.006420373450964689, -0.006072998512536287, -0.005725623574107885, -0.005378248170018196, -0.005030873231589794, -0.004683498293161392, -0.00433612335473299, -0.003988748416304588, -0.0036413734778761864, -0.0032939985394477844, -0.0029466236010193825, -0.002599248429760337, -0.002251873491331935, -0.0019044987857341766, -0.0015571238473057747, -0.0012097489088773727, -0.000862373854033649, -0.000514998915605247, -0.00016762397717684507, 0.0001797510776668787, 0.0005271260160952806, 0.0008745009545236826, 0.0012218758929520845, 0.0015692508313804865, 0.0019166258862242103, 0.002264000941067934, 0.002611375879496336, 0.002958750817924738, 0.00330612575635314, 0.003653501160442829, 0.004000876098871231, 0.004348251037299633, 0.004695625975728035, 0.005043000914156437, 0.005390375852584839, 0.005737750791013241, 0.006085125729441643, 0.006432500667870045, 0.006779875606298447, 0.007127250544726849, 0.0074746254831552505, 0.007822000421583652, 0.008169375360012054, 0.008516750298440456, 0.008864125236868858, 0.009211501106619835, 0.009558876045048237, 0.009906250983476639, 0.01025362592190504, 0.010601000860333443, 0.010948375798761845, 0.011295750737190247, 0.011643125675618649, 0.01199050061404705, 0.012337875552475452, 0.012685250490903854, 0.013032625429332256, 0.013380000367760658, 0.01372737530618906, 0.014074750244617462, 0.014422125183045864, 0.014769500121474266]}, "gradients/graph_4lstm.weight_ih_l0_reverse": {"_type": "histogram", "values": [1.0, 0.0, 0.0, 0.0, 0.0, 0.0, 0.0, 0.0, 0.0, 1.0, 0.0, 1.0, 0.0, 3.0, 3.0, 1.0, 4.0, 3.0, 14.0, 23.0, 91.0, 346.0, 44.0, 15.0, 13.0, 7.0, 7.0, 0.0, 2.0, 4.0, 2.0, 1.0, 2.0, 3.0, 2.0, 0.0, 0.0, 0.0, 0.0, 0.0, 0.0, 0.0, 0.0, 2.0, 1.0, 1.0, 0.0, 0.0, 0.0, 0.0, 0.0, 0.0, 0.0, 0.0, 0.0, 0.0, 1.0, 0.0, 0.0, 1.0, 0.0, 0.0, 0.0, 1.0], "bins": [-0.007462498266249895, -0.007115123327821493, -0.006767748389393091, -0.006420373450964689, -0.006072998512536287, -0.005725623574107885, -0.005378248170018196, -0.005030873231589794, -0.004683498293161392, -0.00433612335473299, -0.003988748416304588, -0.0036413734778761864, -0.0032939985394477844, -0.0029466236010193825, -0.002599248429760337, -0.002251873491331935, -0.0019044987857341766, -0.0015571238473057747, -0.0012097489088773727, -0.000862373854033649, -0.000514998915605247, -0.00016762397717684507, 0.0001797510776668787, 0.0005271260160952806, 0.0008745009545236826, 0.0012218758929520845, 0.0015692508313804865, 0.0019166258862242103, 0.002264000941067934, 0.002611375879496336, 0.002958750817924738, 0.00330612575635314, 0.003653501160442829, 0.004000876098871231, 0.004348251037299633, 0.004695625975728035, 0.005043000914156437, 0.005390375852584839, 0.005737750791013241, 0.006085125729441643, 0.006432500667870045, 0.006779875606298447, 0.007127250544726849, 0.0074746254831552505, 0.007822000421583652, 0.008169375360012054, 0.008516750298440456, 0.008864125236868858, 0.009211501106619835, 0.009558876045048237, 0.009906250983476639, 0.01025362592190504, 0.010601000860333443, 0.010948375798761845, 0.011295750737190247, 0.011643125675618649, 0.01199050061404705, 0.012337875552475452, 0.012685250490903854, 0.013032625429332256, 0.013380000367760658, 0.01372737530618906, 0.014074750244617462, 0.014422125183045864, 0.014769500121474266]}, "gradients/graph_3lstm.weight_hh_l0": {"_type": "histogram", "values": [1.0, 2.0, 0.0, 1.0, 0.0, 5.0, 1.0, 5.0, 3.0, 2.0, 2.0, 3.0, 2.0, 7.0, 12.0, 12.0, 14.0, 23.0, 32.0, 45.0, 80.0, 176.0, 771.0, 1715.0, 278.0, 143.0, 65.0, 54.0, 32.0, 18.0, 20.0, 9.0, 8.0, 7.0, 4.0, 7.0, 4.0, 7.0, 4.0, 5.0, 0.0, 3.0, 1.0, 2.0, 1.0, 3.0, 1.0, 0.0, 3.0, 1.0, 1.0, 1.0, 0.0, 0.0, 1.0, 0.0, 0.0, 1.0, 0.0, 0.0, 0.0, 1.0, 0.0, 1.0], "bins": [-0.0019082077778875828, -0.0018255840986967087, -0.0017429605359211564, -0.0016603369731456041, -0.00157771329395473, -0.001495089614763856, -0.0014124660519883037, -0.0013298424892127514, -0.0012472188100218773, -0.0011645951308310032, -0.001081971568055451, -0.0009993480052798986, -0.0009167243260890245, -0.0008341007051058114, -0.0007514770841225982, -0.000668853463139385, -0.0005862298421561718, -0.0005036062211729586, -0.0004209826001897454, -0.00033835897920653224, -0.00025573535822331905, -0.00017311173724010587, -9.048811625689268e-05, -7.864495273679495e-06, 7.475912570953369e-05, 0.00015738274669274688, 0.00024000636767596006, 0.00032262998865917325, 0.00040525360964238644, 0.0004878772306255996, 0.0005705008516088128, 0.000653124472592026, 0.0007357478607445955, 0.0008183714817278087, 0.0009009951027110219, 0.0009836186654865742, 0.0010662423446774483, 0.0011488660238683224, 0.0012314895866438746, 0.001314113149419427, 0.001396736828610301, 0.0014793605078011751, 0.0015619840705767274, 0.0016446076333522797, 0.0017272313125431538, 0.0018098549917340279, 0.0018924785545095801, 0.0019751021172851324, 0.0020577257964760065, 0.0021403494756668806, 0.002222972922027111, 0.002305596601217985, 0.0023882202804088593, 0.0024708439595997334, 0.0025534676387906075, 0.002636091085150838, 0.002718714764341712, 0.002801338443532586, 0.0028839618898928165, 0.0029665855690836906, 0.0030492092482745647, 0.003131832927465439, 0.003214456606656313, 0.0032970800530165434, 0.0033797037322074175]}, "gradients/graph_4lstm.weight_hh_l0": {"_type": "histogram", "values": [1.0, 2.0, 0.0, 1.0, 0.0, 5.0, 1.0, 5.0, 3.0, 2.0, 2.0, 3.0, 2.0, 7.0, 12.0, 12.0, 14.0, 23.0, 32.0, 45.0, 80.0, 176.0, 771.0, 1715.0, 278.0, 143.0, 65.0, 54.0, 32.0, 18.0, 20.0, 9.0, 8.0, 7.0, 4.0, 7.0, 4.0, 7.0, 4.0, 5.0, 0.0, 3.0, 1.0, 2.0, 1.0, 3.0, 1.0, 0.0, 3.0, 1.0, 1.0, 1.0, 0.0, 0.0, 1.0, 0.0, 0.0, 1.0, 0.0, 0.0, 0.0, 1.0, 0.0, 1.0], "bins": [-0.0019082077778875828, -0.0018255840986967087, -0.0017429605359211564, -0.0016603369731456041, -0.00157771329395473, -0.001495089614763856, -0.0014124660519883037, -0.0013298424892127514, -0.0012472188100218773, -0.0011645951308310032, -0.001081971568055451, -0.0009993480052798986, -0.0009167243260890245, -0.0008341007051058114, -0.0007514770841225982, -0.000668853463139385, -0.0005862298421561718, -0.0005036062211729586, -0.0004209826001897454, -0.00033835897920653224, -0.00025573535822331905, -0.00017311173724010587, -9.048811625689268e-05, -7.864495273679495e-06, 7.475912570953369e-05, 0.00015738274669274688, 0.00024000636767596006, 0.00032262998865917325, 0.00040525360964238644, 0.0004878772306255996, 0.0005705008516088128, 0.000653124472592026, 0.0007357478607445955, 0.0008183714817278087, 0.0009009951027110219, 0.0009836186654865742, 0.0010662423446774483, 0.0011488660238683224, 0.0012314895866438746, 0.001314113149419427, 0.001396736828610301, 0.0014793605078011751, 0.0015619840705767274, 0.0016446076333522797, 0.0017272313125431538, 0.0018098549917340279, 0.0018924785545095801, 0.0019751021172851324, 0.0020577257964760065, 0.0021403494756668806, 0.002222972922027111, 0.002305596601217985, 0.0023882202804088593, 0.0024708439595997334, 0.0025534676387906075, 0.002636091085150838, 0.002718714764341712, 0.002801338443532586, 0.0028839618898928165, 0.0029665855690836906, 0.0030492092482745647, 0.003131832927465439, 0.003214456606656313, 0.0032970800530165434, 0.0033797037322074175]}, "gradients/graph_3lstm.bias_hh_l0": {"_type": "histogram", "values": [1.0, 0.0, 0.0, 0.0, 0.0, 0.0, 0.0, 0.0, 0.0, 1.0, 1.0, 1.0, 0.0, 0.0, 0.0, 1.0, 1.0, 1.0, 6.0, 19.0, 42.0, 16.0, 9.0, 3.0, 2.0, 2.0, 2.0, 2.0, 0.0, 2.0, 1.0, 1.0, 1.0, 0.0, 0.0, 0.0, 0.0, 0.0, 0.0, 0.0, 0.0, 0.0, 1.0, 0.0, 0.0, 0.0, 0.0, 0.0, 0.0, 0.0, 1.0, 0.0, 0.0, 0.0, 1.0, 0.0, 0.0, 0.0, 1.0, 0.0, 0.0, 0.0, 0.0, 1.0], "bins": [-0.004337784368544817, -0.004121247213333845, -0.0039047105237841606, -0.0036881733685731888, -0.0034716364461928606, -0.0032550995238125324, -0.0030385623686015606, -0.0028220254462212324, -0.0026054885238409042, -0.002388951601460576, -0.002172414679080248, -0.001955877523869276, -0.0017393406014889479, -0.0015228036791086197, -0.0013062666403129697, -0.0010897296015173197, -0.0008731926791369915, -0.0006566556985490024, -0.0004401187179610133, -0.00022358173737302423, -7.044756785035133e-06, 0.00020949216559529305, 0.00042602920439094305, 0.0006425662431865931, 0.0008591031655669212, 0.0010756400879472494, 0.0012921771267428994, 0.0015087141655385494, 0.0017252510879188776, 0.0019417880102992058, 0.0021583251655101776, 0.002374862087890506, 0.0025913985446095467, 0.002807935466989875, 0.003024472389370203, 0.003241009544581175, 0.003457546466961503, 0.003674083389341831, 0.003890620544552803, 0.004107157699763775, 0.004323694389313459, 0.004540231544524431, 0.004756768234074116, 0.004973305389285088, 0.005189842544496059, 0.005406379234045744, 0.005622916389256716, 0.0058394530788064, 0.006055990234017372, 0.006272527389228344, 0.0064890640787780285, 0.006705601233989, 0.006922137923538685, 0.007138675078749657, 0.0073552122339606285, 0.0075717493891716, 0.007788286078721285, 0.00800482276827097, 0.008221359923481941, 0.008437897078692913, 0.008654434233903885, 0.008870970457792282, 0.009087507613003254, 0.009304044768214226, 0.009520581923425198]}, "gradients/graph_4lstm.bias_hh_l0": {"_type": "histogram", "values": [1.0, 0.0, 0.0, 0.0, 0.0, 0.0, 0.0, 0.0, 0.0, 1.0, 1.0, 1.0, 0.0, 0.0, 0.0, 1.0, 1.0, 1.0, 6.0, 19.0, 42.0, 16.0, 9.0, 3.0, 2.0, 2.0, 2.0, 2.0, 0.0, 2.0, 1.0, 1.0, 1.0, 0.0, 0.0, 0.0, 0.0, 0.0, 0.0, 0.0, 0.0, 0.0, 1.0, 0.0, 0.0, 0.0, 0.0, 0.0, 0.0, 0.0, 1.0, 0.0, 0.0, 0.0, 1.0, 0.0, 0.0, 0.0, 1.0, 0.0, 0.0, 0.0, 0.0, 1.0], "bins": [-0.004337784368544817, -0.004121247213333845, -0.0039047105237841606, -0.0036881733685731888, -0.0034716364461928606, -0.0032550995238125324, -0.0030385623686015606, -0.0028220254462212324, -0.0026054885238409042, -0.002388951601460576, -0.002172414679080248, -0.001955877523869276, -0.0017393406014889479, -0.0015228036791086197, -0.0013062666403129697, -0.0010897296015173197, -0.0008731926791369915, -0.0006566556985490024, -0.0004401187179610133, -0.00022358173737302423, -7.044756785035133e-06, 0.00020949216559529305, 0.00042602920439094305, 0.0006425662431865931, 0.0008591031655669212, 0.0010756400879472494, 0.0012921771267428994, 0.0015087141655385494, 0.0017252510879188776, 0.0019417880102992058, 0.0021583251655101776, 0.002374862087890506, 0.0025913985446095467, 0.002807935466989875, 0.003024472389370203, 0.003241009544581175, 0.003457546466961503, 0.003674083389341831, 0.003890620544552803, 0.004107157699763775, 0.004323694389313459, 0.004540231544524431, 0.004756768234074116, 0.004973305389285088, 0.005189842544496059, 0.005406379234045744, 0.005622916389256716, 0.0058394530788064, 0.006055990234017372, 0.006272527389228344, 0.0064890640787780285, 0.006705601233989, 0.006922137923538685, 0.007138675078749657, 0.0073552122339606285, 0.0075717493891716, 0.007788286078721285, 0.00800482276827097, 0.008221359923481941, 0.008437897078692913, 0.008654434233903885, 0.008870970457792282, 0.009087507613003254, 0.009304044768214226, 0.009520581923425198]}, "loss": 0.008139656664317717, "_step": 99, "_wandb": {"runtime": 31}}