{"parameters/graph_5lstm.weight_ih_l0": {"_type": "histogram", "values": [4.0, 2.0, 3.0, 5.0, 7.0, 13.0, 7.0, 9.0, 7.0, 8.0, 15.0, 14.0, 14.0, 6.0, 5.0, 12.0, 15.0, 9.0, 11.0, 10.0, 8.0, 9.0, 12.0, 12.0, 16.0, 13.0, 15.0, 10.0, 8.0, 8.0, 9.0, 8.0, 11.0, 7.0, 6.0, 12.0, 15.0, 8.0, 11.0, 9.0, 8.0, 11.0, 10.0, 9.0, 7.0, 16.0, 11.0, 10.0, 14.0, 9.0, 11.0, 8.0, 10.0, 15.0, 8.0, 7.0, 12.0, 8.0, 8.0, 4.0, 8.0, 4.0, 5.0, 4.0], "bins": [-0.1978643536567688, -0.1916647106409073, -0.18546506762504578, -0.17926543951034546, -0.17306579649448395, -0.16686615347862244, -0.16066651046276093, -0.15446686744689941, -0.1482672244310379, -0.1420675814151764, -0.13586793839931488, -0.12966829538345337, -0.12346865981817245, -0.11726902425289154, -0.11106938123703003, -0.10486973822116852, -0.0986701026558876, -0.09247045964002609, -0.08627082407474518, -0.08007118105888367, -0.07387153804302216, -0.06767189502716064, -0.06147225946187973, -0.05527261644601822, -0.049072977155447006, -0.04287333786487579, -0.03667369484901428, -0.03047405555844307, -0.024274414405226707, -0.018074773252010345, -0.011875133961439133, -0.0056754909455776215, 0.0005241483449935913, 0.006723789032548666, 0.01292342972010374, 0.019123069941997528, 0.02532271109521389, 0.03152235224843025, 0.037721991539001465, 0.043921634554862976, 0.05012127384543419, 0.0563209131360054, 0.06252055615186691, 0.06872019171714783, 0.07491983473300934, 0.08111947774887085, 0.08731912076473236, 0.09351876378059387, 0.09971839934587479, 0.1059180423617363, 0.11211767792701721, 0.11831732094287872, 0.12451696395874023, 0.13071660697460175, 0.13691624999046326, 0.14311587810516357, 0.14931552112102509, 0.1555151641368866, 0.1617148071527481, 0.16791445016860962, 0.17411407828330994, 0.18031372129917145, 0.18651336431503296, 0.19271300733089447, 0.19891265034675598]}, "_timestamp": 1650850415, "_runtime": 6, "parameters/graph_5lstm.weight_hh_l0": {"_type": "histogram", "values": [18.0, 25.0, 23.0, 42.0, 45.0, 57.0, 67.0, 53.0, 59.0, 52.0, 61.0, 53.0, 67.0, 46.0, 64.0, 61.0, 54.0, 49.0, 53.0, 57.0, 67.0, 60.0, 76.0, 59.0, 50.0, 66.0, 55.0, 75.0, 47.0, 66.0, 59.0, 66.0, 62.0, 71.0, 58.0, 82.0, 72.0, 51.0, 61.0, 67.0, 63.0, 67.0, 45.0, 59.0, 65.0, 65.0, 63.0, 60.0, 66.0, 59.0, 71.0, 68.0, 63.0, 55.0, 58.0, 69.0, 49.0, 50.0, 65.0, 48.0, 46.0, 33.0, 23.0, 14.0], "bins": [-0.2000792771577835, -0.1938767284154892, -0.18767417967319489, -0.18147164583206177, -0.17526909708976746, -0.16906654834747314, -0.16286399960517883, -0.15666145086288452, -0.1504589021205902, -0.1442563533782959, -0.1380538046360016, -0.13185125589370728, -0.12564872205257416, -0.11944617331027985, -0.11324362456798553, -0.10704107582569122, -0.1008385419845581, -0.0946359932422638, -0.08843345195055008, -0.08223090320825577, -0.07602836191654205, -0.06982581317424774, -0.06362326443195343, -0.05742071941494942, -0.051218174397945404, -0.04501562938094139, -0.03881308436393738, -0.032610535621643066, -0.026407990604639053, -0.02020544558763504, -0.014002896845340729, -0.007800351828336716, -0.0015978217124938965, 0.004604724235832691, 0.010807270184159279, 0.01700981706380844, 0.023212362080812454, 0.029414907097816467, 0.03561745584011078, 0.04182000085711479, 0.048022545874118805, 0.05422509089112282, 0.06042763590812683, 0.06663018465042114, 0.07283273339271545, 0.07903527468442917, 0.08523782342672348, 0.0914403647184372, 0.0976429134607315, 0.10384546220302582, 0.11004800349473953, 0.11625055223703384, 0.12245309352874756, 0.12865564227104187, 0.13485819101333618, 0.1410607397556305, 0.1472632884979248, 0.15346583724021912, 0.15966838598251343, 0.16587093472480774, 0.17207346856594086, 0.17827601730823517, 0.18447856605052948, 0.1906811147928238, 0.1968836486339569]}, "parameters/graph_5lstm.bias_ih_l0": {"_type": "histogram", "values": [1.0, 1.0, 2.0, 2.0, 3.0, 4.0, 3.0, 3.0, 3.0, 0.0, 2.0, 5.0, 1.0, 1.0, 1.0, 0.0, 2.0, 1.0, 0.0, 3.0, 1.0, 1.0, 3.0, 3.0, 1.0, 1.0, 1.0, 1.0, 3.0, 3.0, 1.0, 1.0, 1.0, 3.0, 3.0, 2.0, 2.0, 4.0, 1.0, 3.0, 0.0, 2.0, 0.0, 5.0, 1.0, 3.0, 2.0, 2.0, 1.0, 3.0, 1.0, 3.0, 2.0, 2.0, 0.0, 1.0, 1.0, 4.0, 3.0, 2.0, 2.0, 1.0, 1.0, 1.0], "bins": [-0.1885782778263092, -0.18262940645217896, -0.1766805201768875, -0.17073164880275726, -0.16478277742862701, -0.15883389115333557, -0.15288501977920532, -0.14693614840507507, -0.14098727703094482, -0.13503840565681458, -0.12908951938152313, -0.12314064800739288, -0.11719177663326263, -0.11124289780855179, -0.10529401898384094, -0.0993451476097107, -0.09339626133441925, -0.0874473825097084, -0.08149851113557816, -0.07554963231086731, -0.06960076093673706, -0.06365188211202621, -0.05770300328731537, -0.05175412818789482, -0.045805253088474274, -0.039856377989053726, -0.03390750288963318, -0.027958624064922333, -0.022009748965501785, -0.016060873866081238, -0.010111995041370392, -0.004163119941949844, 0.001785770058631897, 0.007734646089375019, 0.013683522120118141, 0.019632399082183838, 0.025581274181604385, 0.03153014928102493, 0.03747902810573578, 0.043427903205156326, 0.049376778304576874, 0.05532565340399742, 0.06127452850341797, 0.06722340732812881, 0.07317228615283966, 0.07912115752696991, 0.08507003635168076, 0.0910189151763916, 0.09696778655052185, 0.1029166653752327, 0.10886553674936295, 0.11481441557407379, 0.12076328694820404, 0.12671217322349548, 0.13266104459762573, 0.13860991597175598, 0.14455878734588623, 0.15050765872001648, 0.15645654499530792, 0.16240541636943817, 0.16835428774356842, 0.17430317401885986, 0.1802520453929901, 0.18620091676712036, 0.1921498030424118]}, "parameters/graph_5lstm.bias_hh_l0": {"_type": "histogram", "values": [2.0, 1.0, 1.0, 0.0, 0.0, 0.0, 1.0, 3.0, 2.0, 3.0, 3.0, 4.0, 2.0, 0.0, 3.0, 1.0, 2.0, 2.0, 2.0, 1.0, 2.0, 3.0, 2.0, 2.0, 2.0, 2.0, 3.0, 3.0, 1.0, 2.0, 1.0, 1.0, 2.0, 2.0, 1.0, 5.0, 3.0, 2.0, 4.0, 2.0, 3.0, 4.0, 1.0, 2.0, 3.0, 0.0, 0.0, 3.0, 2.0, 2.0, 2.0, 1.0, 1.0, 2.0, 2.0, 1.0, 2.0, 2.0, 1.0, 1.0, 2.0, 0.0, 2.0, 3.0], "bins": [-0.1866794228553772, -0.18107089400291443, -0.17546236515045166, -0.1698538362979889, -0.16424530744552612, -0.15863677859306335, -0.15302824974060059, -0.14741972088813782, -0.14181119203567505, -0.13620266318321228, -0.1305941343307495, -0.12498560547828674, -0.11937707662582397, -0.1137685477733612, -0.10816002637147903, -0.10255149751901627, -0.0969429761171341, -0.09133444726467133, -0.08572591841220856, -0.08011738955974579, -0.07450886070728302, -0.06890033185482025, -0.06329181045293808, -0.05768328160047531, -0.05207475274801254, -0.046466223895549774, -0.040857695043087006, -0.035249169915914536, -0.029640641063451767, -0.024032112210989, -0.01842358708381653, -0.01281505823135376, -0.007206529378890991, -0.0015980014577507973, 0.004010526463389397, 0.009619053453207016, 0.015227582305669785, 0.020836111158132553, 0.026444636285305023, 0.03205316513776779, 0.03766169399023056, 0.04327022284269333, 0.0488787516951561, 0.05448727682232857, 0.060095805674791336, 0.0657043308019638, 0.07131285965442657, 0.07692138850688934, 0.08252991735935211, 0.08813844621181488, 0.09374697506427765, 0.09935550391674042, 0.10496403276920319, 0.11057256162166595, 0.11618108302354813, 0.1217896118760109, 0.12739813327789307, 0.13300666213035583, 0.1386151909828186, 0.14422371983528137, 0.14983224868774414, 0.1554407775402069, 0.16104930639266968, 0.16665783524513245, 0.17226636409759521]}, "parameters/graph_5lstm.weight_ih_l0_reverse": {"_type": "histogram", "values": [2.0, 3.0, 0.0, 3.0, 7.0, 12.0, 12.0, 7.0, 11.0, 12.0, 8.0, 12.0, 11.0, 13.0, 11.0, 14.0, 9.0, 9.0, 10.0, 6.0, 9.0, 10.0, 9.0, 12.0, 8.0, 9.0, 13.0, 6.0, 8.0, 7.0, 6.0, 17.0, 15.0, 13.0, 14.0, 2.0, 9.0, 7.0, 13.0, 4.0, 11.0, 10.0, 14.0, 8.0, 12.0, 10.0, 11.0, 10.0, 8.0, 15.0, 9.0, 6.0, 8.0, 15.0, 14.0, 13.0, 9.0, 11.0, 10.0, 12.0, 8.0, 7.0, 3.0, 3.0], "bins": [-0.20012865960597992, -0.19390152394771576, -0.1876743882894516, -0.18144725263118744, -0.17522011697292328, -0.16899298131465912, -0.16276583075523376, -0.1565386950969696, -0.15031155943870544, -0.14408442378044128, -0.13785728812217712, -0.13163015246391296, -0.1254030168056488, -0.11917588114738464, -0.11294873803853989, -0.10672160238027573, -0.10049447417259216, -0.094267338514328, -0.08804020285606384, -0.08181306719779968, -0.07558593153953552, -0.06935879588127136, -0.0631316527724266, -0.056904517114162445, -0.050677381455898285, -0.044450245797634125, -0.038223110139369965, -0.031995970755815506, -0.025768835097551346, -0.019541699439287186, -0.013314560055732727, -0.007087424397468567, -0.0008602738380432129, 0.005366862751543522, 0.011593999341130257, 0.017821136862039566, 0.024048272520303726, 0.030275408178567886, 0.036502547562122345, 0.042729683220386505, 0.048956818878650665, 0.055183954536914825, 0.061411090195178986, 0.06763823330402374, 0.0738653689622879, 0.08009250462055206, 0.08631964027881622, 0.09254677593708038, 0.09877391159534454, 0.1050010472536087, 0.11122818291187286, 0.11745531857013702, 0.12368245422840118, 0.12990958988666534, 0.1361367404460907, 0.14236387610435486, 0.14859101176261902, 0.15481814742088318, 0.16104528307914734, 0.1672724187374115, 0.17349955439567566, 0.17972669005393982, 0.18595382571220398, 0.19218096137046814, 0.1984080970287323]}, "parameters/graph_5lstm.weight_hh_l0_reverse": {"_type": "histogram", "values": [12.0, 19.0, 27.0, 36.0, 48.0, 72.0, 64.0, 48.0, 64.0, 70.0, 62.0, 64.0, 48.0, 67.0, 58.0, 60.0, 60.0, 60.0, 69.0, 48.0, 48.0, 58.0, 51.0, 77.0, 55.0, 68.0, 72.0, 62.0, 51.0, 66.0, 51.0, 62.0, 61.0, 56.0, 61.0, 70.0, 45.0, 59.0, 71.0, 61.0, 46.0, 61.0, 63.0, 64.0, 75.0, 63.0, 65.0, 61.0, 53.0, 68.0, 69.0, 59.0, 77.0, 68.0, 73.0, 55.0, 42.0, 59.0, 57.0, 39.0, 36.0, 37.0, 36.0, 13.0], "bins": [-0.1988462507724762, -0.19262194633483887, -0.18639764189720154, -0.1801733374595642, -0.17394903302192688, -0.16772472858428955, -0.16150042414665222, -0.1552761197090149, -0.14905181527137756, -0.14282751083374023, -0.1366032063961029, -0.13037890195846558, -0.12415459752082825, -0.11793029308319092, -0.11170598864555359, -0.10548168420791626, -0.09925738722085953, -0.0930330827832222, -0.08680877834558487, -0.08058447390794754, -0.07436016947031021, -0.06813586503267288, -0.06191156432032585, -0.05568725988268852, -0.04946295544505119, -0.043238651007413864, -0.037014346569776535, -0.030790043994784355, -0.024565739557147026, -0.018341435119509697, -0.012117132544517517, -0.005892828106880188, 0.0003314763307571411, 0.006555780302733183, 0.012780084274709225, 0.01900438778102398, 0.02522869221866131, 0.03145299851894379, 0.03767729923129082, 0.043901603668928146, 0.050125908106565475, 0.056350212544202805, 0.06257451325654984, 0.06879881769418716, 0.0750231221318245, 0.08124742656946182, 0.08747173100709915, 0.09369603544473648, 0.09992033988237381, 0.10614464432001114, 0.11236894875764847, 0.1185932531952858, 0.12481755763292313, 0.13104185461997986, 0.1372661590576172, 0.14349046349525452, 0.14971476793289185, 0.15593907237052917, 0.1621633768081665, 0.16838768124580383, 0.17461198568344116, 0.1808362901210785, 0.18706059455871582, 0.19328489899635315, 0.19950920343399048]}, "parameters/graph_5lstm.bias_ih_l0_reverse": {"_type": "histogram", "values": [2.0, 0.0, 3.0, 2.0, 1.0, 2.0, 3.0, 6.0, 4.0, 0.0, 1.0, 3.0, 3.0, 2.0, 2.0, 1.0, 0.0, 1.0, 1.0, 4.0, 2.0, 3.0, 2.0, 2.0, 1.0, 1.0, 3.0, 3.0, 0.0, 0.0, 1.0, 1.0, 0.0, 1.0, 0.0, 2.0, 1.0, 2.0, 2.0, 2.0, 4.0, 0.0, 1.0, 2.0, 4.0, 0.0, 1.0, 2.0, 2.0, 1.0, 3.0, 0.0, 4.0, 4.0, 1.0, 1.0, 5.0, 6.0, 3.0, 1.0, 2.0, 1.0, 0.0, 2.0], "bins": [-0.16707265377044678, -0.16161561012268066, -0.15615858137607574, -0.15070153772830963, -0.1452445089817047, -0.1397874653339386, -0.13433042168617249, -0.12887339293956757, -0.12341634929180145, -0.11795931309461594, -0.11250227689743042, -0.1070452332496643, -0.10158819705247879, -0.09613116085529327, -0.09067412465810776, -0.08521708846092224, -0.07976005226373672, -0.07430301606655121, -0.06884597986936569, -0.06338894367218018, -0.05793190002441406, -0.052474863827228546, -0.04701782763004303, -0.041560787707567215, -0.0361037515103817, -0.030646713450551033, -0.025189675390720367, -0.01973263919353485, -0.014275601133704185, -0.00881856307387352, -0.0033615268766880035, 0.0020955130457878113, 0.007552549242973328, 0.013009587302803993, 0.01846662536263466, 0.023923661559820175, 0.02938069961965084, 0.034837737679481506, 0.04029477387666702, 0.04575181379914284, 0.051208849996328354, 0.05666588619351387, 0.062122926115989685, 0.0675799623131752, 0.07303699851036072, 0.07849404215812683, 0.08395107090473175, 0.08940811455249786, 0.09486515074968338, 0.1003221869468689, 0.10577922314405441, 0.11123625934123993, 0.11669330298900604, 0.12215033918619156, 0.12760737538337708, 0.1330644190311432, 0.1385214477777481, 0.14397849142551422, 0.14943552017211914, 0.15489256381988525, 0.16034959256649017, 0.1658066362142563, 0.1712636649608612, 0.17672070860862732, 0.18217775225639343]}, "parameters/graph_5lstm.bias_hh_l0_reverse": {"_type": "histogram", "values": [1.0, 1.0, 0.0, 1.0, 1.0, 2.0, 4.0, 2.0, 2.0, 6.0, 0.0, 4.0, 1.0, 0.0, 1.0, 3.0, 5.0, 1.0, 1.0, 0.0, 3.0, 2.0, 1.0, 1.0, 1.0, 3.0, 3.0, 1.0, 2.0, 0.0, 2.0, 2.0, 2.0, 1.0, 3.0, 4.0, 1.0, 0.0, 3.0, 3.0, 4.0, 4.0, 1.0, 0.0, 2.0, 1.0, 1.0, 2.0, 3.0, 4.0, 1.0, 1.0, 1.0, 1.0, 2.0, 1.0, 3.0, 1.0, 4.0, 1.0, 6.0, 0.0, 1.0, 1.0], "bins": [-0.18576239049434662, -0.1797810196876526, -0.17379963397979736, -0.16781824827194214, -0.1618368774652481, -0.15585550665855408, -0.14987412095069885, -0.14389273524284363, -0.1379113644361496, -0.13192999362945557, -0.12594860792160034, -0.11996722966432571, -0.11398585140705109, -0.10800447314977646, -0.10202309489250183, -0.0960417166352272, -0.09006033837795258, -0.08407896012067795, -0.07809758186340332, -0.07211620360612869, -0.06613482534885406, -0.06015344709157944, -0.05417206883430481, -0.04819069057703018, -0.042209312319755554, -0.036227934062480927, -0.0302465558052063, -0.02426517754793167, -0.018283799290657043, -0.012302421033382416, -0.006321042776107788, -0.0003396645188331604, 0.005641728639602661, 0.011623106896877289, 0.017604485154151917, 0.023585863411426544, 0.029567241668701172, 0.0355486199259758, 0.04152999818325043, 0.047511376440525055, 0.05349275469779968, 0.05947413295507431, 0.06545551121234894, 0.07143688946962357, 0.0774182677268982, 0.08339964598417282, 0.08938102424144745, 0.09536240249872208, 0.1013437807559967, 0.10732515901327133, 0.11330653727054596, 0.11928791552782059, 0.12526929378509521, 0.13125067949295044, 0.13723205029964447, 0.1432134211063385, 0.14919480681419373, 0.15517619252204895, 0.16115756332874298, 0.167138934135437, 0.17312031984329224, 0.17910170555114746, 0.1850830763578415, 0.19106444716453552, 0.19704583287239075]}, "parameters/graph_5linear.weight": {"_type": "histogram", "values": [2.0, 2.0, 0.0, 1.0, 2.0, 0.0, 1.0, 0.0, 0.0, 0.0, 1.0, 0.0, 1.0, 0.0, 0.0, 0.0, 3.0, 1.0, 0.0, 4.0, 2.0, 1.0, 1.0, 0.0, 1.0, 3.0, 0.0, 0.0, 0.0, 0.0, 1.0, 0.0, 3.0, 0.0, 3.0, 1.0, 1.0, 1.0, 2.0, 1.0, 0.0, 0.0, 0.0, 1.0, 1.0, 1.0, 2.0, 0.0, 1.0, 1.0, 1.0, 2.0, 2.0, 2.0, 2.0, 0.0, 1.0, 0.0, 1.0, 1.0, 1.0, 0.0, 0.0, 1.0], "bins": [-0.13622716069221497, -0.13182233273983002, -0.12741750478744507, -0.12301268428564072, -0.11860785633325577, -0.11420303583145142, -0.10979820787906647, -0.10539337992668152, -0.10098855197429657, -0.09658372402191162, -0.09217890352010727, -0.08777407556772232, -0.08336924761533737, -0.07896442711353302, -0.07455959916114807, -0.07015477120876312, -0.06574995070695877, -0.06134512647986412, -0.05694029852747917, -0.05253547430038452, -0.04813064634799957, -0.04372582212090492, -0.03932099789381027, -0.034916169941425323, -0.030511345714330673, -0.026106519624590874, -0.021701693534851074, -0.017296869307756424, -0.012892043218016624, -0.008487217128276825, -0.004082392901182175, 0.0003224331885576248, 0.004727259278297424, 0.009132085368037224, 0.013536910526454449, 0.017941735684871674, 0.022346561774611473, 0.026751387864351273, 0.031156212091445923, 0.03556104004383087, 0.03996586427092552, 0.04437068849802017, 0.04877551645040512, 0.05318034067749977, 0.05758516490459442, 0.06198999285697937, 0.06639482080936432, 0.07079964131116867, 0.07520446926355362, 0.07960929721593857, 0.08401411771774292, 0.08841894567012787, 0.09282377362251282, 0.09722860157489777, 0.10163342207670212, 0.10603825002908707, 0.11044307053089142, 0.11484789848327637, 0.11925271898508072, 0.12365754693746567, 0.12806236743927002, 0.13246719539165497, 0.13687202334403992, 0.14127685129642487, 0.14568167924880981]}, "parameters/graph_5linear.bias": {"_type": "histogram", "values": [0.0, 0.0, 0.0, 0.0, 0.0, 0.0, 0.0, 0.0, 0.0, 0.0, 0.0, 0.0, 0.0, 0.0, 0.0, 0.0, 0.0, 0.0, 0.0, 0.0, 0.0, 0.0, 0.0, 0.0, 0.0, 0.0, 0.0, 0.0, 0.0, 0.0, 0.0, 0.0, 1.0, 0.0, 0.0, 0.0, 0.0, 0.0, 0.0, 0.0, 0.0, 0.0, 0.0, 0.0, 0.0, 0.0, 0.0, 0.0, 0.0, 0.0, 0.0, 0.0, 0.0, 0.0, 0.0, 0.0, 0.0, 0.0, 0.0, 0.0, 0.0, 0.0, 0.0, 0.0], "bins": [0.06348996609449387, 0.06348996609449387, 0.06348996609449387, 0.06348996609449387, 0.06348996609449387, 0.06348996609449387, 0.06348996609449387, 0.06348996609449387, 0.06348996609449387, 0.06348996609449387, 0.06348996609449387, 0.06348996609449387, 0.06348996609449387, 0.06348996609449387, 0.06348996609449387, 0.06348996609449387, 0.06348996609449387, 0.06348996609449387, 0.06348996609449387, 0.06348996609449387, 0.06348996609449387, 0.06348996609449387, 0.06348996609449387, 0.06348996609449387, 0.06348996609449387, 0.06348996609449387, 0.06348996609449387, 0.06348996609449387, 0.06348996609449387, 0.06348996609449387, 0.06348996609449387, 0.06348996609449387, 0.06348996609449387, 0.06348996609449387, 0.06348996609449387, 0.06348996609449387, 0.06348996609449387, 0.06348996609449387, 0.06348996609449387, 0.06348996609449387, 0.06348996609449387, 0.06348996609449387, 0.06348996609449387, 0.06348996609449387, 0.06348996609449387, 0.06348996609449387, 0.06348996609449387, 0.06348996609449387, 0.06348996609449387, 0.06348996609449387, 0.06348996609449387, 0.06348996609449387, 0.06348996609449387, 0.06348996609449387, 0.06348996609449387, 0.06348996609449387, 0.06348996609449387, 0.06348996609449387, 0.06348996609449387, 0.06348996609449387, 0.06348996609449387, 0.06348996609449387, 0.06348996609449387, 0.06348996609449387, 0.06348996609449387]}, "parameters/graph_6lstm.weight_ih_l0": {"_type": "histogram", "values": [4.0, 2.0, 3.0, 5.0, 7.0, 13.0, 7.0, 9.0, 7.0, 8.0, 15.0, 14.0, 14.0, 6.0, 5.0, 12.0, 15.0, 9.0, 11.0, 10.0, 8.0, 9.0, 12.0, 12.0, 16.0, 13.0, 15.0, 10.0, 8.0, 8.0, 9.0, 8.0, 11.0, 7.0, 6.0, 12.0, 15.0, 8.0, 11.0, 9.0, 8.0, 11.0, 10.0, 9.0, 7.0, 16.0, 11.0, 10.0, 14.0, 9.0, 11.0, 8.0, 10.0, 15.0, 8.0, 7.0, 12.0, 8.0, 8.0, 4.0, 8.0, 4.0, 5.0, 4.0], "bins": [-0.1978643536567688, -0.1916647106409073, -0.18546506762504578, -0.17926543951034546, -0.17306579649448395, -0.16686615347862244, -0.16066651046276093, -0.15446686744689941, -0.1482672244310379, -0.1420675814151764, -0.13586793839931488, -0.12966829538345337, -0.12346865981817245, -0.11726902425289154, -0.11106938123703003, -0.10486973822116852, -0.0986701026558876, -0.09247045964002609, -0.08627082407474518, -0.08007118105888367, -0.07387153804302216, -0.06767189502716064, -0.06147225946187973, -0.05527261644601822, -0.049072977155447006, -0.04287333786487579, -0.03667369484901428, -0.03047405555844307, -0.024274414405226707, -0.018074773252010345, -0.011875133961439133, -0.0056754909455776215, 0.0005241483449935913, 0.006723789032548666, 0.01292342972010374, 0.019123069941997528, 0.02532271109521389, 0.03152235224843025, 0.037721991539001465, 0.043921634554862976, 0.05012127384543419, 0.0563209131360054, 0.06252055615186691, 0.06872019171714783, 0.07491983473300934, 0.08111947774887085, 0.08731912076473236, 0.09351876378059387, 0.09971839934587479, 0.1059180423617363, 0.11211767792701721, 0.11831732094287872, 0.12451696395874023, 0.13071660697460175, 0.13691624999046326, 0.14311587810516357, 0.14931552112102509, 0.1555151641368866, 0.1617148071527481, 0.16791445016860962, 0.17411407828330994, 0.18031372129917145, 0.18651336431503296, 0.19271300733089447, 0.19891265034675598]}, "parameters/graph_6lstm.weight_hh_l0": {"_type": "histogram", "values": [18.0, 25.0, 23.0, 42.0, 45.0, 57.0, 67.0, 53.0, 59.0, 52.0, 61.0, 53.0, 67.0, 46.0, 64.0, 61.0, 54.0, 49.0, 53.0, 57.0, 67.0, 60.0, 76.0, 59.0, 50.0, 66.0, 55.0, 75.0, 47.0, 66.0, 59.0, 66.0, 62.0, 71.0, 58.0, 82.0, 72.0, 51.0, 61.0, 67.0, 63.0, 67.0, 45.0, 59.0, 65.0, 65.0, 63.0, 60.0, 66.0, 59.0, 71.0, 68.0, 63.0, 55.0, 58.0, 69.0, 49.0, 50.0, 65.0, 48.0, 46.0, 33.0, 23.0, 14.0], "bins": [-0.2000792771577835, -0.1938767284154892, -0.18767417967319489, -0.18147164583206177, -0.17526909708976746, -0.16906654834747314, -0.16286399960517883, -0.15666145086288452, -0.1504589021205902, -0.1442563533782959, -0.1380538046360016, -0.13185125589370728, -0.12564872205257416, -0.11944617331027985, -0.11324362456798553, -0.10704107582569122, -0.1008385419845581, -0.0946359932422638, -0.08843345195055008, -0.08223090320825577, -0.07602836191654205, -0.06982581317424774, -0.06362326443195343, -0.05742071941494942, -0.051218174397945404, -0.04501562938094139, -0.03881308436393738, -0.032610535621643066, -0.026407990604639053, -0.02020544558763504, -0.014002896845340729, -0.007800351828336716, -0.0015978217124938965, 0.004604724235832691, 0.010807270184159279, 0.01700981706380844, 0.023212362080812454, 0.029414907097816467, 0.03561745584011078, 0.04182000085711479, 0.048022545874118805, 0.05422509089112282, 0.06042763590812683, 0.06663018465042114, 0.07283273339271545, 0.07903527468442917, 0.08523782342672348, 0.0914403647184372, 0.0976429134607315, 0.10384546220302582, 0.11004800349473953, 0.11625055223703384, 0.12245309352874756, 0.12865564227104187, 0.13485819101333618, 0.1410607397556305, 0.1472632884979248, 0.15346583724021912, 0.15966838598251343, 0.16587093472480774, 0.17207346856594086, 0.17827601730823517, 0.18447856605052948, 0.1906811147928238, 0.1968836486339569]}, "parameters/graph_6lstm.bias_ih_l0": {"_type": "histogram", "values": [1.0, 1.0, 2.0, 2.0, 3.0, 4.0, 3.0, 3.0, 3.0, 0.0, 2.0, 5.0, 1.0, 1.0, 1.0, 0.0, 2.0, 1.0, 0.0, 3.0, 1.0, 1.0, 3.0, 3.0, 1.0, 1.0, 1.0, 1.0, 3.0, 3.0, 1.0, 1.0, 1.0, 3.0, 3.0, 2.0, 2.0, 4.0, 1.0, 3.0, 0.0, 2.0, 0.0, 5.0, 1.0, 3.0, 2.0, 2.0, 1.0, 3.0, 1.0, 3.0, 2.0, 2.0, 0.0, 1.0, 1.0, 4.0, 3.0, 2.0, 2.0, 1.0, 1.0, 1.0], "bins": [-0.1885782778263092, -0.18262940645217896, -0.1766805201768875, -0.17073164880275726, -0.16478277742862701, -0.15883389115333557, -0.15288501977920532, -0.14693614840507507, -0.14098727703094482, -0.13503840565681458, -0.12908951938152313, -0.12314064800739288, -0.11719177663326263, -0.11124289780855179, -0.10529401898384094, -0.0993451476097107, -0.09339626133441925, -0.0874473825097084, -0.08149851113557816, -0.07554963231086731, -0.06960076093673706, -0.06365188211202621, -0.05770300328731537, -0.05175412818789482, -0.045805253088474274, -0.039856377989053726, -0.03390750288963318, -0.027958624064922333, -0.022009748965501785, -0.016060873866081238, -0.010111995041370392, -0.004163119941949844, 0.001785770058631897, 0.007734646089375019, 0.013683522120118141, 0.019632399082183838, 0.025581274181604385, 0.03153014928102493, 0.03747902810573578, 0.043427903205156326, 0.049376778304576874, 0.05532565340399742, 0.06127452850341797, 0.06722340732812881, 0.07317228615283966, 0.07912115752696991, 0.08507003635168076, 0.0910189151763916, 0.09696778655052185, 0.1029166653752327, 0.10886553674936295, 0.11481441557407379, 0.12076328694820404, 0.12671217322349548, 0.13266104459762573, 0.13860991597175598, 0.14455878734588623, 0.15050765872001648, 0.15645654499530792, 0.16240541636943817, 0.16835428774356842, 0.17430317401885986, 0.1802520453929901, 0.18620091676712036, 0.1921498030424118]}, "parameters/graph_6lstm.bias_hh_l0": {"_type": "histogram", "values": [2.0, 1.0, 1.0, 0.0, 0.0, 0.0, 1.0, 3.0, 2.0, 3.0, 3.0, 4.0, 2.0, 0.0, 3.0, 1.0, 2.0, 2.0, 2.0, 1.0, 2.0, 3.0, 2.0, 2.0, 2.0, 2.0, 3.0, 3.0, 1.0, 2.0, 1.0, 1.0, 2.0, 2.0, 1.0, 5.0, 3.0, 2.0, 4.0, 2.0, 3.0, 4.0, 1.0, 2.0, 3.0, 0.0, 0.0, 3.0, 2.0, 2.0, 2.0, 1.0, 1.0, 2.0, 2.0, 1.0, 2.0, 2.0, 1.0, 1.0, 2.0, 0.0, 2.0, 3.0], "bins": [-0.1866794228553772, -0.18107089400291443, -0.17546236515045166, -0.1698538362979889, -0.16424530744552612, -0.15863677859306335, -0.15302824974060059, -0.14741972088813782, -0.14181119203567505, -0.13620266318321228, -0.1305941343307495, -0.12498560547828674, -0.11937707662582397, -0.1137685477733612, -0.10816002637147903, -0.10255149751901627, -0.0969429761171341, -0.09133444726467133, -0.08572591841220856, -0.08011738955974579, -0.07450886070728302, -0.06890033185482025, -0.06329181045293808, -0.05768328160047531, -0.05207475274801254, -0.046466223895549774, -0.040857695043087006, -0.035249169915914536, -0.029640641063451767, -0.024032112210989, -0.01842358708381653, -0.01281505823135376, -0.007206529378890991, -0.0015980014577507973, 0.004010526463389397, 0.009619053453207016, 0.015227582305669785, 0.020836111158132553, 0.026444636285305023, 0.03205316513776779, 0.03766169399023056, 0.04327022284269333, 0.0488787516951561, 0.05448727682232857, 0.060095805674791336, 0.0657043308019638, 0.07131285965442657, 0.07692138850688934, 0.08252991735935211, 0.08813844621181488, 0.09374697506427765, 0.09935550391674042, 0.10496403276920319, 0.11057256162166595, 0.11618108302354813, 0.1217896118760109, 0.12739813327789307, 0.13300666213035583, 0.1386151909828186, 0.14422371983528137, 0.14983224868774414, 0.1554407775402069, 0.16104930639266968, 0.16665783524513245, 0.17226636409759521]}, "parameters/graph_6lstm.weight_ih_l0_reverse": {"_type": "histogram", "values": [2.0, 3.0, 0.0, 3.0, 7.0, 12.0, 12.0, 7.0, 11.0, 12.0, 8.0, 12.0, 11.0, 13.0, 11.0, 14.0, 9.0, 9.0, 10.0, 6.0, 9.0, 10.0, 9.0, 12.0, 8.0, 9.0, 13.0, 6.0, 8.0, 7.0, 6.0, 17.0, 15.0, 13.0, 14.0, 2.0, 9.0, 7.0, 13.0, 4.0, 11.0, 10.0, 14.0, 8.0, 12.0, 10.0, 11.0, 10.0, 8.0, 15.0, 9.0, 6.0, 8.0, 15.0, 14.0, 13.0, 9.0, 11.0, 10.0, 12.0, 8.0, 7.0, 3.0, 3.0], "bins": [-0.20012865960597992, -0.19390152394771576, -0.1876743882894516, -0.18144725263118744, -0.17522011697292328, -0.16899298131465912, -0.16276583075523376, -0.1565386950969696, -0.15031155943870544, -0.14408442378044128, -0.13785728812217712, -0.13163015246391296, -0.1254030168056488, -0.11917588114738464, -0.11294873803853989, -0.10672160238027573, -0.10049447417259216, -0.094267338514328, -0.08804020285606384, -0.08181306719779968, -0.07558593153953552, -0.06935879588127136, -0.0631316527724266, -0.056904517114162445, -0.050677381455898285, -0.044450245797634125, -0.038223110139369965, -0.031995970755815506, -0.025768835097551346, -0.019541699439287186, -0.013314560055732727, -0.007087424397468567, -0.0008602738380432129, 0.005366862751543522, 0.011593999341130257, 0.017821136862039566, 0.024048272520303726, 0.030275408178567886, 0.036502547562122345, 0.042729683220386505, 0.048956818878650665, 0.055183954536914825, 0.061411090195178986, 0.06763823330402374, 0.0738653689622879, 0.08009250462055206, 0.08631964027881622, 0.09254677593708038, 0.09877391159534454, 0.1050010472536087, 0.11122818291187286, 0.11745531857013702, 0.12368245422840118, 0.12990958988666534, 0.1361367404460907, 0.14236387610435486, 0.14859101176261902, 0.15481814742088318, 0.16104528307914734, 0.1672724187374115, 0.17349955439567566, 0.17972669005393982, 0.18595382571220398, 0.19218096137046814, 0.1984080970287323]}, "parameters/graph_6lstm.weight_hh_l0_reverse": {"_type": "histogram", "values": [12.0, 19.0, 27.0, 36.0, 48.0, 72.0, 64.0, 48.0, 64.0, 70.0, 62.0, 64.0, 48.0, 67.0, 58.0, 60.0, 60.0, 60.0, 69.0, 48.0, 48.0, 58.0, 51.0, 77.0, 55.0, 68.0, 72.0, 62.0, 51.0, 66.0, 51.0, 62.0, 61.0, 56.0, 61.0, 70.0, 45.0, 59.0, 71.0, 61.0, 46.0, 61.0, 63.0, 64.0, 75.0, 63.0, 65.0, 61.0, 53.0, 68.0, 69.0, 59.0, 77.0, 68.0, 73.0, 55.0, 42.0, 59.0, 57.0, 39.0, 36.0, 37.0, 36.0, 13.0], "bins": [-0.1988462507724762, -0.19262194633483887, -0.18639764189720154, -0.1801733374595642, -0.17394903302192688, -0.16772472858428955, -0.16150042414665222, -0.1552761197090149, -0.14905181527137756, -0.14282751083374023, -0.1366032063961029, -0.13037890195846558, -0.12415459752082825, -0.11793029308319092, -0.11170598864555359, -0.10548168420791626, -0.09925738722085953, -0.0930330827832222, -0.08680877834558487, -0.08058447390794754, -0.07436016947031021, -0.06813586503267288, -0.06191156432032585, -0.05568725988268852, -0.04946295544505119, -0.043238651007413864, -0.037014346569776535, -0.030790043994784355, -0.024565739557147026, -0.018341435119509697, -0.012117132544517517, -0.005892828106880188, 0.0003314763307571411, 0.006555780302733183, 0.012780084274709225, 0.01900438778102398, 0.02522869221866131, 0.03145299851894379, 0.03767729923129082, 0.043901603668928146, 0.050125908106565475, 0.056350212544202805, 0.06257451325654984, 0.06879881769418716, 0.0750231221318245, 0.08124742656946182, 0.08747173100709915, 0.09369603544473648, 0.09992033988237381, 0.10614464432001114, 0.11236894875764847, 0.1185932531952858, 0.12481755763292313, 0.13104185461997986, 0.1372661590576172, 0.14349046349525452, 0.14971476793289185, 0.15593907237052917, 0.1621633768081665, 0.16838768124580383, 0.17461198568344116, 0.1808362901210785, 0.18706059455871582, 0.19328489899635315, 0.19950920343399048]}, "parameters/graph_6lstm.bias_ih_l0_reverse": {"_type": "histogram", "values": [2.0, 0.0, 3.0, 2.0, 1.0, 2.0, 3.0, 6.0, 4.0, 0.0, 1.0, 3.0, 3.0, 2.0, 2.0, 1.0, 0.0, 1.0, 1.0, 4.0, 2.0, 3.0, 2.0, 2.0, 1.0, 1.0, 3.0, 3.0, 0.0, 0.0, 1.0, 1.0, 0.0, 1.0, 0.0, 2.0, 1.0, 2.0, 2.0, 2.0, 4.0, 0.0, 1.0, 2.0, 4.0, 0.0, 1.0, 2.0, 2.0, 1.0, 3.0, 0.0, 4.0, 4.0, 1.0, 1.0, 5.0, 6.0, 3.0, 1.0, 2.0, 1.0, 0.0, 2.0], "bins": [-0.16707265377044678, -0.16161561012268066, -0.15615858137607574, -0.15070153772830963, -0.1452445089817047, -0.1397874653339386, -0.13433042168617249, -0.12887339293956757, -0.12341634929180145, -0.11795931309461594, -0.11250227689743042, -0.1070452332496643, -0.10158819705247879, -0.09613116085529327, -0.09067412465810776, -0.08521708846092224, -0.07976005226373672, -0.07430301606655121, -0.06884597986936569, -0.06338894367218018, -0.05793190002441406, -0.052474863827228546, -0.04701782763004303, -0.041560787707567215, -0.0361037515103817, -0.030646713450551033, -0.025189675390720367, -0.01973263919353485, -0.014275601133704185, -0.00881856307387352, -0.0033615268766880035, 0.0020955130457878113, 0.007552549242973328, 0.013009587302803993, 0.01846662536263466, 0.023923661559820175, 0.02938069961965084, 0.034837737679481506, 0.04029477387666702, 0.04575181379914284, 0.051208849996328354, 0.05666588619351387, 0.062122926115989685, 0.0675799623131752, 0.07303699851036072, 0.07849404215812683, 0.08395107090473175, 0.08940811455249786, 0.09486515074968338, 0.1003221869468689, 0.10577922314405441, 0.11123625934123993, 0.11669330298900604, 0.12215033918619156, 0.12760737538337708, 0.1330644190311432, 0.1385214477777481, 0.14397849142551422, 0.14943552017211914, 0.15489256381988525, 0.16034959256649017, 0.1658066362142563, 0.1712636649608612, 0.17672070860862732, 0.18217775225639343]}, "parameters/graph_6lstm.bias_hh_l0_reverse": {"_type": "histogram", "values": [1.0, 1.0, 0.0, 1.0, 1.0, 2.0, 4.0, 2.0, 2.0, 6.0, 0.0, 4.0, 1.0, 0.0, 1.0, 3.0, 5.0, 1.0, 1.0, 0.0, 3.0, 2.0, 1.0, 1.0, 1.0, 3.0, 3.0, 1.0, 2.0, 0.0, 2.0, 2.0, 2.0, 1.0, 3.0, 4.0, 1.0, 0.0, 3.0, 3.0, 4.0, 4.0, 1.0, 0.0, 2.0, 1.0, 1.0, 2.0, 3.0, 4.0, 1.0, 1.0, 1.0, 1.0, 2.0, 1.0, 3.0, 1.0, 4.0, 1.0, 6.0, 0.0, 1.0, 1.0], "bins": [-0.18576239049434662, -0.1797810196876526, -0.17379963397979736, -0.16781824827194214, -0.1618368774652481, -0.15585550665855408, -0.14987412095069885, -0.14389273524284363, -0.1379113644361496, -0.13192999362945557, -0.12594860792160034, -0.11996722966432571, -0.11398585140705109, -0.10800447314977646, -0.10202309489250183, -0.0960417166352272, -0.09006033837795258, -0.08407896012067795, -0.07809758186340332, -0.07211620360612869, -0.06613482534885406, -0.06015344709157944, -0.05417206883430481, -0.04819069057703018, -0.042209312319755554, -0.036227934062480927, -0.0302465558052063, -0.02426517754793167, -0.018283799290657043, -0.012302421033382416, -0.006321042776107788, -0.0003396645188331604, 0.005641728639602661, 0.011623106896877289, 0.017604485154151917, 0.023585863411426544, 0.029567241668701172, 0.0355486199259758, 0.04152999818325043, 0.047511376440525055, 0.05349275469779968, 0.05947413295507431, 0.06545551121234894, 0.07143688946962357, 0.0774182677268982, 0.08339964598417282, 0.08938102424144745, 0.09536240249872208, 0.1013437807559967, 0.10732515901327133, 0.11330653727054596, 0.11928791552782059, 0.12526929378509521, 0.13125067949295044, 0.13723205029964447, 0.1432134211063385, 0.14919480681419373, 0.15517619252204895, 0.16115756332874298, 0.167138934135437, 0.17312031984329224, 0.17910170555114746, 0.1850830763578415, 0.19106444716453552, 0.19704583287239075]}, "parameters/graph_6linear.weight": {"_type": "histogram", "values": [2.0, 2.0, 0.0, 1.0, 2.0, 0.0, 1.0, 0.0, 0.0, 0.0, 1.0, 0.0, 1.0, 0.0, 0.0, 0.0, 3.0, 1.0, 0.0, 4.0, 2.0, 1.0, 1.0, 0.0, 1.0, 3.0, 0.0, 0.0, 0.0, 0.0, 1.0, 0.0, 3.0, 0.0, 3.0, 1.0, 1.0, 1.0, 2.0, 1.0, 0.0, 0.0, 0.0, 1.0, 1.0, 1.0, 2.0, 0.0, 1.0, 1.0, 1.0, 2.0, 2.0, 2.0, 2.0, 0.0, 1.0, 0.0, 1.0, 1.0, 1.0, 0.0, 0.0, 1.0], "bins": [-0.13622716069221497, -0.13182233273983002, -0.12741750478744507, -0.12301268428564072, -0.11860785633325577, -0.11420303583145142, -0.10979820787906647, -0.10539337992668152, -0.10098855197429657, -0.09658372402191162, -0.09217890352010727, -0.08777407556772232, -0.08336924761533737, -0.07896442711353302, -0.07455959916114807, -0.07015477120876312, -0.06574995070695877, -0.06134512647986412, -0.05694029852747917, -0.05253547430038452, -0.04813064634799957, -0.04372582212090492, -0.03932099789381027, -0.034916169941425323, -0.030511345714330673, -0.026106519624590874, -0.021701693534851074, -0.017296869307756424, -0.012892043218016624, -0.008487217128276825, -0.004082392901182175, 0.0003224331885576248, 0.004727259278297424, 0.009132085368037224, 0.013536910526454449, 0.017941735684871674, 0.022346561774611473, 0.026751387864351273, 0.031156212091445923, 0.03556104004383087, 0.03996586427092552, 0.04437068849802017, 0.04877551645040512, 0.05318034067749977, 0.05758516490459442, 0.06198999285697937, 0.06639482080936432, 0.07079964131116867, 0.07520446926355362, 0.07960929721593857, 0.08401411771774292, 0.08841894567012787, 0.09282377362251282, 0.09722860157489777, 0.10163342207670212, 0.10603825002908707, 0.11044307053089142, 0.11484789848327637, 0.11925271898508072, 0.12365754693746567, 0.12806236743927002, 0.13246719539165497, 0.13687202334403992, 0.14127685129642487, 0.14568167924880981]}, "parameters/graph_6linear.bias": {"_type": "histogram", "values": [0.0, 0.0, 0.0, 0.0, 0.0, 0.0, 0.0, 0.0, 0.0, 0.0, 0.0, 0.0, 0.0, 0.0, 0.0, 0.0, 0.0, 0.0, 0.0, 0.0, 0.0, 0.0, 0.0, 0.0, 0.0, 0.0, 0.0, 0.0, 0.0, 0.0, 0.0, 0.0, 1.0, 0.0, 0.0, 0.0, 0.0, 0.0, 0.0, 0.0, 0.0, 0.0, 0.0, 0.0, 0.0, 0.0, 0.0, 0.0, 0.0, 0.0, 0.0, 0.0, 0.0, 0.0, 0.0, 0.0, 0.0, 0.0, 0.0, 0.0, 0.0, 0.0, 0.0, 0.0], "bins": [0.06348996609449387, 0.06348996609449387, 0.06348996609449387, 0.06348996609449387, 0.06348996609449387, 0.06348996609449387, 0.06348996609449387, 0.06348996609449387, 0.06348996609449387, 0.06348996609449387, 0.06348996609449387, 0.06348996609449387, 0.06348996609449387, 0.06348996609449387, 0.06348996609449387, 0.06348996609449387, 0.06348996609449387, 0.06348996609449387, 0.06348996609449387, 0.06348996609449387, 0.06348996609449387, 0.06348996609449387, 0.06348996609449387, 0.06348996609449387, 0.06348996609449387, 0.06348996609449387, 0.06348996609449387, 0.06348996609449387, 0.06348996609449387, 0.06348996609449387, 0.06348996609449387, 0.06348996609449387, 0.06348996609449387, 0.06348996609449387, 0.06348996609449387, 0.06348996609449387, 0.06348996609449387, 0.06348996609449387, 0.06348996609449387, 0.06348996609449387, 0.06348996609449387, 0.06348996609449387, 0.06348996609449387, 0.06348996609449387, 0.06348996609449387, 0.06348996609449387, 0.06348996609449387, 0.06348996609449387, 0.06348996609449387, 0.06348996609449387, 0.06348996609449387, 0.06348996609449387, 0.06348996609449387, 0.06348996609449387, 0.06348996609449387, 0.06348996609449387, 0.06348996609449387, 0.06348996609449387, 0.06348996609449387, 0.06348996609449387, 0.06348996609449387, 0.06348996609449387, 0.06348996609449387, 0.06348996609449387, 0.06348996609449387]}, "gradients/graph_5linear.bias": {"_type": "histogram", "values": [0.0, 0.0, 0.0, 0.0, 0.0, 0.0, 0.0, 0.0, 0.0, 0.0, 0.0, 0.0, 0.0, 0.0, 0.0, 0.0, 0.0, 0.0, 0.0, 0.0, 0.0, 0.0, 0.0, 0.0, 0.0, 0.0, 0.0, 0.0, 0.0, 0.0, 0.0, 0.0, 1.0, 0.0, 0.0, 0.0, 0.0, 0.0, 0.0, 0.0, 0.0, 0.0, 0.0, 0.0, 0.0, 0.0, 0.0, 0.0, 0.0, 0.0, 0.0, 0.0, 0.0, 0.0, 0.0, 0.0, 0.0, 0.0, 0.0, 0.0, 0.0, 0.0, 0.0, 0.0], "bins": [0.09499680995941162, 0.09499680995941162, 0.09499680995941162, 0.09499680995941162, 0.09499680995941162, 0.09499680995941162, 0.09499680995941162, 0.09499680995941162, 0.09499680995941162, 0.09499680995941162, 0.09499680995941162, 0.09499680995941162, 0.09499680995941162, 0.09499680995941162, 0.09499680995941162, 0.09499680995941162, 0.09499680995941162, 0.09499680995941162, 0.09499680995941162, 0.09499680995941162, 0.09499680995941162, 0.09499680995941162, 0.09499680995941162, 0.09499680995941162, 0.09499680995941162, 0.09499680995941162, 0.09499680995941162, 0.09499680995941162, 0.09499680995941162, 0.09499680995941162, 0.09499680995941162, 0.09499680995941162, 0.09499680995941162, 0.09499680995941162, 0.09499680995941162, 0.09499680995941162, 0.09499680995941162, 0.09499680995941162, 0.09499680995941162, 0.09499680995941162, 0.09499680995941162, 0.09499680995941162, 0.09499680995941162, 0.09499680995941162, 0.09499680995941162, 0.09499680995941162, 0.09499680995941162, 0.09499680995941162, 0.09499680995941162, 0.09499680995941162, 0.09499680995941162, 0.09499680995941162, 0.09499680995941162, 0.09499680995941162, 0.09499680995941162, 0.09499680995941162, 0.09499680995941162, 0.09499680995941162, 0.09499680995941162, 0.09499680995941162, 0.09499680995941162, 0.09499680995941162, 0.09499680995941162, 0.09499680995941162, 0.09499680995941162]}, "gradients/graph_6linear.bias": {"_type": "histogram", "values": [0.0, 0.0, 0.0, 0.0, 0.0, 0.0, 0.0, 0.0, 0.0, 0.0, 0.0, 0.0, 0.0, 0.0, 0.0, 0.0, 0.0, 0.0, 0.0, 0.0, 0.0, 0.0, 0.0, 0.0, 0.0, 0.0, 0.0, 0.0, 0.0, 0.0, 0.0, 0.0, 1.0, 0.0, 0.0, 0.0, 0.0, 0.0, 0.0, 0.0, 0.0, 0.0, 0.0, 0.0, 0.0, 0.0, 0.0, 0.0, 0.0, 0.0, 0.0, 0.0, 0.0, 0.0, 0.0, 0.0, 0.0, 0.0, 0.0, 0.0, 0.0, 0.0, 0.0, 0.0], "bins": [0.09499680995941162, 0.09499680995941162, 0.09499680995941162, 0.09499680995941162, 0.09499680995941162, 0.09499680995941162, 0.09499680995941162, 0.09499680995941162, 0.09499680995941162, 0.09499680995941162, 0.09499680995941162, 0.09499680995941162, 0.09499680995941162, 0.09499680995941162, 0.09499680995941162, 0.09499680995941162, 0.09499680995941162, 0.09499680995941162, 0.09499680995941162, 0.09499680995941162, 0.09499680995941162, 0.09499680995941162, 0.09499680995941162, 0.09499680995941162, 0.09499680995941162, 0.09499680995941162, 0.09499680995941162, 0.09499680995941162, 0.09499680995941162, 0.09499680995941162, 0.09499680995941162, 0.09499680995941162, 0.09499680995941162, 0.09499680995941162, 0.09499680995941162, 0.09499680995941162, 0.09499680995941162, 0.09499680995941162, 0.09499680995941162, 0.09499680995941162, 0.09499680995941162, 0.09499680995941162, 0.09499680995941162, 0.09499680995941162, 0.09499680995941162, 0.09499680995941162, 0.09499680995941162, 0.09499680995941162, 0.09499680995941162, 0.09499680995941162, 0.09499680995941162, 0.09499680995941162, 0.09499680995941162, 0.09499680995941162, 0.09499680995941162, 0.09499680995941162, 0.09499680995941162, 0.09499680995941162, 0.09499680995941162, 0.09499680995941162, 0.09499680995941162, 0.09499680995941162, 0.09499680995941162, 0.09499680995941162, 0.09499680995941162]}, "gradients/graph_5linear.weight": {"_type": "histogram", "values": [1.0, 0.0, 3.0, 0.0, 0.0, 0.0, 1.0, 0.0, 0.0, 0.0, 0.0, 0.0, 1.0, 0.0, 0.0, 3.0, 0.0, 1.0, 1.0, 3.0, 0.0, 0.0, 3.0, 2.0, 1.0, 0.0, 0.0, 0.0, 0.0, 5.0, 2.0, 3.0, 5.0, 1.0, 1.0, 3.0, 1.0, 2.0, 2.0, 3.0, 1.0, 0.0, 0.0, 2.0, 0.0, 2.0, 2.0, 0.0, 0.0, 0.0, 0.0, 1.0, 0.0, 1.0, 1.0, 0.0, 1.0, 0.0, 0.0, 0.0, 0.0, 0.0, 0.0, 1.0], "bins": [-0.016474604606628418, -0.01591634750366211, -0.015358088538050652, -0.014799831435084343, -0.01424157340079546, -0.013683315366506577, -0.013125057332217693, -0.01256679929792881, -0.012008542194962502, -0.011450284160673618, -0.010892026126384735, -0.010333769023418427, -0.009775510989129543, -0.00921725295484066, -0.008658994920551777, -0.008100736886262894, -0.0075424788519740105, -0.006984220817685127, -0.006425963249057531, -0.005867705214768648, -0.005309447646141052, -0.004751189611852169, -0.004192931577563286, -0.00363467400893569, -0.0030764159746468067, -0.002518158173188567, -0.0019599003717303276, -0.0014016423374414444, -0.0008433845359832048, -0.0002851267345249653, 0.0002731312997639179, 0.0008313888683915138, 0.001389646902680397, 0.0019479047041386366, 0.002506162505596876, 0.0030644205398857594, 0.003622678341343999, 0.0041809361428022385, 0.004739194177091122, 0.005297451745718718, 0.005855709780007601, 0.006413967814296484, 0.00697222538292408, 0.007530483417212963, 0.008088741451501846, 0.008646998554468155, 0.009205257520079613, 0.009763514623045921, 0.010321772657334805, 0.010880030691623688, 0.011438288725912571, 0.011996546760201454, 0.012554803863167763, 0.013113061897456646, 0.01367131993174553, 0.014229577034711838, 0.014787836000323296, 0.015346094034612179, 0.015904352068901062, 0.01646260917186737, 0.01702086813747883, 0.017579125240445137, 0.018137384206056595, 0.018695641309022903, 0.019253898411989212]}, "gradients/graph_6linear.weight": {"_type": "histogram", "values": [1.0, 0.0, 3.0, 0.0, 0.0, 0.0, 1.0, 0.0, 0.0, 0.0, 0.0, 0.0, 1.0, 0.0, 0.0, 3.0, 0.0, 1.0, 1.0, 3.0, 0.0, 0.0, 3.0, 2.0, 1.0, 0.0, 0.0, 0.0, 0.0, 5.0, 2.0, 3.0, 5.0, 1.0, 1.0, 3.0, 1.0, 2.0, 2.0, 3.0, 1.0, 0.0, 0.0, 2.0, 0.0, 2.0, 2.0, 0.0, 0.0, 0.0, 0.0, 1.0, 0.0, 1.0, 1.0, 0.0, 1.0, 0.0, 0.0, 0.0, 0.0, 0.0, 0.0, 1.0], "bins": [-0.016474604606628418, -0.01591634750366211, -0.015358088538050652, -0.014799831435084343, -0.01424157340079546, -0.013683315366506577, -0.013125057332217693, -0.01256679929792881, -0.012008542194962502, -0.011450284160673618, -0.010892026126384735, -0.010333769023418427, -0.009775510989129543, -0.00921725295484066, -0.008658994920551777, -0.008100736886262894, -0.0075424788519740105, -0.006984220817685127, -0.006425963249057531, -0.005867705214768648, -0.005309447646141052, -0.004751189611852169, -0.004192931577563286, -0.00363467400893569, -0.0030764159746468067, -0.002518158173188567, -0.0019599003717303276, -0.0014016423374414444, -0.0008433845359832048, -0.0002851267345249653, 0.0002731312997639179, 0.0008313888683915138, 0.001389646902680397, 0.0019479047041386366, 0.002506162505596876, 0.0030644205398857594, 0.003622678341343999, 0.0041809361428022385, 0.004739194177091122, 0.005297451745718718, 0.005855709780007601, 0.006413967814296484, 0.00697222538292408, 0.007530483417212963, 0.008088741451501846, 0.008646998554468155, 0.009205257520079613, 0.009763514623045921, 0.010321772657334805, 0.010880030691623688, 0.011438288725912571, 0.011996546760201454, 0.012554803863167763, 0.013113061897456646, 0.01367131993174553, 0.014229577034711838, 0.014787836000323296, 0.015346094034612179, 0.015904352068901062, 0.01646260917186737, 0.01702086813747883, 0.017579125240445137, 0.018137384206056595, 0.018695641309022903, 0.019253898411989212]}, "gradients/graph_5lstm.weight_ih_l0": {"_type": "histogram", "values": [1.0, 0.0, 0.0, 2.0, 0.0, 0.0, 0.0, 1.0, 1.0, 1.0, 0.0, 0.0, 1.0, 0.0, 0.0, 2.0, 1.0, 2.0, 0.0, 3.0, 5.0, 3.0, 4.0, 2.0, 5.0, 1.0, 4.0, 10.0, 13.0, 19.0, 58.0, 134.0, 235.0, 26.0, 10.0, 10.0, 5.0, 5.0, 6.0, 3.0, 5.0, 4.0, 2.0, 3.0, 1.0, 1.0, 1.0, 0.0, 3.0, 0.0, 1.0, 0.0, 0.0, 0.0, 1.0, 0.0, 0.0, 0.0, 1.0, 3.0, 0.0, 0.0, 0.0, 1.0], "bins": [-0.00592282647266984, -0.005737859755754471, -0.0055528925731778145, -0.0053679258562624454, -0.005182959139347076, -0.00499799195677042, -0.004813025239855051, -0.004628058522939682, -0.004443091340363026, -0.004258124623447657, -0.004073157440871, -0.0038881907239556313, -0.0037032237742096186, -0.003518256824463606, -0.003333290107548237, -0.003148323157802224, -0.0029633562080562115, -0.002778389258310199, -0.002593422308564186, -0.002408455591648817, -0.0022234886419028044, -0.0020385216921567917, -0.0018535548588261008, -0.00166858802549541, -0.0014836210757493973, -0.0012986541260033846, -0.0011136872926726937, -0.000928720401134342, -0.0007437535095959902, -0.0005587866180576384, -0.00037381972651928663, -0.00018885289318859577, -3.885943442583084e-06, 0.0001810809480957687, 0.00036604783963412046, 0.0005510147311724722, 0.000735981622710824, 0.0009209485142491758, 0.0011059154057875276, 0.0012908822391182184, 0.0014758491888642311, 0.0016608161386102438, 0.0018457829719409347, 0.0020307498052716255, 0.002215716755017638, 0.002400683704763651, 0.00258565042167902, 0.0027706173714250326, 0.0029555843211710453, 0.003140551270917058, 0.0033255182206630707, 0.0035104849375784397, 0.0036954518873244524, 0.003880418837070465, 0.004065385553985834, 0.004250352270901203, 0.0044353194534778595, 0.0046202861703932285, 0.004805253352969885, 0.004990220069885254, 0.00517518725246191, 0.005360153969377279, 0.005545120686292648, 0.005730087868869305, 0.005915054585784674]}, "gradients/graph_6lstm.weight_ih_l0": {"_type": "histogram", "values": [1.0, 0.0, 0.0, 2.0, 0.0, 0.0, 0.0, 1.0, 1.0, 1.0, 0.0, 0.0, 1.0, 0.0, 0.0, 2.0, 1.0, 2.0, 0.0, 3.0, 5.0, 3.0, 4.0, 2.0, 5.0, 1.0, 4.0, 10.0, 13.0, 19.0, 58.0, 134.0, 235.0, 26.0, 10.0, 10.0, 5.0, 5.0, 6.0, 3.0, 5.0, 4.0, 2.0, 3.0, 1.0, 1.0, 1.0, 0.0, 3.0, 0.0, 1.0, 0.0, 0.0, 0.0, 1.0, 0.0, 0.0, 0.0, 1.0, 3.0, 0.0, 0.0, 0.0, 1.0], "bins": [-0.00592282647266984, -0.005737859755754471, -0.0055528925731778145, -0.0053679258562624454, -0.005182959139347076, -0.00499799195677042, -0.004813025239855051, -0.004628058522939682, -0.004443091340363026, -0.004258124623447657, -0.004073157440871, -0.0038881907239556313, -0.0037032237742096186, -0.003518256824463606, -0.003333290107548237, -0.003148323157802224, -0.0029633562080562115, -0.002778389258310199, -0.002593422308564186, -0.002408455591648817, -0.0022234886419028044, -0.0020385216921567917, -0.0018535548588261008, -0.00166858802549541, -0.0014836210757493973, -0.0012986541260033846, -0.0011136872926726937, -0.000928720401134342, -0.0007437535095959902, -0.0005587866180576384, -0.00037381972651928663, -0.00018885289318859577, -3.885943442583084e-06, 0.0001810809480957687, 0.00036604783963412046, 0.0005510147311724722, 0.000735981622710824, 0.0009209485142491758, 0.0011059154057875276, 0.0012908822391182184, 0.0014758491888642311, 0.0016608161386102438, 0.0018457829719409347, 0.0020307498052716255, 0.002215716755017638, 0.002400683704763651, 0.00258565042167902, 0.0027706173714250326, 0.0029555843211710453, 0.003140551270917058, 0.0033255182206630707, 0.0035104849375784397, 0.0036954518873244524, 0.003880418837070465, 0.004065385553985834, 0.004250352270901203, 0.0044353194534778595, 0.0046202861703932285, 0.004805253352969885, 0.004990220069885254, 0.00517518725246191, 0.005360153969377279, 0.005545120686292648, 0.005730087868869305, 0.005915054585784674]}, "gradients/graph_5lstm.bias_ih_l0": {"_type": "histogram", "values": [2.0, 0.0, 0.0, 0.0, 0.0, 1.0, 0.0, 1.0, 0.0, 0.0, 0.0, 0.0, 0.0, 1.0, 0.0, 0.0, 0.0, 1.0, 0.0, 2.0, 0.0, 1.0, 0.0, 1.0, 0.0, 1.0, 2.0, 4.0, 3.0, 7.0, 13.0, 33.0, 27.0, 6.0, 1.0, 2.0, 1.0, 0.0, 1.0, 1.0, 1.0, 0.0, 0.0, 1.0, 0.0, 0.0, 1.0, 1.0, 0.0, 1.0, 0.0, 1.0, 0.0, 0.0, 0.0, 0.0, 0.0, 0.0, 0.0, 1.0, 0.0, 0.0, 0.0, 1.0], "bins": [-0.006224030628800392, -0.0060268123634159565, -0.0058295936323702335, -0.005632375366985798, -0.005435156635940075, -0.005237938370555639, -0.005040720105171204, -0.004843501374125481, -0.004646282643079758, -0.004449064377695322, -0.004251845646649599, -0.004054627381265163, -0.0038574086502194405, -0.003660190384835005, -0.0034629718866199255, -0.003265753388404846, -0.0030685351230204105, -0.0028713166248053312, -0.002674098126590252, -0.0024768798612058163, -0.0022796611301600933, -0.0020824428647756577, -0.0018852243665605783, -0.001688005868345499, -0.0014907873701304197, -0.0012935688719153404, -0.0010963503737002611, -0.0008991319919005036, -0.0007019134936854243, -0.000504694995470345, -0.00030747661367058754, -0.00011025811545550823, 8.696038275957108e-05, 0.0002841788518708199, 0.0004813973209820688, 0.0006786157609894872, 0.0008758342592045665, 0.0010730527574196458, 0.0012702711392194033, 0.0014674896374344826, 0.0016647081356495619, 0.0018619266338646412, 0.0020591451320797205, 0.0022563636302948, 0.0024535818956792355, 0.0026508006267249584, 0.002848018892109394, 0.0030452373903244734, 0.0032424558885395527, 0.003439674386754632, 0.0036368928849697113, 0.003834111150354147, 0.00403132988139987, 0.004228548146784306, 0.0044257668778300285, 0.004622985143214464, 0.0048202034085989, 0.0050174216739833355, 0.0052146404050290585, 0.005411858670413494, 0.005609077401459217, 0.005806295666843653, 0.006003513932228088, 0.006200732663273811, 0.006397951394319534]}, "gradients/graph_6lstm.bias_ih_l0": {"_type": "histogram", "values": [2.0, 0.0, 0.0, 0.0, 0.0, 1.0, 0.0, 1.0, 0.0, 0.0, 0.0, 0.0, 0.0, 1.0, 0.0, 0.0, 0.0, 1.0, 0.0, 2.0, 0.0, 1.0, 0.0, 1.0, 0.0, 1.0, 2.0, 4.0, 3.0, 7.0, 13.0, 33.0, 27.0, 6.0, 1.0, 2.0, 1.0, 0.0, 1.0, 1.0, 1.0, 0.0, 0.0, 1.0, 0.0, 0.0, 1.0, 1.0, 0.0, 1.0, 0.0, 1.0, 0.0, 0.0, 0.0, 0.0, 0.0, 0.0, 0.0, 1.0, 0.0, 0.0, 0.0, 1.0], "bins": [-0.006224030628800392, -0.0060268123634159565, -0.0058295936323702335, -0.005632375366985798, -0.005435156635940075, -0.005237938370555639, -0.005040720105171204, -0.004843501374125481, -0.004646282643079758, -0.004449064377695322, -0.004251845646649599, -0.004054627381265163, -0.0038574086502194405, -0.003660190384835005, -0.0034629718866199255, -0.003265753388404846, -0.0030685351230204105, -0.0028713166248053312, -0.002674098126590252, -0.0024768798612058163, -0.0022796611301600933, -0.0020824428647756577, -0.0018852243665605783, -0.001688005868345499, -0.0014907873701304197, -0.0012935688719153404, -0.0010963503737002611, -0.0008991319919005036, -0.0007019134936854243, -0.000504694995470345, -0.00030747661367058754, -0.00011025811545550823, 8.696038275957108e-05, 0.0002841788518708199, 0.0004813973209820688, 0.0006786157609894872, 0.0008758342592045665, 0.0010730527574196458, 0.0012702711392194033, 0.0014674896374344826, 0.0016647081356495619, 0.0018619266338646412, 0.0020591451320797205, 0.0022563636302948, 0.0024535818956792355, 0.0026508006267249584, 0.002848018892109394, 0.0030452373903244734, 0.0032424558885395527, 0.003439674386754632, 0.0036368928849697113, 0.003834111150354147, 0.00403132988139987, 0.004228548146784306, 0.0044257668778300285, 0.004622985143214464, 0.0048202034085989, 0.0050174216739833355, 0.0052146404050290585, 0.005411858670413494, 0.005609077401459217, 0.005806295666843653, 0.006003513932228088, 0.006200732663273811, 0.006397951394319534]}, "gradients/graph_5lstm.bias_ih_l0_reverse": {"_type": "histogram", "values": [2.0, 1.0, 0.0, 0.0, 0.0, 0.0, 0.0, 0.0, 0.0, 0.0, 0.0, 0.0, 1.0, 1.0, 0.0, 0.0, 0.0, 1.0, 1.0, 0.0, 0.0, 0.0, 0.0, 0.0, 0.0, 1.0, 1.0, 3.0, 1.0, 28.0, 53.0, 6.0, 1.0, 3.0, 1.0, 0.0, 2.0, 0.0, 0.0, 2.0, 0.0, 2.0, 1.0, 1.0, 1.0, 0.0, 1.0, 0.0, 0.0, 0.0, 0.0, 3.0, 0.0, 0.0, 0.0, 0.0, 0.0, 0.0, 0.0, 0.0, 0.0, 1.0, 0.0, 1.0], "bins": [-0.007243417669087648, -0.007003224454820156, -0.006763031240552664, -0.0065228380262851715, -0.006282644812017679, -0.006042451597750187, -0.005802258849143982, -0.005562065169215202, -0.005321872420608997, -0.005081679206341505, -0.004841485992074013, -0.0046012927778065205, -0.004361099563539028, -0.004120906349271536, -0.0038807133678346872, -0.003640520153567195, -0.003400326706469059, -0.0031601334922015667, -0.0029199402779340744, -0.002679747063666582, -0.00243955384939909, -0.0021993606351315975, -0.001959167653694749, -0.0017189744394272566, -0.0014787812251597643, -0.001238588010892272, -0.0009983947966247797, -0.0007582016987726092, -0.0005180084845051169, -0.00027781527023762465, -3.762217238545418e-05, 0.00020257104188203812, 0.0004427647218108177, 0.00068295793607831, 0.0009231510921381414, 0.0011633442481979728, 0.001403537462465465, 0.0016437306767329574, 0.0018839237745851278, 0.00212411698885262, 0.0023643102031201124, 0.0026045034173876047, 0.002844696631655097, 0.0030848896130919456, 0.003325082827359438, 0.0035652760416269302, 0.0038054692558944225, 0.004045662470161915, 0.004285855684429407, 0.004526048898696899, 0.004766242112964392, 0.005006435327231884, 0.005246628541499376, 0.005486821755766869, 0.005727014504373074, 0.005967208184301853, 0.006207400932908058, 0.0064475941471755505, 0.006687787361443043, 0.006927980575710535, 0.007168173789978027, 0.00740836700424552, 0.007648560218513012, 0.007888752967119217, 0.008128946647047997]}, "gradients/graph_6lstm.bias_ih_l0_reverse": {"_type": "histogram", "values": [2.0, 1.0, 0.0, 0.0, 0.0, 0.0, 0.0, 0.0, 0.0, 0.0, 0.0, 0.0, 1.0, 1.0, 0.0, 0.0, 0.0, 1.0, 1.0, 0.0, 0.0, 0.0, 0.0, 0.0, 0.0, 1.0, 1.0, 3.0, 1.0, 28.0, 53.0, 6.0, 1.0, 3.0, 1.0, 0.0, 2.0, 0.0, 0.0, 2.0, 0.0, 2.0, 1.0, 1.0, 1.0, 0.0, 1.0, 0.0, 0.0, 0.0, 0.0, 3.0, 0.0, 0.0, 0.0, 0.0, 0.0, 0.0, 0.0, 0.0, 0.0, 1.0, 0.0, 1.0], "bins": [-0.007243417669087648, -0.007003224454820156, -0.006763031240552664, -0.0065228380262851715, -0.006282644812017679, -0.006042451597750187, -0.005802258849143982, -0.005562065169215202, -0.005321872420608997, -0.005081679206341505, -0.004841485992074013, -0.0046012927778065205, -0.004361099563539028, -0.004120906349271536, -0.0038807133678346872, -0.003640520153567195, -0.003400326706469059, -0.0031601334922015667, -0.0029199402779340744, -0.002679747063666582, -0.00243955384939909, -0.0021993606351315975, -0.001959167653694749, -0.0017189744394272566, -0.0014787812251597643, -0.001238588010892272, -0.0009983947966247797, -0.0007582016987726092, -0.0005180084845051169, -0.00027781527023762465, -3.762217238545418e-05, 0.00020257104188203812, 0.0004427647218108177, 0.00068295793607831, 0.0009231510921381414, 0.0011633442481979728, 0.001403537462465465, 0.0016437306767329574, 0.0018839237745851278, 0.00212411698885262, 0.0023643102031201124, 0.0026045034173876047, 0.002844696631655097, 0.0030848896130919456, 0.003325082827359438, 0.0035652760416269302, 0.0038054692558944225, 0.004045662470161915, 0.004285855684429407, 0.004526048898696899, 0.004766242112964392, 0.005006435327231884, 0.005246628541499376, 0.005486821755766869, 0.005727014504373074, 0.005967208184301853, 0.006207400932908058, 0.0064475941471755505, 0.006687787361443043, 0.006927980575710535, 0.007168173789978027, 0.00740836700424552, 0.007648560218513012, 0.007888752967119217, 0.008128946647047997]}, "gradients/graph_5lstm.weight_hh_l0_reverse": {"_type": "histogram", "values": [2.0, 0.0, 2.0, 0.0, 3.0, 0.0, 0.0, 0.0, 1.0, 3.0, 3.0, 1.0, 2.0, 3.0, 3.0, 7.0, 3.0, 7.0, 11.0, 11.0, 7.0, 14.0, 16.0, 19.0, 19.0, 28.0, 44.0, 57.0, 124.0, 371.0, 2053.0, 403.0, 122.0, 60.0, 30.0, 29.0, 31.0, 21.0, 11.0, 14.0, 10.0, 12.0, 5.0, 5.0, 3.0, 5.0, 5.0, 5.0, 2.0, 2.0, 2.0, 1.0, 0.0, 0.0, 0.0, 1.0, 2.0, 2.0, 1.0, 1.0, 0.0, 0.0, 0.0, 1.0], "bins": [-0.0009142319322563708, -0.0008843457326292992, -0.0008544595330022275, -0.0008245733333751559, -0.0007946870755404234, -0.0007648009341210127, -0.0007349146762862802, -0.0007050284766592085, -0.0006751422770321369, -0.0006452560774050653, -0.0006153698777779937, -0.0005854836781509221, -0.0005555974785238504, -0.0005257112206891179, -0.0004958250210620463, -0.00046593882143497467, -0.00043605262180790305, -0.00040616642218083143, -0.0003762802225537598, -0.00034639399382285774, -0.0003165077941957861, -0.0002866215945687145, -0.0002567353658378124, -0.0002268491662107408, -0.00019696296658366919, -0.00016707676695659757, -0.00013719055277761072, -0.00010730434587458149, -7.741813897155225e-05, -4.7531939344480634e-05, -1.7645725165493786e-05, 1.2240489013493061e-05, 4.2126746848225594e-05, 7.201295375125483e-05, 0.00010189916065428406, 0.0001317853748332709, 0.00016167157446034253, 0.00019155777408741415, 0.000221443988266401, 0.00025133020244538784, 0.00028121640207245946, 0.0003111026016995311, 0.0003409888013266027, 0.0003708750300575048, 0.0004007612296845764, 0.000430647429311648, 0.0004605336580425501, 0.0004904198576696217, 0.0005203060572966933, 0.0005501922569237649, 0.0005800784565508366, 0.0006099646561779082, 0.0006398508558049798, 0.0006697371136397123, 0.000699623313266784, 0.0007295095128938556, 0.0007593957125209272, 0.0007892819121479988, 0.0008191681117750704, 0.000849054311402142, 0.0008789405692368746, 0.0009088267106562853, 0.0009387129684910178, 0.0009685991681180894, 0.000998485367745161]}, "gradients/graph_6lstm.weight_hh_l0_reverse": {"_type": "histogram", "values": [2.0, 0.0, 2.0, 0.0, 3.0, 0.0, 0.0, 0.0, 1.0, 3.0, 3.0, 1.0, 2.0, 3.0, 3.0, 7.0, 3.0, 7.0, 11.0, 11.0, 7.0, 14.0, 16.0, 19.0, 19.0, 28.0, 44.0, 57.0, 124.0, 371.0, 2053.0, 403.0, 122.0, 60.0, 30.0, 29.0, 31.0, 21.0, 11.0, 14.0, 10.0, 12.0, 5.0, 5.0, 3.0, 5.0, 5.0, 5.0, 2.0, 2.0, 2.0, 1.0, 0.0, 0.0, 0.0, 1.0, 2.0, 2.0, 1.0, 1.0, 0.0, 0.0, 0.0, 1.0], "bins": [-0.0009142319322563708, -0.0008843457326292992, -0.0008544595330022275, -0.0008245733333751559, -0.0007946870755404234, -0.0007648009341210127, -0.0007349146762862802, -0.0007050284766592085, -0.0006751422770321369, -0.0006452560774050653, -0.0006153698777779937, -0.0005854836781509221, -0.0005555974785238504, -0.0005257112206891179, -0.0004958250210620463, -0.00046593882143497467, -0.00043605262180790305, -0.00040616642218083143, -0.0003762802225537598, -0.00034639399382285774, -0.0003165077941957861, -0.0002866215945687145, -0.0002567353658378124, -0.0002268491662107408, -0.00019696296658366919, -0.00016707676695659757, -0.00013719055277761072, -0.00010730434587458149, -7.741813897155225e-05, -4.7531939344480634e-05, -1.7645725165493786e-05, 1.2240489013493061e-05, 4.2126746848225594e-05, 7.201295375125483e-05, 0.00010189916065428406, 0.0001317853748332709, 0.00016167157446034253, 0.00019155777408741415, 0.000221443988266401, 0.00025133020244538784, 0.00028121640207245946, 0.0003111026016995311, 0.0003409888013266027, 0.0003708750300575048, 0.0004007612296845764, 0.000430647429311648, 0.0004605336580425501, 0.0004904198576696217, 0.0005203060572966933, 0.0005501922569237649, 0.0005800784565508366, 0.0006099646561779082, 0.0006398508558049798, 0.0006697371136397123, 0.000699623313266784, 0.0007295095128938556, 0.0007593957125209272, 0.0007892819121479988, 0.0008191681117750704, 0.000849054311402142, 0.0008789405692368746, 0.0009088267106562853, 0.0009387129684910178, 0.0009685991681180894, 0.000998485367745161]}, "gradients/graph_5lstm.bias_hh_l0_reverse": {"_type": "histogram", "values": [2.0, 1.0, 0.0, 0.0, 0.0, 0.0, 0.0, 0.0, 0.0, 0.0, 0.0, 0.0, 1.0, 1.0, 0.0, 0.0, 0.0, 1.0, 1.0, 0.0, 0.0, 0.0, 0.0, 0.0, 0.0, 1.0, 1.0, 3.0, 1.0, 28.0, 53.0, 6.0, 1.0, 3.0, 1.0, 0.0, 2.0, 0.0, 0.0, 2.0, 0.0, 2.0, 1.0, 1.0, 1.0, 0.0, 1.0, 0.0, 0.0, 0.0, 0.0, 3.0, 0.0, 0.0, 0.0, 0.0, 0.0, 0.0, 0.0, 0.0, 0.0, 1.0, 0.0, 1.0], "bins": [-0.007243417669087648, -0.007003224454820156, -0.006763031240552664, -0.0065228380262851715, -0.006282644812017679, -0.006042451597750187, -0.005802258849143982, -0.005562065169215202, -0.005321872420608997, -0.005081679206341505, -0.004841485992074013, -0.0046012927778065205, -0.004361099563539028, -0.004120906349271536, -0.0038807133678346872, -0.003640520153567195, -0.003400326706469059, -0.0031601334922015667, -0.0029199402779340744, -0.002679747063666582, -0.00243955384939909, -0.0021993606351315975, -0.001959167653694749, -0.0017189744394272566, -0.0014787812251597643, -0.001238588010892272, -0.0009983947966247797, -0.0007582016987726092, -0.0005180084845051169, -0.00027781527023762465, -3.762217238545418e-05, 0.00020257104188203812, 0.0004427647218108177, 0.00068295793607831, 0.0009231510921381414, 0.0011633442481979728, 0.001403537462465465, 0.0016437306767329574, 0.0018839237745851278, 0.00212411698885262, 0.0023643102031201124, 0.0026045034173876047, 0.002844696631655097, 0.0030848896130919456, 0.003325082827359438, 0.0035652760416269302, 0.0038054692558944225, 0.004045662470161915, 0.004285855684429407, 0.004526048898696899, 0.004766242112964392, 0.005006435327231884, 0.005246628541499376, 0.005486821755766869, 0.005727014504373074, 0.005967208184301853, 0.006207400932908058, 0.0064475941471755505, 0.006687787361443043, 0.006927980575710535, 0.007168173789978027, 0.00740836700424552, 0.007648560218513012, 0.007888752967119217, 0.008128946647047997]}, "gradients/graph_6lstm.bias_hh_l0_reverse": {"_type": "histogram", "values": [2.0, 1.0, 0.0, 0.0, 0.0, 0.0, 0.0, 0.0, 0.0, 0.0, 0.0, 0.0, 1.0, 1.0, 0.0, 0.0, 0.0, 1.0, 1.0, 0.0, 0.0, 0.0, 0.0, 0.0, 0.0, 1.0, 1.0, 3.0, 1.0, 28.0, 53.0, 6.0, 1.0, 3.0, 1.0, 0.0, 2.0, 0.0, 0.0, 2.0, 0.0, 2.0, 1.0, 1.0, 1.0, 0.0, 1.0, 0.0, 0.0, 0.0, 0.0, 3.0, 0.0, 0.0, 0.0, 0.0, 0.0, 0.0, 0.0, 0.0, 0.0, 1.0, 0.0, 1.0], "bins": [-0.007243417669087648, -0.007003224454820156, -0.006763031240552664, -0.0065228380262851715, -0.006282644812017679, -0.006042451597750187, -0.005802258849143982, -0.005562065169215202, -0.005321872420608997, -0.005081679206341505, -0.004841485992074013, -0.0046012927778065205, -0.004361099563539028, -0.004120906349271536, -0.0038807133678346872, -0.003640520153567195, -0.003400326706469059, -0.0031601334922015667, -0.0029199402779340744, -0.002679747063666582, -0.00243955384939909, -0.0021993606351315975, -0.001959167653694749, -0.0017189744394272566, -0.0014787812251597643, -0.001238588010892272, -0.0009983947966247797, -0.0007582016987726092, -0.0005180084845051169, -0.00027781527023762465, -3.762217238545418e-05, 0.00020257104188203812, 0.0004427647218108177, 0.00068295793607831, 0.0009231510921381414, 0.0011633442481979728, 0.001403537462465465, 0.0016437306767329574, 0.0018839237745851278, 0.00212411698885262, 0.0023643102031201124, 0.0026045034173876047, 0.002844696631655097, 0.0030848896130919456, 0.003325082827359438, 0.0035652760416269302, 0.0038054692558944225, 0.004045662470161915, 0.004285855684429407, 0.004526048898696899, 0.004766242112964392, 0.005006435327231884, 0.005246628541499376, 0.005486821755766869, 0.005727014504373074, 0.005967208184301853, 0.006207400932908058, 0.0064475941471755505, 0.006687787361443043, 0.006927980575710535, 0.007168173789978027, 0.00740836700424552, 0.007648560218513012, 0.007888752967119217, 0.008128946647047997]}, "gradients/graph_5lstm.weight_ih_l0_reverse": {"_type": "histogram", "values": [3.0, 0.0, 0.0, 0.0, 1.0, 1.0, 0.0, 2.0, 3.0, 0.0, 2.0, 1.0, 1.0, 2.0, 0.0, 4.0, 1.0, 2.0, 2.0, 2.0, 3.0, 4.0, 1.0, 3.0, 5.0, 4.0, 9.0, 7.0, 18.0, 34.0, 190.0, 184.0, 26.0, 12.0, 9.0, 7.0, 5.0, 6.0, 9.0, 2.0, 3.0, 4.0, 5.0, 0.0, 2.0, 2.0, 5.0, 0.0, 2.0, 1.0, 1.0, 0.0, 0.0, 2.0, 2.0, 2.0, 1.0, 0.0, 1.0, 0.0, 0.0, 0.0, 0.0, 2.0], "bins": [-0.005424066446721554, -0.00524907698854804, -0.005074087530374527, -0.004899098537862301, -0.0047241090796887875, -0.004549119621515274, -0.004374130163341761, -0.004199140705168247, -0.004024151712656021, -0.0038491622544825077, -0.003674173029139638, -0.0034991835709661245, -0.0033241943456232548, -0.0031492048874497414, -0.002974215429276228, -0.0027992259711027145, -0.002624236512929201, -0.0024492470547556877, -0.002274257829412818, -0.0020992683712393045, -0.001924279029481113, -0.0017492896877229214, -0.001574300229549408, -0.0013993108877912164, -0.0012243215460330248, -0.0010493322042748332, -0.0008743428043089807, -0.0006993534043431282, -0.0005243640625849366, -0.00034937472082674503, -0.00017438526265323162, 6.040791049599648e-07, 0.00017559295520186424, 0.0003505823260638863, 0.0005255716969259083, 0.0007005610968917608, 0.0008755504386499524, 0.001050539780408144, 0.0012255292385816574, 0.001400518580339849, 0.0015755079220980406, 0.0017504972638562322, 0.0019254866056144238, 0.002100476063787937, 0.0022754655219614506, 0.0024504547473043203, 0.0026254442054778337, 0.0028004334308207035, 0.002975422888994217, 0.0031504123471677303, 0.0033254015725106, 0.0035003910306841135, 0.0036753802560269833, 0.0038503697142004967, 0.00402535917237401, 0.0042003486305475235, 0.00437533762305975, 0.004550327081233263, 0.004725316539406776, 0.0049003055319190025, 0.005075294990092516, 0.005250284448266029, 0.005425273906439543, 0.005600263364613056, 0.00577525282278657]}, "gradients/graph_6lstm.weight_ih_l0_reverse": {"_type": "histogram", "values": [3.0, 0.0, 0.0, 0.0, 1.0, 1.0, 0.0, 2.0, 3.0, 0.0, 2.0, 1.0, 1.0, 2.0, 0.0, 4.0, 1.0, 2.0, 2.0, 2.0, 3.0, 4.0, 1.0, 3.0, 5.0, 4.0, 9.0, 7.0, 18.0, 34.0, 190.0, 184.0, 26.0, 12.0, 9.0, 7.0, 5.0, 6.0, 9.0, 2.0, 3.0, 4.0, 5.0, 0.0, 2.0, 2.0, 5.0, 0.0, 2.0, 1.0, 1.0, 0.0, 0.0, 2.0, 2.0, 2.0, 1.0, 0.0, 1.0, 0.0, 0.0, 0.0, 0.0, 2.0], "bins": [-0.005424066446721554, -0.00524907698854804, -0.005074087530374527, -0.004899098537862301, -0.0047241090796887875, -0.004549119621515274, -0.004374130163341761, -0.004199140705168247, -0.004024151712656021, -0.0038491622544825077, -0.003674173029139638, -0.0034991835709661245, -0.0033241943456232548, -0.0031492048874497414, -0.002974215429276228, -0.0027992259711027145, -0.002624236512929201, -0.0024492470547556877, -0.002274257829412818, -0.0020992683712393045, -0.001924279029481113, -0.0017492896877229214, -0.001574300229549408, -0.0013993108877912164, -0.0012243215460330248, -0.0010493322042748332, -0.0008743428043089807, -0.0006993534043431282, -0.0005243640625849366, -0.00034937472082674503, -0.00017438526265323162, 6.040791049599648e-07, 0.00017559295520186424, 0.0003505823260638863, 0.0005255716969259083, 0.0007005610968917608, 0.0008755504386499524, 0.001050539780408144, 0.0012255292385816574, 0.001400518580339849, 0.0015755079220980406, 0.0017504972638562322, 0.0019254866056144238, 0.002100476063787937, 0.0022754655219614506, 0.0024504547473043203, 0.0026254442054778337, 0.0028004334308207035, 0.002975422888994217, 0.0031504123471677303, 0.0033254015725106, 0.0035003910306841135, 0.0036753802560269833, 0.0038503697142004967, 0.00402535917237401, 0.0042003486305475235, 0.00437533762305975, 0.004550327081233263, 0.004725316539406776, 0.0049003055319190025, 0.005075294990092516, 0.005250284448266029, 0.005425273906439543, 0.005600263364613056, 0.00577525282278657]}, "gradients/graph_5lstm.weight_hh_l0": {"_type": "histogram", "values": [2.0, 0.0, 0.0, 1.0, 0.0, 4.0, 1.0, 1.0, 2.0, 1.0, 1.0, 1.0, 1.0, 1.0, 1.0, 3.0, 5.0, 7.0, 8.0, 6.0, 13.0, 9.0, 20.0, 11.0, 22.0, 31.0, 49.0, 71.0, 134.0, 547.0, 2049.0, 282.0, 98.0, 51.0, 35.0, 24.0, 28.0, 11.0, 15.0, 7.0, 5.0, 6.0, 5.0, 8.0, 4.0, 2.0, 4.0, 2.0, 1.0, 1.0, 1.0, 1.0, 1.0, 0.0, 1.0, 3.0, 0.0, 0.0, 1.0, 0.0, 0.0, 0.0, 0.0, 1.0], "bins": [-0.0008564449963159859, -0.0008281695190817118, -0.0007998939836397767, -0.0007716185064055026, -0.0007433430291712284, -0.0007150674937292933, -0.0006867920164950192, -0.000658516539260745, -0.00063024100381881, -0.0006019655265845358, -0.0005736899911426008, -0.0005454145139083266, -0.0005171389784663916, -0.0004888635012321174, -0.00046058802399784327, -0.00043231251765973866, -0.00040403701132163405, -0.00037576150498352945, -0.00034748599864542484, -0.0003192105214111507, -0.0002909350150730461, -0.0002626595087349415, -0.0002343840169487521, -0.00020610852516256273, -0.00017783301882445812, -0.00014955751248635352, -0.00012128202070016414, -9.300652163801715e-05, -6.473102257587016e-05, -3.645551623776555e-05, -8.180024451576173e-06, 2.0095467334613204e-05, 4.8370915465056896e-05, 7.664641452720389e-05, 0.00010492191358935088, 0.00013319740537554026, 0.00016147291171364486, 0.00018974841805174947, 0.00021802390983793885, 0.0002462994016241282, 0.00027457490796223283, 0.00030285041430033743, 0.00033112592063844204, 0.0003594013978727162, 0.0003876769042108208, 0.0004159524105489254, 0.00044422788778319955, 0.00047250339412130415, 0.0005007789004594088, 0.0005290543776936829, 0.000557329913135618, 0.0005856053903698921, 0.0006138809258118272, 0.0006421564030461013, 0.0006704318802803755, 0.0006987074157223105, 0.0007269828929565847, 0.0007552583701908588, 0.0007835339056327939, 0.000811809382867068, 0.0008400848601013422, 0.0008683603955432773, 0.0008966358727775514, 0.0009249113500118256, 0.0009531868854537606]}, "gradients/graph_6lstm.weight_hh_l0": {"_type": "histogram", "values": [2.0, 0.0, 0.0, 1.0, 0.0, 4.0, 1.0, 1.0, 2.0, 1.0, 1.0, 1.0, 1.0, 1.0, 1.0, 3.0, 5.0, 7.0, 8.0, 6.0, 13.0, 9.0, 20.0, 11.0, 22.0, 31.0, 49.0, 71.0, 134.0, 547.0, 2049.0, 282.0, 98.0, 51.0, 35.0, 24.0, 28.0, 11.0, 15.0, 7.0, 5.0, 6.0, 5.0, 8.0, 4.0, 2.0, 4.0, 2.0, 1.0, 1.0, 1.0, 1.0, 1.0, 0.0, 1.0, 3.0, 0.0, 0.0, 1.0, 0.0, 0.0, 0.0, 0.0, 1.0], "bins": [-0.0008564449963159859, -0.0008281695190817118, -0.0007998939836397767, -0.0007716185064055026, -0.0007433430291712284, -0.0007150674937292933, -0.0006867920164950192, -0.000658516539260745, -0.00063024100381881, -0.0006019655265845358, -0.0005736899911426008, -0.0005454145139083266, -0.0005171389784663916, -0.0004888635012321174, -0.00046058802399784327, -0.00043231251765973866, -0.00040403701132163405, -0.00037576150498352945, -0.00034748599864542484, -0.0003192105214111507, -0.0002909350150730461, -0.0002626595087349415, -0.0002343840169487521, -0.00020610852516256273, -0.00017783301882445812, -0.00014955751248635352, -0.00012128202070016414, -9.300652163801715e-05, -6.473102257587016e-05, -3.645551623776555e-05, -8.180024451576173e-06, 2.0095467334613204e-05, 4.8370915465056896e-05, 7.664641452720389e-05, 0.00010492191358935088, 0.00013319740537554026, 0.00016147291171364486, 0.00018974841805174947, 0.00021802390983793885, 0.0002462994016241282, 0.00027457490796223283, 0.00030285041430033743, 0.00033112592063844204, 0.0003594013978727162, 0.0003876769042108208, 0.0004159524105489254, 0.00044422788778319955, 0.00047250339412130415, 0.0005007789004594088, 0.0005290543776936829, 0.000557329913135618, 0.0005856053903698921, 0.0006138809258118272, 0.0006421564030461013, 0.0006704318802803755, 0.0006987074157223105, 0.0007269828929565847, 0.0007552583701908588, 0.0007835339056327939, 0.000811809382867068, 0.0008400848601013422, 0.0008683603955432773, 0.0008966358727775514, 0.0009249113500118256, 0.0009531868854537606]}, "gradients/graph_5lstm.bias_hh_l0": {"_type": "histogram", "values": [2.0, 0.0, 0.0, 0.0, 0.0, 1.0, 0.0, 1.0, 0.0, 0.0, 0.0, 0.0, 0.0, 1.0, 0.0, 0.0, 0.0, 1.0, 0.0, 2.0, 0.0, 1.0, 0.0, 1.0, 0.0, 1.0, 2.0, 4.0, 3.0, 7.0, 13.0, 33.0, 27.0, 6.0, 1.0, 2.0, 1.0, 0.0, 1.0, 1.0, 1.0, 0.0, 0.0, 1.0, 0.0, 0.0, 1.0, 1.0, 0.0, 1.0, 0.0, 1.0, 0.0, 0.0, 0.0, 0.0, 0.0, 0.0, 0.0, 1.0, 0.0, 0.0, 0.0, 1.0], "bins": [-0.006224030628800392, -0.0060268123634159565, -0.0058295936323702335, -0.005632375366985798, -0.005435156635940075, -0.005237938370555639, -0.005040720105171204, -0.004843501374125481, -0.004646282643079758, -0.004449064377695322, -0.004251845646649599, -0.004054627381265163, -0.0038574086502194405, -0.003660190384835005, -0.0034629718866199255, -0.003265753388404846, -0.0030685351230204105, -0.0028713166248053312, -0.002674098126590252, -0.0024768798612058163, -0.0022796611301600933, -0.0020824428647756577, -0.0018852243665605783, -0.001688005868345499, -0.0014907873701304197, -0.0012935688719153404, -0.0010963503737002611, -0.0008991319919005036, -0.0007019134936854243, -0.000504694995470345, -0.00030747661367058754, -0.00011025811545550823, 8.696038275957108e-05, 0.0002841788518708199, 0.0004813973209820688, 0.0006786157609894872, 0.0008758342592045665, 0.0010730527574196458, 0.0012702711392194033, 0.0014674896374344826, 0.0016647081356495619, 0.0018619266338646412, 0.0020591451320797205, 0.0022563636302948, 0.0024535818956792355, 0.0026508006267249584, 0.002848018892109394, 0.0030452373903244734, 0.0032424558885395527, 0.003439674386754632, 0.0036368928849697113, 0.003834111150354147, 0.00403132988139987, 0.004228548146784306, 0.0044257668778300285, 0.004622985143214464, 0.0048202034085989, 0.0050174216739833355, 0.0052146404050290585, 0.005411858670413494, 0.005609077401459217, 0.005806295666843653, 0.006003513932228088, 0.006200732663273811, 0.006397951394319534]}, "gradients/graph_6lstm.bias_hh_l0": {"_type": "histogram", "values": [2.0, 0.0, 0.0, 0.0, 0.0, 1.0, 0.0, 1.0, 0.0, 0.0, 0.0, 0.0, 0.0, 1.0, 0.0, 0.0, 0.0, 1.0, 0.0, 2.0, 0.0, 1.0, 0.0, 1.0, 0.0, 1.0, 2.0, 4.0, 3.0, 7.0, 13.0, 33.0, 27.0, 6.0, 1.0, 2.0, 1.0, 0.0, 1.0, 1.0, 1.0, 0.0, 0.0, 1.0, 0.0, 0.0, 1.0, 1.0, 0.0, 1.0, 0.0, 1.0, 0.0, 0.0, 0.0, 0.0, 0.0, 0.0, 0.0, 1.0, 0.0, 0.0, 0.0, 1.0], "bins": [-0.006224030628800392, -0.0060268123634159565, -0.0058295936323702335, -0.005632375366985798, -0.005435156635940075, -0.005237938370555639, -0.005040720105171204, -0.004843501374125481, -0.004646282643079758, -0.004449064377695322, -0.004251845646649599, -0.004054627381265163, -0.0038574086502194405, -0.003660190384835005, -0.0034629718866199255, -0.003265753388404846, -0.0030685351230204105, -0.0028713166248053312, -0.002674098126590252, -0.0024768798612058163, -0.0022796611301600933, -0.0020824428647756577, -0.0018852243665605783, -0.001688005868345499, -0.0014907873701304197, -0.0012935688719153404, -0.0010963503737002611, -0.0008991319919005036, -0.0007019134936854243, -0.000504694995470345, -0.00030747661367058754, -0.00011025811545550823, 8.696038275957108e-05, 0.0002841788518708199, 0.0004813973209820688, 0.0006786157609894872, 0.0008758342592045665, 0.0010730527574196458, 0.0012702711392194033, 0.0014674896374344826, 0.0016647081356495619, 0.0018619266338646412, 0.0020591451320797205, 0.0022563636302948, 0.0024535818956792355, 0.0026508006267249584, 0.002848018892109394, 0.0030452373903244734, 0.0032424558885395527, 0.003439674386754632, 0.0036368928849697113, 0.003834111150354147, 0.00403132988139987, 0.004228548146784306, 0.0044257668778300285, 0.004622985143214464, 0.0048202034085989, 0.0050174216739833355, 0.0052146404050290585, 0.005411858670413494, 0.005609077401459217, 0.005806295666843653, 0.006003513932228088, 0.006200732663273811, 0.006397951394319534]}, "train_loss": 0.07010101526975632, "test_loss": 0.04498097002506256, "_step": 0, "_wandb": {"runtime": 4}}